452 128
435 0.53092426 -0.06797057 0.09195026 -0.21361676 -0.20576788 -0.06400613 -0.09757299 0.15752712 -0.33765087 -0.29635558 0.09690611 0.25858596 0.28055564 -0.04492507 -0.19792587 0.6740639 -0.3275878 -0.3890807 0.73692644 0.114858784 -0.029900871 0.33353254 0.2414062 -0.25930282 0.019859508 -0.15877856 -0.27783883 0.31582612 -0.05774982 0.0848969 -0.20041673 -0.33224344 0.22189616 -0.018744834 0.530899 0.14994611 0.009463451 -0.3675221 -0.22783 -0.22996171 -0.18460654 -0.23308495 0.21774976 0.2674363 0.24423963 -0.23701498 -0.022602828 0.27637932 -0.35296947 0.3393237 0.23608063 -0.87898016 0.3435117 0.33447346 0.0057521174 0.32080424 0.1429981 -0.37132084 -0.4151484 0.07896796 0.43776917 -0.15918575 0.56711054 0.18897268 -0.050081182 0.42897806 0.32047877 0.46987218 0.0013284219 0.023139725 -0.12846625 -0.25625542 -0.49871534 -0.21715938 -0.28909108 -0.07654315 -0.25885046 -0.17303142 0.23469624 0.4176274 -0.8008759 0.14066273 0.85543925 0.156398 -0.27401936 -0.40900785 0.020576863 0.060405124 -0.05561761 -0.11081947 0.013048253 -0.1539042 -0.010591721 -0.46225694 0.21943012 -0.13864039 0.3186264 0.032082133 0.29035532 -0.2483991 0.006340483 -0.15296686 0.40374482 -0.2560975 -0.12395508 0.031690508 0.20038797 -0.36260155 0.1272054 0.14730422 -0.041638404 0.24973252 0.041152116 0.013023605 0.15970467 -0.26302963 0.098849766 0.057313554 -0.2721772 0.060694154 0.43377578 -0.2602504 0.15329035 0.1928678 0.0018303002 -0.123321086 -0.367703 0.009948423
62 0.64233285 0.13313101 -0.1775681 -0.47883683 -0.68832785 -0.74302685 -0.21183036 0.424751 0.17392924 -0.017820897 -0.6344251 0.33646685 -0.19665264 0.2527988 0.33553806 -0.355159 0.07143434 -0.51623785 0.24244203 -0.41050068 -0.2871129 0.1548789 -0.25191918 0.10910507 0.26488844 -0.11076072 -0.014575075 -0.29459426 0.58526015 -0.0024787325 0.27869377 0.46293694 -0.008561067 0.08713276 0.26507208 -0.1341783 -0.15104039 -0.035164863 -0.11208542 0.1627564 0.1257047 -0.039535213 0.31164342 -0.2166685 0.27961162 0.5980863 -0.5522271 -0.22122225 -0.29738784 0.44443342 -0.31794527 -0.10357874 0.10511095 0.42440277 -0.1703522 0.17810255 -0.20570488 -0.26866576 0.037044313 -0.39553535 0.005807665 0.08990036 0.2802618 0.14951321 -0.4139966 -0.26251948 0.3297863 -0.063842565 -0.026989792 -0.084667996 -0.056842078 0.59774786 -0.03362931 -0.31452832 0.3658711 -0.23089519 -0.0067148884 -0.26483873 -0.1421351 -0.10701794 -0.10379153 -0.20487763 0.33939266 -0.081512675 -0.6841193 -0.19518718 -0.1912994 0.16814376 -0.71433824 -0.013406082 -0.048898194 0.14263384 -0.11690898 0.25496712 -0.042951845 -0.35161483 0.2016188 0.4984912 -0.49757165 0.4010547 -0.09722829 0.14994982 -0.19749042 -0.1905826 0.032950774 0.75819415 0.52016747 0.003186339 0.1732472 -0.12929694 0.557546 -0.037430257 -0.022684582 -0.3783175 -0.053251177 0.01782159 0.4800394 -0.0112615125 -0.3323105 0.38679302 0.1590976 -0.1719534 0.13130462 -0.400966 0.34924892 -0.07633585 -0.093643285 -0.18910538
112 0.07809814 0.39517036 -0.05984157 0.19145223 0.11499082 -0.4728611 -0.49929494 0.32021818 -0.060814243 0.296665 -0.17676514 -0.034193676 0.7082855 0.03132932 -0.25810203 0.26673895 0.5518649 0.013101797 -0.0036430748 -0.17051484 -0.10118904 -0.04713289 -0.20838736 0.18716303 0.178885 0.038984247 0.04173969 0.29165953 0.40353566 0.32547888 -0.25214463 0.22823797 0.15745017 -0.00015490649 -0.2653516 0.103964575 0.15812443 -0.26243672 -0.18028842 -0.2204832 0.12030547 -0.59600616 0.24079537 0.028868396 0.4564282 0.34096983 -0.6301923 -0.00070158194 -0.45774835 0.28997576 0.13329056 -0.20928282 0.24797319 0.21857785 0.09355779 0.033006396 -0.32756233 -0.31983253 -0.08422019 -0.09050459 -0.24717888 0.019509364 0.5673541 0.11238236 -0.21676984 -0.25980023 0.36080068 0.060955957 0.39538515 -0.3193533 0.08035168 0.29651073 -0.11175715 0.25792104 0.0057803825 -0.15743864 -0.19879834 -0.05033659 0.31890038 -0.20355518 -0.26532382 0.011447417 0.26498753 0.30873513 -0.021600422 -0.09183476 -0.15356879 0.17451158 -0.07799298 0.15238218 0.015710898 -0.24094377 -0.36201936 -0.12038227 0.14592937 -0.5357731 -0.28454974 0.3052884 0.12204547 0.31213382 0.14937335 -0.028997647 -0.10997658 0.04762088 -0.47679305 -0.19828029 0.37215525 -0.18976067 0.3831858 0.050711505 0.13746177 -0.0841825 -0.27633864 -0.6603809 -0.110889174 0.045158036 -0.33043844 0.26618388 -0.15431836 -0.15399458 -0.057437047 -0.66206115 -0.24286109 -0.043227997 -0.33773145 0.064574644 0.2537172 -0.09316999
136 0.550822 0.765769 0.25190517 -0.62612593 -0.03360683 0.5534541 0.32434666 -0.2707862 0.012121803 -0.077089764 0.17010914 0.46232447 0.26610616 0.70284885 -0.41895944 0.14356092 -0.09712183 -0.1606607 0.11826498 -0.5107951 -0.37779322 0.2958873 0.004002683 0.25755364 0.17991507 -0.09251963 -0.14161249 0.023197139 0.14426303 -0.039361227 -0.00468524 0.31675667 0.41202828 0.08185133 0.17999154 0.61506915 -0.14495775 -0.6281494 -0.4853653 0.2662493 0.3903847 -0.53573424 -0.18511662 -0.15487327 0.5174137 0.4009689 -0.30953535 -0.28273863 0.19143102 -0.26182127 -0.3907439 -0.4350988 -0.016642874 -0.19628623 0.5308157 0.37779176 0.36943308 -0.57858634 0.18308805 0.17868614 0.3722524 0.10950266 0.7051453 -0.0062504024 0.12897992 0.71632457 0.32237333 -0.02216029 0.22901231 -0.64972126 -0.7607908 -0.3030633 -0.1692563 0.52517366 0.1013105 -0.076400764 -0.37068287 -0.3723154 -0.34467584 0.101826616 -0.7954008 0.49068806 0.4460247 0.16405605 -0.09035683 -0.48236445 0.28707358 0.28332254 0.023136318 -0.15458514 -0.28078234 -0.62196624 0.446293 -0.03884403 0.44925445 0.23176254 0.431515 0.22953497 0.3081508 0.1257229 -0.13361391 -0.074283175 0.23649654 0.40235198 0.18543828 -0.11163114 -0.6891289 -0.19316664 0.33154622 0.02395089 -0.20124683 -0.2307667 -0.37384945 0.20750941 0.14103667 0.06253069 0.6240982 0.09545111 0.17349494 0.25068825 0.32020396 -0.5705217 0.37249422 -0.105497524 -0.015821334 0.0297452 -0.49208578 0.020174155
206 -0.2269654 -0.51708245 0.28775433 -0.26895365 -0.08165606 -0.37172502 -0.2858605 0.30215272 0.49095255 0.34238058 0.09419945 0.16835663 -0.21944258 0.20727745 0.037720755 0.2556693 0.007749948 0.023498695 0.41350716 -0.6319569 -0.24161975 -0.37457213 0.16562502 0.16332081 -0.26260883 -0.06933831 0.10095743 -0.42729682 -0.10580448 0.33491808 0.31227648 -0.15507513 0.7395531 -0.4592742 0.29664367 0.5220595 0.3869608 -0.2556425 0.098466 0.28921926 0.3627651 -0.34490356 0.17900169 -0.5408289 0.23223169 0.37457123 -0.46515492 0.2249745 -0.41074634 -0.4089516 0.2326361 -0.21506533 0.3291361 -0.066127785 0.339789 0.1574138 -0.5582222 0.18042949 0.082786106 -0.122737244 0.2772337 -0.35463375 0.29957432 0.32588223 0.28821662 -0.14040332 -0.47315404 -0.22151315 0.093479 0.4531897 -0.7585189 -0.43021393 -0.43053004 0.12043449 0.38544267 -0.2448345 0.40946364 0.370377 -0.62464607 0.07115775 -0.20746952 0.5043816 -0.37839752 -0.027562903 -0.6077782 0.2279265 -0.23722513 0.2933982 -0.16548155 0.05445789 -0.3776896 -0.47202265 0.16410965 -0.1857049 -0.47735697 -0.80393374 0.021499326 0.008012943 -0.13172561 -0.07121836 -0.04040776 -0.8439559 -0.575249 -0.067862265 0.12887435 -0.04779024 0.10929996 -0.051482096 -0.25209066 -0.15121125 -0.15803175 -0.4218135 0.05634935 -0.16984095 -0.40749457 -0.5614756 -0.31451634 0.33945525 -0.09388682 0.4635372 0.27395844 -0.21375638 0.22985691 0.5649546 0.35604852 0.071100436 0.2771827 0.0758535
159 0.13823071 -0.22983018 0.11869123 -0.5263768 0.1586822 -0.17193304 -0.09629939 -0.327727 0.18582998 0.5473241 -0.006223077 0.09071213 0.0039061776 -0.2297864 -0.23405199 0.1847855 0.1530745 -0.10601298 0.5225427 -0.63255215 -0.5374245 0.059982896 0.030043468 0.10391585 0.3071166 0.24044032 0.16367835 0.4167743 0.21132436 -0.36450815 -0.1175611 -0.07141777 0.6392655 0.16479798 -0.43456826 0.03707858 0.2140942 -0.29013434 0.185866 0.29442036 0.8250729 -0.12849414 0.32115105 0.26586822 -0.3220293 -0.72402483 -0.39706856 -0.4985122 -0.32267383 -0.2645244 0.20568627 -0.38942298 0.0023974609 0.4840218 -0.6602938 -0.085711226 0.44909325 0.44818443 0.3070353 -0.22771852 -0.49451274 0.27071968 0.30366853 0.1348647 0.31434503 0.50660884 0.14103088 0.1240665 -0.3873886 0.1069836 -0.40452203 0.099761054 -0.4198337 0.39574838 -0.44802335 -0.15829453 -0.33234325 0.18712218 -0.027914492 0.5022854 -0.09610589 0.43751857 -0.33622172 0.3980014 -0.20314705 -0.110872805 -0.265665 0.14977546 -0.13562822 0.5949608 -0.6281088 0.24961564 -0.0091232015 -0.49930367 -0.51887393 -0.021230005 0.015668381 -0.035254765 0.23709479 0.59238607 -0.26924008 -0.22548401 -0.3912442 0.22141354 0.02252707 0.34328943 0.08186492 0.21541674 0.33224502 -0.36390123 -0.39763567 0.72743523 0.084085055 0.13521333 -0.29623944 -0.48552865 -0.042710617 0.012850738 0.75225437 0.7482185 0.23934796 -0.14428338 0.1388431 0.07425551 0.2505548 0.21126789 0.21503153 -0.20177494
34 0.3476752 -0.25013947 0.18320598 -0.06161851 -0.52485913 -0.10655933 -0.14465329 -0.5878389 -0.050477214 0.24824001 -0.568042 -0.47356287 0.23574722 -0.069991 -0.22625619 0.15786807 0.4705744 0.030533845 0.4957027 -0.14016806 0.041305445 -0.060125813 0.3507298 0.12545764 0.10484171 0.1541058 -0.24293526 -0.36780426 0.1112995 0.028973015 0.19146933 -0.13357425 0.5226071 0.342294 0.24463122 0.16611621 0.12987615 -0.19664408 0.48385498 0.15757303 -0.36323956 -0.17207503 -0.018467756 -0.08128139 0.5837208 -0.12662591 0.09273733 0.39073148 -0.34168288 -0.41539398 -0.04455093 -0.04824271 0.5201881 -0.022991093 -0.7449938 0.03161426 -0.2993978 -0.5543667 -0.31855977 -0.37959123 0.059571624 -0.011188836 0.42686263 0.5227262 -0.41487837 0.16365728 0.124784134 0.16713287 -0.2464188 0.33902642 0.15648165 0.18562065 0.035836983 0.06367595 0.044835314 0.13559335 0.2540375 -0.04302216 0.19725049 0.13146667 0.017729225 0.20506594 0.2415549 0.32525665 0.29311845 -0.3907958 0.43851945 -0.28458428 -0.55212426 -0.15589252 0.04091794 -0.12564224 0.004018384 -0.40612182 0.20555891 -0.29674128 0.4574331 0.30333656 0.24387583 0.50052565 -0.51484513 -0.063281626 0.08125381 0.24546666 -0.48423573 -0.11365928 0.103262626 -0.8577266 -0.42178464 0.14497742 0.22967136 -0.16768464 -0.113731526 -0.090957105 -0.13547094 -0.38476303 -0.07751489 0.0747087 0.07007327 -0.90807635 0.36574927 -0.41101947 0.4640932 0.090185806 -0.414218 -0.041084517 -0.18450432 0.4446295
9 0.46692184 0.41000932 -0.38193503 -0.40362632 -0.2733591 -0.05962761 -0.39008 -0.41204777 -0.30316618 -0.0790541 -0.2949139 0.36319694 0.17116247 0.062084325 -0.105595626 0.40389732 1.1993713 -0.11288064 0.040877454 -0.61489624 -0.05215803 0.4595106 0.36565897 0.42952994 0.1342618 0.2892365 0.8127792 -0.09755298 0.0273548 -0.5658936 0.046028636 0.21415217 0.32419097 0.3235577 -0.16680206 -0.290054 -0.43548873 -0.22928265 0.08911303 -0.27762657 -0.21195717 -0.41071457 0.03961548 -0.25187996 -0.11327627 0.4764886 -0.07918163 0.19727342 -0.59302306 -0.27212715 -0.079861924 -0.1304611 0.1615244 -0.055846952 -0.37137488 0.13727163 -0.66018313 0.017362667 -0.37490097 -0.12692094 0.04031977 0.19532041 -0.041925102 0.08928156 0.1844565 -0.026052432 0.21528332 0.34796336 -0.0052008624 -0.16906743 0.22234674 0.30271086 0.19762674 0.35830662 -0.084333904 -0.36444104 0.26422593 0.19630285 0.3998665 -0.30009264 -0.094073296 0.11141605 0.20770666 0.3716054 0.051314592 -0.307421 -0.37287208 -0.189135 -0.25815877 0.19617541 0.07492419 0.09666992 0.4251422 0.12219959 0.50601655 -0.22882318 0.16521573 -0.080443926 0.28412527 -0.14614043 -0.2927814 0.14708035 -0.28382438 0.486421 -0.6768349 -0.27515048 0.108951196 0.15924108 0.5421958 0.24459015 -0.24346767 0.090282224 -0.46645617 -0.10901274 -0.1875424 -0.41161963 0.21541266 0.66207504 -0.42524478 0.16108623 0.5547728 -0.74859005 -0.07971343 0.08246957 -0.46586064 0.4793479 -0.16650629 0.31874198
119 0.23822014 0.18613654 0.1927677 0.05577574 -0.03658789 -0.33415335 -0.6642277 0.52769035 -0.1415266 0.3683105 -0.1712023 -0.2013839 0.44249222 0.14709818 -0.028990617 0.45303303 0.105162114 -0.43080565 0.17566939 -0.4485686 -0.04339173 0.2879375 -0.0028794499 0.0704545 -0.255589 -0.029205868 0.22648993 -0.060500666 0.6028717 0.22415908 -0.22366501 -0.023920335 0.14594045 0.36386636 -0.35290003 0.14005327 0.14012156 -0.354008 0.09027135 -0.107971705 0.65184915 -0.60829157 0.25803155 -0.02013354 0.0810935 0.24248537 -0.13374996 0.18425141 -0.47104523 0.01585511 -0.010640928 0.20625691 0.09687812 0.15932932 -0.047195654 0.10781032 -0.29717028 0.14164682 0.010459823 -0.121312864 -0.32040134 0.0782211 0.26699746 0.13735981 0.084474504 -0.04886956 0.10623005 -0.082509145 0.16476195 -0.25522205 0.025737654 0.1460509 -0.27232006 0.02902583 0.28970322 -0.21798518 -0.17282005 -0.29631576 -0.18431614 0.053754997 -0.29675978 -0.056324404 0.47215828 0.22666642 -0.020181276 -0.20446914 -0.20134668 -0.25634974 0.20767233 -0.14179382 0.17518033 0.16612524 -0.022829626 -0.18385999 0.3019049 -0.38829473 -0.29178774 0.48466745 -0.10929278 0.43900537 -0.1928631 0.07605773 0.048353564 -0.105998054 -0.2407269 -0.01707004 0.30223036 0.08667981 -0.045848873 0.29694727 0.4879704 -0.17447987 0.019446295 -0.57681596 0.19227093 0.27346426 -0.24773572 0.44751143 0.040241383 -0.17142454 0.24122676 -0.37617525 0.25040323 -0.36916423 -0.022045529 0.014323525 -0.36256328 -0.11789265
287 0.2509981 0.7784482 0.12269218 0.1284831 0.026867995 -0.49896976 -0.5468738 0.10164524 0.16691557 0.3339509 0.13235863 0.22713032 0.60854495 0.5196348 -0.25118682 -0.026102206 0.713877 -0.012175789 0.10611785 -0.252001 -0.4762063 0.37406406 0.1034879 0.5139689 -0.1843517 0.2034061 -0.19596057 0.09225584 0.22737324 -0.07004338 -0.24829592 0.0017564915 0.14041832 0.2241714 -0.14056556 0.29412445 0.10892607 -0.25213426 0.055936873 -0.2315906 0.01903827 -0.2929605 0.22425492 -0.22984487 0.50696486 0.1952993 -0.68260604 0.021789638 -0.16200413 0.1445074 0.06366631 -0.31719765 0.25127473 -0.10515592 0.3096752 0.011444857 -0.85106623 -0.612349 -0.1300829 0.25918147 -0.516804 -0.17510931 0.48693222 0.26328138 -0.41379088 -0.3736042 0.22762306 0.24021907 0.28356892 -0.5955516 -0.39589196 0.17207228 0.026129333 0.36180666 0.11360603 -0.5703407 -0.22743477 -0.28319192 0.4362041 -0.16064256 -0.15507163 0.26868907 -0.24208231 0.07078592 0.16116953 -0.21996187 -0.23845752 0.17491096 -0.3597967 -0.04800873 -0.1562096 0.21332411 -0.35853007 0.081357785 -0.034183305 -0.31765077 0.13498135 0.28084868 -0.11304368 -0.12163444 -0.05162357 -0.031318627 0.049388077 -0.070694804 -0.704893 -0.21049312 -0.027462495 -0.04908225 0.61614704 0.09745049 -0.07168001 0.106871106 -0.33418366 -0.83834946 -0.14077145 -0.4037274 -0.41118905 0.2787579 -0.030945456 0.13520478 -0.3006588 -0.9427836 -0.42149296 -0.30190966 -0.13709281 0.2052381 0.13745512 0.26359105
431 0.06524299 0.042640377 -0.16356114 -0.030663306 -0.3805177 -0.3456369 -0.4654682 0.25762528 -0.38513032 0.18771376 -0.27647638 -0.2368709 0.590667 -0.01089391 0.0817167 -0.009412623 0.18680672 -0.13473532 -0.1273123 -0.5454018 -0.13796823 0.3052117 -0.42272592 -0.24620557 0.14128742 0.066772915 0.05489516 0.400103 0.29578117 0.21601257 0.03902567 0.58555466 0.113761544 0.12070336 -0.43088967 0.022301218 -0.01891734 -0.027098635 0.17453566 0.24157226 0.36767712 -0.46791503 0.44753683 0.083064295 0.87191224 0.42513156 -0.41088113 -0.04215838 -0.4467723 0.057781663 -0.11528169 0.10196529 0.5005444 0.19677128 0.14224337 0.0895634 -0.29269323 -0.031590156 -0.1209298 -0.09260619 -0.22936516 0.011104749 0.15763326 0.6831358 -0.21091813 -0.04575932 0.30198336 0.029867042 0.12892142 -0.27671814 0.040733755 0.41900104 -0.54303133 0.020530455 0.29955676 -0.4178119 -0.10720214 -0.25086874 -0.2907099 -0.23341608 -0.05858888 -0.047808956 0.43048996 0.3624456 -0.005304924 -0.12655474 0.017548606 0.26504943 0.043729212 -0.0098831635 0.35927433 0.22608827 -0.7120238 -0.32594696 0.13664883 -0.5359293 -0.2381382 0.473354 0.18838607 -0.08610356 0.011243129 0.30937865 0.010008296 0.06751791 -0.19779125 0.2955269 -0.11771636 -0.1549719 0.1298389 0.07780279 0.33761364 -0.20108663 -0.25523004 -0.38532183 -0.12609676 0.36389327 -0.0633581 0.4108805 -0.07002974 0.113918826 0.31344742 -0.14241827 0.28363386 -0.08059467 0.15961517 0.10794926 -0.044744566 0.046513263
325 0.20985895 0.16755521 -0.009800004 0.15331306 -0.31259584 -0.36904037 -0.17322189 0.24440013 -0.30587623 -0.20427455 -0.13450547 0.22551578 0.13230193 -0.42568502 -0.12164927 0.47063482 0.19484867 -0.107646555 0.41819304 -0.10887951 0.08347215 0.056275334 -0.3602598 -0.16434608 0.1508093 -0.49450657 -0.13906442 0.25762746 0.31151235 0.070466205 -0.49050847 0.13641049 0.28501064 0.10898993 0.40635508 -0.06499194 -0.06382617 -0.4953013 -0.66408473 0.096678294 0.24708311 -0.12448449 -0.026685588 0.4511695 0.103139885 -0.3606926 0.08107149 -0.2908662 -0.7693704 0.067008846 0.1767852 -0.56197757 0.35920152 0.16022581 0.0051321457 0.13813348 -0.22686256 -0.47022197 -0.29138178 -0.0054091173 0.250252 -0.089956634 0.41857535 0.29163614 -0.16904381 0.0025475384 0.12458611 0.30489257 0.08885125 -0.29724187 -0.37690142 0.24833372 -0.18871117 0.11704272 -0.4641643 -0.14130904 -0.46906546 0.10254405 0.13124934 0.2366149 -0.6113319 0.0720317 0.28676504 0.08314142 0.019366665 0.12639856 0.008572014 0.0047560306 0.10843361 -0.0801684 -0.1009699 -0.24749996 -0.03452681 -0.43697518 0.35882923 -0.42993128 -0.24915557 0.279197 0.023236025 -0.09605138 -0.10735957 0.023715487 0.5169435 -0.013972716 -0.36926943 -0.25082603 0.13896279 -0.034439173 -0.24672416 0.049207978 0.16950472 0.07519712 -0.30822033 -0.57685375 -0.39930964 0.04471649 -0.081585266 0.022171646 -0.36985844 -0.12281327 0.48827943 -0.25005272 -0.03164356 0.4497852 -0.29612556 0.16856138 0.34060952 0.5980281
438 0.26256284 -0.085402116 0.6314572 -0.10432575 -0.018728552 -0.15364888 -0.6060356 0.35097948 0.26397786 0.22210367 -0.072205886 -0.036678407 -0.28743833 -0.00856524 -0.123295546 0.40204847 -0.3377582 -0.39390093 0.171274 -0.30683857 -0.37220377 -0.1591752 0.103337236 -0.44683698 -0.32041603 0.20270441 0.08800576 -0.015283893 -0.054359928 -0.27667922 0.39485708 -0.10705378 0.34669298 0.019198785 0.20079972 0.446149 0.22348106 -0.7153616 -0.063384056 0.1975919 0.38374323 -0.36948976 -0.095919445 0.007426032 0.3532766 0.10852978 -0.3929599 0.09610791 -0.06785341 -0.14848742 0.06504247 -0.5523036 0.17817992 -0.44623008 0.44142938 -0.4808713 -0.41794643 0.60548073 -0.03296722 -0.24842909 -0.2186052 -0.15465909 -0.22602257 0.39234158 0.051161446 0.124268845 -0.23241767 0.31453925 -0.172721 -0.09925743 -0.31559208 0.061333243 -0.2558151 -0.55268633 0.34417143 -0.36595026 -0.1630079 0.06105128 -0.17688175 0.14701681 -0.2951297 0.20234878 -0.050394055 0.4598514 -0.25588414 -0.0003718397 -0.13058051 -0.25182974 0.08881141 0.103618756 -0.30785233 -0.028172366 0.23539196 -0.41047463 -0.24922928 -0.4560528 -0.013066451 0.32063308 -0.32974985 0.48709056 -0.09065557 0.061174665 -0.4006708 0.075001955 0.00060944783 0.11734888 0.68447715 0.4781873 -0.23247929 -0.24709456 -0.5178771 -0.4610107 -0.10743028 -0.28567868 0.34110376 -0.08688858 0.6117685 0.9660828 -0.23178683 0.6976485 0.3439681 -0.29408157 0.23808649 0.064127676 -0.09130183 -0.12911409 -0.0678337 -0.25144166
317 0.7171788 0.07299947 -0.42704466 -0.077079155 -0.5097119 0.40801913 -0.17140274 -0.028844038 -0.3352704 -0.21393044 -0.3073324 0.37518582 0.31340468 -0.012438451 -0.68674886 0.3094137 0.60462636 0.2107723 0.47672206 0.13260758 0.18214035 -0.2962555 0.26523903 -0.02298092 0.409138 0.17113529 -0.18534145 0.02202717 0.19778585 0.3426213 -0.17423336 0.21563557 0.26929453 0.3985811 0.2759925 -0.11529168 0.15403153 -0.21590687 -0.18866433 0.25494134 0.13266882 -0.2680306 0.079893835 0.16331662 0.58858687 0.42254007 -0.04980217 -0.2683647 -0.24137217 -0.27192935 -0.011446436 0.17008556 0.783401 0.08042531 0.041983347 0.18403216 0.08163051 -0.23284937 -0.14454705 -0.13762017 -0.0736028 -0.034940206 0.42478716 0.50950855 -0.14938396 0.3871149 -0.26910093 -0.08080034 -0.25824335 -0.29265952 -0.060023207 -0.2635185 -0.22006972 0.19097655 -0.13827622 -0.17248914 -0.29812694 -0.052267704 0.23015234 -0.0028416887 -0.8320989 -0.1101663 0.42261246 0.25873357 -0.08216116 -0.1401822 0.28316423 0.23629327 0.106086545 -0.15640654 0.12504065 -0.29073462 0.17349893 -0.36316657 0.09213232 -0.56566584 -0.036718316 -0.0072494093 0.2969921 -0.35104817 0.0047564893 0.046526276 0.3344954 0.1871131 -0.17965987 0.22423874 -0.012638778 -0.20673859 -0.08660902 -0.07843865 0.12631644 -0.16356455 -0.37010926 -0.44169977 -0.10505268 0.15884522 0.69825685 0.082727365 -0.51942456 0.3951672 0.60658807 0.040985934 0.20988767 -0.32583094 0.14655554 0.0721975 0.23995222 -0.047245692
142 -0.037257966 -0.07130466 0.2358876 -0.15051141 -0.2448476 -0.5876197 -0.36062062 -0.0073724254 0.0691148 0.08989815 0.20341478 0.20108806 -0.42098466 0.24015044 0.017298946 0.20042971 -0.14032516 -0.14684209 -0.2374748 -0.57025343 -0.89610213 -0.5944184 0.1519008 0.17227302 -0.47676075 0.07230732 0.14130543 -0.16871756 -0.23044127 0.18627444 0.32051072 -0.0060021714 0.6791692 -0.26036635 0.47997236 0.468063 0.11369007 -0.07461988 0.02841584 -0.12161527 0.33095834 -0.22045802 0.2622593 -0.36210254 0.38550514 0.2582457 -0.39717397 0.41235134 0.062440407 0.02378472 0.20305489 -0.3468637 0.37827277 -0.16338597 0.41750553 0.0005745023 -0.7537894 0.3127148 0.15830807 -0.3806089 0.097498186 0.12082054 0.12248082 0.24714279 0.15722208 0.25942504 -0.22123234 -0.09438488 0.09466936 0.10566034 -0.40413582 -0.2712811 -0.10007876 -0.5861918 0.10683928 0.031026712 -0.1606909 -0.034656987 -0.11995902 0.12782133 -0.26012394 0.045508664 -0.34025934 0.10425766 -0.024954082 -0.072260275 -0.048700225 -0.121109776 0.226712 0.032517616 -0.71184146 -0.38279793 0.27074224 -0.50205415 -0.58840483 -0.6830225 0.342067 0.45932674 -0.19203909 0.19270106 0.1488342 -0.70002925 -0.49363184 0.20458457 0.54669654 -0.033788376 0.4875238 0.15849805 -0.26499602 -0.13723311 0.11348489 -0.5266316 0.26598018 -0.10022745 0.23992756 -0.3675635 -0.10278598 0.59171104 -0.30984432 0.74644023 0.49190477 -0.53174365 0.18992965 0.3208569 0.4027924 0.042374548 -0.17548849 -0.34169704
120 0.14433868 0.32763073 0.7047765 -0.5811208 -0.48655996 -0.50161463 -0.3127164 -0.4057773 0.087426975 0.3265355 0.26747286 0.46014282 -0.23148613 0.41273502 0.001459619 0.25137302 0.02437673 -0.184829 -0.06581083 -0.15823948 -0.61467624 -0.38915145 -0.10185656 0.21385802 0.06526001 0.13928731 -0.07881983 -0.19641808 -0.31369936 0.053921197 -0.1770588 -0.07368019 0.39400762 0.019564431 0.1030294 0.5155103 0.122963175 0.37999958 -0.43770897 -0.34334314 0.24519429 -0.5268877 0.06722922 -0.043853745 0.08161505 0.53823197 -0.56699085 0.19871691 -0.0090583125 0.124199055 0.24759987 -0.49220422 0.4169066 -0.032830335 0.17002971 0.454072 -0.42472535 -0.44513485 0.2111593 -0.07835647 0.71246076 -0.2431774 0.43140998 -0.93347394 0.16743195 0.35005435 0.12952106 0.03964673 0.07288947 -0.26605672 -0.53167933 0.25050363 -0.3021122 -0.5446287 -0.6012831 -0.14345093 -0.42896727 -0.18174516 -0.3799725 0.38377583 -0.15210384 -0.37551343 0.08054162 -0.5110299 -0.34863383 -0.09044091 0.103730015 0.1290766 0.00305203 -0.5795415 -0.0696331 0.18488987 0.13580984 -0.26869097 0.25678554 0.13566338 0.5073599 0.54076743 0.13637187 -0.087420374 0.515773 -0.104446255 0.5880707 0.14362381 0.42132533 0.14753439 0.3532514 -0.5850044 0.34579203 0.20150208 -0.1999929 -0.006027521 -0.032005057 0.016246846 -0.14003707 -0.57520443 0.27409068 0.20470822 -0.023471376 0.7205779 0.118311964 -0.5957257 0.8272545 -0.23546518 0.24426015 0.28324446 -0.33329275 -0.34163457
72 0.48487422 -0.54355943 0.20121881 -0.42302522 -0.49318817 0.15520528 -0.49581838 -0.49263814 0.20695207 0.3546748 -0.41785082 -0.7728775 0.7960277 -0.53528327 -0.02419454 0.07136068 0.5708961 0.03419383 0.3988858 -0.3732672 0.47860512 -0.3164556 -0.15448402 0.41928998 -0.2661648 0.0036588788 -0.2239999 -0.08782442 0.22066274 0.0488725 0.53002834 -0.012459232 -0.17694344 0.19958203 -0.15667506 0.2027679 0.44422823 -0.093043104 -0.23163562 0.14551194 -0.28332362 -0.469872 -0.47170317 0.14576818 0.71426547 0.18092264 -0.06057943 0.58550566 -0.47356007 -0.37549958 0.59768796 -0.04034653 0.101489805 0.12863338 -0.8817809 -0.008280704 -0.3578216 -0.4627889 0.19385219 -0.3801296 0.37847188 -0.11995214 0.17921035 0.1594636 -0.47734636 0.30701244 -0.23483467 -0.065437384 -0.17208506 -0.0054775258 -0.01806451 -0.064619385 0.09845607 -0.46470156 0.10537668 -0.08329154 0.24296108 -0.19929671 0.26063985 0.065122716 -0.5591494 0.21159373 0.5085355 0.24312256 -0.076801494 -0.39690325 0.21540943 -0.43460643 -0.53567743 -0.2704475 -0.50067204 -0.245789 0.10893826 -0.6430186 -0.013415562 0.18262038 0.12423071 -0.18575406 0.2600508 0.11376026 -0.21604738 -0.19717166 0.70735574 0.3841964 -0.18688916 0.007326884 0.29129744 -0.6406678 -0.00824341 -0.2849961 0.4647682 -0.011493942 -0.32623643 0.4196061 0.0799404 -0.634025 -0.38072443 0.46881756 0.2830636 -0.0941816 0.14166336 -0.69952047 0.5844204 -0.36629707 -0.14631505 -0.0700701 0.16116188 -0.04749655
375 0.30711436 -0.1185603 0.38162628 0.34195107 -0.36289686 -0.74949366 0.4441169 0.042931 -0.048331343 0.23158072 0.3358695 -0.4087001 0.18031064 0.42626238 -0.07682604 0.14081818 -0.2642204 0.0028093862 0.27203476 -0.38321248 0.09319823 -0.3972718 0.45265728 -0.21196926 -0.1740298 -0.07115682 0.1293996 -0.106623165 0.11190163 0.13997827 0.45575407 0.30405167 0.7077585 0.088719256 -0.24289608 0.9633718 -0.48761263 0.10267386 0.18475135 -0.38814047 0.3750499 -0.5036886 -0.45393896 0.25503916 -0.045001782 0.08021765 -0.3910297 0.03435604 -0.64912415 -0.17289113 0.329981 0.40587088 -0.194965 0.023969637 -0.154592 0.6704166 -0.21386561 -0.6484548 -0.34558606 -0.24840973 -0.28177717 -0.22857803 0.5188167 0.3195346 -0.21401046 -0.20592049 0.077352606 0.12426589 -0.12415957 0.241972 -1.0935962 -0.20051757 0.4386478 0.46309134 0.3377176 -0.2615462 0.26617447 0.31493273 -0.4210697 -0.18388012 0.04401736 0.6397905 0.17585821 0.12419891 -0.7757164 -0.14255658 0.10343135 -0.3061612 -0.07875 0.44459075 -0.35930958 -0.05913678 0.072963245 0.18543002 -0.23224822 -0.24074234 0.14787866 -0.35423407 -0.21978608 0.22563247 0.10872823 0.075753786 -0.16364972 0.20069274 -0.19751982 -0.5581805 0.15145887 -0.45748276 -0.8287459 -0.40723613 -0.13327813 -0.01951351 0.042656187 -0.24727577 -0.0867714 -0.32542545 0.15214047 -0.092591636 0.63105786 0.16012368 0.51801115 -0.040041775 0.3038081 0.04842513 -0.18822747 -0.04695624 0.16292517 -0.08356056
47 0.011707859 0.26244932 0.019155089 -0.6146382 -0.74893826 -0.9002456 -0.11538865 0.15266146 0.017032929 0.10942305 -0.070465416 0.571611 -0.05714865 -0.29796317 0.21005397 0.37338495 -0.30584264 -0.6850809 0.8086895 -0.07888783 -0.18889514 -0.017462658 0.21785055 -0.21740898 -0.31574228 -0.34872982 0.3246213 -0.23547316 0.0682338 0.40270844 -0.08528093 -0.274271 0.29158866 -0.2457534 0.26105827 0.17123266 0.2071813 0.3939151 -0.25085935 -0.5556798 -0.36204028 -0.6014775 0.28417718 -0.12514588 0.04365435 -0.08607849 -0.24831314 -0.04341649 -0.6445396 -0.17502293 0.3504007 -0.36893857 0.5905773 0.078677155 -0.2562661 0.2529769 -0.49913335 -0.25305563 -0.32551146 -0.17313105 0.78172433 0.0899989 0.14515094 -0.33009794 -0.23796405 0.48563856 0.08247977 0.032406755 -0.1435318 -0.12148143 -0.47086233 -0.2369152 -0.56832033 -0.7931139 -0.42634434 0.085878186 -0.3193559 -0.43383443 -0.52964 -0.03825794 -0.008296886 0.113815114 0.100213416 -0.08235471 -0.584865 -0.34404218 0.0029366775 -0.093502864 -0.12434992 -0.15779513 -0.15660007 0.4050307 -0.06056471 -0.7944693 0.0045243693 0.40729454 0.4883341 -0.20769632 0.57607955 0.0030438176 0.2208929 0.008476867 -0.11741752 -0.0468644 0.49555516 0.015632223 -0.10053008 -0.5225928 -0.15353464 0.06784933 -0.50835806 -0.20246385 -0.36622536 -0.5088713 0.27848616 -0.22421786 0.63472563 0.4090172 0.014904936 0.37465906 0.21511564 -0.034395043 0.89356863 0.19789787 -0.10842944 -0.08073827 -0.5925502 0.065046005
221 0.43958685 -0.05247195 0.44398904 -0.28098926 0.022274558 -0.16700967 -0.7439535 0.28617713 0.57060885 0.23301478 0.18228398 0.0068745795 -0.37778834 -0.14962517 -0.5732392 0.5794841 -0.1932795 -0.2044206 0.3045061 -0.36198753 -0.056460183 -0.16136035 0.023244297 -0.28373244 -0.54726434 0.14807689 0.19730245 -0.072448194 0.29019186 -0.29613706 0.44663528 0.2834746 0.34412792 -0.19808874 -0.09437845 0.4868097 0.35083887 -0.5168693 0.090007916 0.3437483 0.33108822 -0.25949827 -0.031227209 -0.1436091 0.36113593 0.307147 -0.024013171 0.61988 0.0505153 0.3468857 0.49660486 -0.2947549 -0.11635184 -0.5413932 0.445714 -0.2101554 -0.6778018 0.46278432 0.085335925 -0.037228115 -0.33688277 -0.34663388 -0.115382396 0.17433076 -0.032567967 -0.022215001 -0.24014804 0.12599929 0.063662395 0.13416831 -0.40352863 0.2593908 -0.26680997 -0.47179273 0.18620925 -0.30192924 0.39040914 0.34695294 -0.109476306 0.1542915 -0.26176533 0.21535344 0.22255068 0.073872395 -0.5193506 -0.028510967 -0.008320879 -0.27791953 -0.013087856 0.0071770675 -0.23588048 -0.4787461 -0.05099004 -0.39581853 -0.2760119 -0.713228 -0.20344399 0.7813417 0.17140019 -0.0007803187 -0.17707893 0.014601794 -0.7197304 0.08205543 -0.04662331 -0.07661606 0.5191317 0.270974 0.35116082 -0.1706012 -0.7516541 -0.7600533 -0.1168039 -0.115912974 -0.10741878 -0.41834942 0.25050676 0.85843223 -0.21928896 0.94298214 0.76584363 -0.32956764 -0.012006679 0.21261442 -0.30591482 -0.113647714 0.22832039 0.09200282
35 -0.39250275 0.0018069005 -0.33264682 -0.7980992 -0.057025008 0.4363839 -0.23172244 -0.17756243 -0.277724 0.46644363 -0.764048 0.0047558304 0.20381467 -0.17803128 -0.97572833 -0.21851955 -0.9959588 0.27790937 0.23109452 -0.50380236 -0.15154101 -0.07872401 0.38821647 -0.03764663 0.60636896 0.44452626 0.22917119 0.26573953 0.03274311 -0.1417784 0.1813239 0.7461965 0.6657431 -0.28882265 -0.01809576 0.51743 0.2808953 0.1863687 0.20229791 -0.023207081 0.23074049 -0.18807451 0.8637487 0.14346538 0.052923936 -0.10999444 0.4518812 -0.06290484 -0.294195 0.3284907 -0.82453084 0.19742984 -0.2104504 -0.35351685 -0.8073471 0.03407853 -0.85984427 0.23976658 0.1726263 0.20914179 -0.22194274 0.06620444 0.531158 0.03211807 -0.42841738 0.19255964 0.3738167 0.42094132 0.18042846 -0.20826532 -0.085981876 -0.115008146 0.5239539 -0.21476498 0.00411308 -0.71207505 -0.070554376 -0.25157198 0.087694325 -0.035893198 0.11700687 -0.14633185 -0.23091014 1.0159813 -0.1809082 -0.7922357 -0.22827533 -0.0705306 -0.47441253 0.103295356 -0.76505524 0.38979456 -0.0077379793 -0.477652 -0.07586646 -0.22040653 0.60548246 -0.12312642 0.10126931 -0.029584 -0.0015797946 -0.4803125 0.0657394 0.41556135 -0.020003598 0.26564622 0.014787714 0.5439606 0.057605386 0.2542277 0.062879026 -0.36836597 -0.3768839 0.20465763 -0.03589625 -0.86575025 0.40866455 0.3793768 0.08597202 0.68709266 -0.056540042 0.14562091 0.5699705 0.12697327 -0.05000583 -0.43054575 0.5822507 0.35419568
415 0.3502219 -0.44456205 0.17653783 -0.052036736 -0.4289402 -0.15026078 0.026342336 -0.5325994 -0.08534727 0.7712645 -0.381329 -0.20304686 0.16433401 0.06663207 -0.28143102 0.2483242 -0.03264573 0.019852959 0.35185832 -0.46106464 0.042296685 -0.11032652 -0.48962146 0.46004102 -0.09546434 -0.21026531 0.4815919 0.051052578 0.32089186 -0.18553878 0.32442045 0.42883468 0.17461345 0.85859567 0.3711241 -0.049397953 0.24156575 -0.28563386 0.06848599 0.059474282 -0.16346306 -0.6995353 0.8471633 -0.25464764 0.6816676 0.3319065 -0.1764824 -0.14438142 -0.8282172 -0.16517964 0.13742104 0.38432303 0.23030312 0.18527724 -0.1672356 0.36445248 -0.10071075 -0.5568119 0.18871413 -0.060805816 -0.15274721 0.045557234 0.26132026 0.49434614 -0.46597835 -0.2288308 0.37626442 0.47201523 -0.7062114 0.38788348 -0.10927052 0.21547875 -0.86998874 0.076566055 -0.1507727 -0.21397015 0.7745317 0.015391784 0.27229008 0.18796536 0.05907976 0.008602298 -0.10361853 0.6573542 0.46667826 0.38267973 0.023383535 0.013143119 -0.66485137 -0.31920904 -0.26561075 -0.08566437 -1.0838512 -0.11275728 -0.098508134 -0.11400033 0.4891977 0.1432962 0.08756778 0.38564008 -0.31249392 0.00768253 0.24712741 -0.26696923 -0.73553586 -0.10832527 0.27723342 -0.09075234 -0.101558395 -0.013054313 -0.049903516 -0.44723856 -0.3225921 -0.27036804 -0.11894549 -0.7626759 -0.55736065 0.2234891 -0.06884803 -0.42961264 0.2766243 0.048856493 0.48661834 -0.5370927 0.1338138 -0.029742148 -0.5828524 -0.0044086436
122 0.15186533 -0.31928468 0.071127504 -0.2187097 0.001177865 -0.28379744 0.042714205 -0.34413934 0.16723636 0.48521477 0.07422015 -0.12503278 0.1987467 -0.50750256 -0.4971085 0.04022873 0.3807239 -0.055205688 0.4741766 -0.5100466 -0.80754113 0.025615547 0.06799617 -0.0042407387 0.2693837 -0.18944068 0.27083915 0.36163884 -0.045408152 -0.10989396 0.04190727 -0.14118981 0.5731103 0.2393101 -0.24606681 -0.1313568 0.3659658 -0.3845925 0.22850458 0.21056826 0.641069 -0.15118468 0.16148026 0.21459386 -0.2200008 -0.7940385 -0.082053676 -0.56248707 -0.37648374 -0.6004025 0.30953225 -0.04043446 0.24263695 0.5699039 -0.3712842 -0.13776697 0.5137986 0.49099565 0.30432218 -0.20712484 -0.26155934 0.24520308 0.31643423 0.20893446 -0.16924275 0.459514 0.1590135 0.02455796 -0.11072685 -0.07675744 -0.35498095 -0.021741716 -0.25631016 0.12407722 -0.24195437 -0.009752222 -0.34628308 0.116276346 -0.39825612 0.3833125 -0.10513199 0.5493509 -0.1369472 0.39404562 -0.216011 -0.2655692 -0.30129275 0.53957194 0.10007519 0.79250026 -0.5393446 0.18606707 -0.25091246 -0.2551499 -0.6757842 -0.32183903 -0.01682522 -0.2316257 0.18087286 0.6646932 -0.12284532 0.012190625 -0.43079436 0.2730696 -0.121913336 0.3310367 -0.08873097 -0.18147516 0.22614777 -0.50128347 -0.76621336 0.5880602 -0.31836814 0.005760074 -0.02123496 -0.46460423 -0.036407296 0.13455479 0.7125812 0.6966584 0.20940553 -0.2265599 0.26999065 0.0033639232 0.2487417 0.085085385 0.025936801 -0.18307911
176 -0.25619334 0.23428284 0.009339823 -0.7307796 -0.5670499 -0.023865422 0.15895048 0.101044655 -0.3008127 0.10840793 -0.49981418 0.8150028 -0.6274435 -0.58178604 -0.6804066 -0.026689012 0.27047768 -0.3533154 0.7027979 -0.23151763 0.033806566 -0.27796146 -0.21620278 -0.19967735 0.35816738 0.65719956 -0.32879514 -0.025892043 -0.4127493 0.42773288 0.17263408 0.5562849 0.85819703 -0.20413893 -0.0732746 0.854572 0.33738667 0.61820287 0.54623437 0.6804159 -0.75171745 -0.7398279 -0.22069803 -0.0010815213 0.32565656 0.09401954 -0.22906034 -0.34432513 -0.2746688 -0.11485924 -1.0008928 0.46825513 0.04306794 -0.101231135 0.14901748 0.22292082 -0.15972199 -0.6957027 -0.19358003 0.13371693 0.2576087 -0.6757098 0.80472517 -0.15617056 -0.65434116 0.07374996 0.27311084 0.12583081 0.3877049 0.2119659 -0.41741255 0.6267106 0.20015468 0.47178602 -0.646585 -0.8133351 0.21697906 -0.14905825 -0.4335286 0.3907275 -0.14601175 -0.46868253 0.21091509 0.65462697 -0.52386326 -0.02533094 -0.13772324 -0.23488048 -0.64372206 -0.25739148 -0.33489203 0.17063202 0.4489493 -0.08939657 -0.15661582 -0.6389702 0.13220227 -0.38203603 0.6523197 0.21411087 0.246892 -0.17615008 -0.3589747 0.41254857 -0.008000961 0.18448654 -0.08174353 -0.10331528 -0.09475115 0.2985084 -0.11301151 0.004905863 -0.043575376 -0.07793099 0.65666807 -0.7888578 0.3785705 0.2142304 0.38773495 0.65561944 0.25949883 0.17083757 0.5514865 -0.18699223 0.13594893 0.5090984 0.221197 0.6476844
175 0.062177252 -0.23428333 0.42480907 0.43687013 -0.13837965 -0.8203899 0.07672011 0.19448404 -0.40444 -0.1297481 0.11467777 -0.42733496 0.04884868 0.28189766 -0.22493531 0.07235826 -0.33470124 0.012984986 0.30090004 -0.10916273 -0.19991368 -0.30262575 0.28432143 -0.06926382 -0.54974884 0.18762493 -0.05988385 0.41633317 0.064591005 -0.20541579 0.78064597 0.16472729 0.80494964 -0.18660842 0.22156774 0.74661607 -0.5913232 -0.055912662 -0.14099932 -0.26106805 0.2161823 -0.60013896 -0.20446806 0.24357769 -0.12991662 0.11744806 0.20738249 -0.38283235 -0.7604716 0.14071155 0.14203694 0.041041065 -0.53541344 0.07801399 -0.34854138 0.6786324 -0.15964761 -1.0543903 0.10779011 -0.054406144 -0.5445163 -0.18671791 0.39700243 0.583003 -0.21221592 0.07887559 0.16156909 0.021233285 -0.21163258 0.0027078667 -0.8964002 0.21741708 0.5594929 0.1546776 0.32225847 -0.058327008 0.010247572 0.44533622 0.011106547 -0.1012041 -0.26547748 0.35291162 -0.010967048 -0.07317128 -0.27305913 -0.24329367 0.458411 -0.36292678 -0.42389566 0.20756477 -0.38038614 0.06695836 0.05661414 0.12255494 -0.10298738 -0.2116566 0.5180929 -0.26780954 -0.35511497 0.0068750824 0.03888967 0.11594961 -0.24865526 -0.18161553 -0.09132441 -0.15041548 -0.016394405 -0.11750258 -0.55108553 -0.51192904 -0.004656495 0.32148668 0.00020887921 0.0058664326 -0.029409992 0.1245594 0.0562358 -0.25904796 0.060064536 0.57571316 0.54634506 -0.21535449 0.5240247 0.17144637 -0.2773989 0.13871288 -0.41886753 0.081205584
148 0.04045764 0.21415526 -0.16496076 -0.48749793 -0.6003095 -0.12368901 -0.46901673 0.31773838 -0.33125168 -0.1487373 -0.26528582 0.081921235 -0.21377335 -0.3502862 -0.12129016 0.12106036 0.16351111 0.24292086 0.38526535 -0.028185543 0.2183541 -0.28406498 -0.25131285 -0.7264177 0.14592254 -0.077444844 -0.05839832 0.07860373 0.01887254 0.36576557 -0.45918947 0.25808463 0.5277064 -0.1841739 0.17273337 0.115018204 0.06863278 -0.46190593 -0.2592057 0.37497148 0.02702612 -0.18223694 -0.3187505 -0.055410404 0.31260788 0.030123567 -0.2961665 0.026348194 -0.49228927 -0.3255325 -0.1639609 -0.31603274 0.04944791 0.2041666 -0.007965659 -0.11565863 -0.500879 -0.6006355 -0.20768586 -0.15108117 0.47808087 0.18954669 0.4756695 0.51889646 -0.23851341 0.56747776 0.084055714 0.39448708 0.050127935 0.1889509 -0.20000237 0.36374483 -0.45865956 0.18784368 -0.2707065 -0.53661484 -0.4318347 0.106711216 0.345932 -0.16592385 -0.04370379 -0.16095695 0.14971203 0.036693748 0.12245164 0.28756982 -0.038193483 -0.18377966 -0.19823058 -0.31991008 0.03490114 0.26198477 0.16087316 -0.18365067 0.10950659 -0.42646495 0.20100194 -0.0149207655 -0.008241704 -0.1500624 0.037207033 0.26973775 0.19177265 -0.17670433 -0.33808982 -0.12717672 -0.2189076 0.070358105 -0.393694 0.21059723 0.113334686 0.11766966 -0.31237292 -0.28384715 0.1051383 -0.04480068 -0.1328477 -0.07058406 0.04621663 -0.3209046 0.30845404 -0.6789738 -0.11620702 0.13150062 0.06490034 0.2668318 0.02990681 0.65621805
376 0.031532936 -0.60360056 -0.15852736 -0.40108046 0.16296308 -0.18745427 -0.3675273 -0.00594188 0.30104855 0.46022183 0.04242655 -0.083808385 -0.31352076 0.40623677 -0.12569714 0.28652507 -0.3656932 -0.3806364 0.058564376 -0.5460807 0.2174663 0.66778314 0.5991772 0.53990304 -0.173427 -0.0008747465 0.036653075 -0.17792675 -0.118922405 0.6780034 0.16742423 -0.13619867 0.83739793 -0.8154606 -0.33648434 0.5461533 0.5425464 0.028438227 0.020952309 0.385596 0.46782172 -0.39199024 0.008389211 -0.64204055 0.07541611 0.25729528 -0.56941164 -0.06342116 -0.6647707 -0.5053631 0.061368193 -0.31447077 -0.2761761 0.21556509 -0.31606138 0.3391743 -0.2887888 -0.012074426 -0.40865195 -0.2407565 0.19257258 -0.31830153 0.5569685 0.07324241 0.28500357 0.32976747 -0.42671552 -0.06319434 -0.049588867 0.28525895 0.1282742 0.22111984 -0.13099632 -0.043937348 -0.05916634 -0.66851693 0.55339694 0.7885937 -0.97328556 0.047902092 -0.5050718 0.73093885 -0.10563865 -0.030355323 -0.48473513 -0.24426134 -0.26309526 0.58653283 -0.59510666 0.21313734 -0.9298872 0.03458821 0.52523434 -0.6070146 -0.09383617 -0.8269733 0.3538786 0.022445109 0.097810455 0.13744844 -0.024408218 -0.60895884 -0.28815952 0.1814752 0.15506682 -0.07178544 0.32399896 0.55386215 0.6854216 -0.11434368 -0.20104815 -0.6627593 -0.022070857 -0.006859727 -0.8806425 -0.3330099 0.3411165 0.033573907 -0.24151957 0.39691857 -0.31612086 0.19648066 0.29572144 0.5502286 0.25420904 -0.16000883 -0.07851702 0.16719943
44 0.022248052 -0.051279936 0.20012946 -0.21167617 0.04129178 -0.28622672 0.0141470395 -0.33014584 0.41178876 0.40412495 -0.10950364 -0.14485334 0.19639628 0.033880636 -0.88357425 0.11548258 0.22584872 0.111505106 0.4439752 -0.34465748 -0.2737956 0.15355644 0.11471051 -0.21945767 0.61391604 -0.21048829 0.20992668 0.0549296 0.06088337 -0.2500972 -0.39844245 -0.012115781 0.53000385 0.2562371 -0.4489894 -0.06109749 0.31619334 -0.1184559 -0.017222535 0.16945782 0.39673233 -0.145879 0.4448114 0.10996416 -0.2582122 -0.968745 0.16164339 -0.6815144 -0.28402734 -0.5065379 0.57084745 0.13935989 0.14392799 0.56982553 -0.49218842 0.02194942 0.4120758 0.38285452 0.20242086 -0.26922005 -0.13719784 0.37253577 0.29984233 -0.0729187 -0.45686057 0.5015937 0.03892231 0.32772842 -0.034623858 0.11852016 -0.21183717 0.13897009 -0.13185772 -0.094906904 -0.046709638 -0.44408798 -0.21522701 0.20627826 -0.62458867 0.39607954 -0.2977654 0.3336623 -0.3402324 0.53467816 -0.3062173 -0.13775289 -0.27441326 0.43756035 0.10361707 0.67890877 -0.39641532 0.22469124 0.034052595 -0.29622278 -0.38824227 -0.20255035 0.20384435 -0.37205032 0.21667811 0.2752192 -0.23219806 -0.042172223 -0.2120915 0.20657131 -0.37879235 0.35014468 -0.4736939 0.15014875 0.027295625 -0.38434353 -0.43492013 0.5240958 -0.18947947 -0.16716306 0.0427586 -0.55937046 0.23670733 -0.14017147 0.7292161 0.43578157 0.23384632 -0.34019592 0.547148 0.14503941 0.318209 0.12171498 -0.100745015 -0.14746857
342 0.26983958 0.062027074 0.10491836 0.3603825 0.062595524 -0.5222016 -0.03471494 0.08274319 -0.20925236 0.14537165 -0.40536448 0.15929165 0.3297592 -0.002600104 -0.21742597 0.31066638 0.16970335 -0.059066053 0.06790327 -0.4319243 -0.10843461 -0.11390657 0.06366832 0.06982924 0.031218205 -0.13977635 0.14655477 -0.015813729 0.31465626 -0.009866665 -0.3464894 0.1810147 0.24596426 0.50709337 -0.025594631 0.07772337 0.08497898 -0.6204107 -0.091239475 -0.02224439 0.46910957 -0.38690343 0.08542001 0.0666665 0.22338095 0.058026817 0.19482706 0.07971942 -0.50985426 -0.097647175 0.1808466 0.1912826 0.37515023 0.20977993 0.2754568 0.106661715 -0.10399188 -0.44538534 -0.08165468 -0.28635415 -0.36544198 0.37980723 0.5418245 -0.03558339 -0.23723903 -0.033815324 0.38766584 -0.046329234 0.14161143 -0.20307541 0.2738306 0.23050806 0.061171256 0.14123555 -0.26814932 -0.3278764 -0.20549898 -0.10791066 0.091267176 0.045650903 -0.3391931 8.53809e-05 0.37461168 -0.22975639 -0.07222284 -0.11742435 0.08379992 0.0066015404 0.28120488 0.07241713 0.11570043 -0.10166276 -0.29182413 -0.5339679 0.15206191 -0.5494525 -0.21086809 0.3683456 -0.16733338 -0.035144195 -0.22720483 0.2331836 0.35737488 0.13694839 -0.640748 -0.35385832 0.48544714 -0.3747502 0.02775172 0.13082476 0.06644579 -0.2860159 -0.27446717 -0.37163347 0.010542493 0.10502546 -0.2726347 0.32867748 -0.20817123 -0.39696118 -0.00031733504 -0.5707395 0.10075817 -0.0029506371 -0.6999106 -0.057474397 0.28247142 -0.052722022
128 0.29809755 -0.10323729 0.022507668 -0.4985191 -0.3819204 0.17556615 -0.07894095 -0.46804437 0.3972431 -0.22980298 0.12051847 -0.25889328 0.051478196 0.5448708 -1.105965 -0.2270338 -0.082097024 0.2204038 0.37976134 -0.41986427 0.18304454 0.08974684 0.40226904 -0.25322476 0.8531288 -0.12060249 0.1348516 0.42408332 0.2582198 -0.34232613 0.052069854 0.18374874 0.43056038 -0.2555668 0.067039095 0.35067895 0.16171212 0.2539114 0.098627836 0.69895804 0.25875878 -0.039569423 0.3419718 -0.032165047 -0.308188 0.0009040401 0.1621691 -0.31790644 -0.21757467 0.16198793 -0.18589135 -0.19883221 0.26768363 -0.55726177 -0.11071948 -0.23564176 0.028900266 0.27645302 -0.6246433 0.3188232 -0.2744856 -0.100494444 0.6630699 0.07352035 -0.5340275 0.31161675 0.32996088 0.43103904 -0.12148725 0.010080009 -0.38253394 -0.31205863 0.50499195 0.113162726 -0.46284387 -0.45442608 -0.02829512 -0.40351373 0.23078889 0.08102364 0.047517538 0.10087321 -0.115770034 0.92586684 -0.06973935 -0.3035131 0.22722436 0.036469825 -0.53552103 0.79045105 -0.4054843 0.07410505 -0.072803296 -0.58976156 0.1107031 0.24758586 0.11706182 -0.0046837735 0.36050954 0.1334799 -0.29903463 0.0085374955 -0.007876114 0.5109486 -0.03942611 0.39789078 -0.19312386 0.59258384 0.12574793 -0.106612295 0.029742513 -0.012646945 -0.5254724 0.110918894 -0.050946064 -0.27033317 0.76355296 0.24056819 0.395335 0.47040066 -0.1311785 -0.202214 0.8302784 0.14666502 -0.23805216 -0.24430752 0.44717205 -0.5378842
134 0.27340698 0.28661492 -0.41347483 -0.43928093 -0.7197855 0.02458316 -0.5687357 0.09455933 -0.2519165 -0.019916853 -0.19931538 0.31782243 -0.34125903 -0.21205932 -0.031925254 0.13617922 0.42579588 0.26180547 0.2502325 -0.09893102 0.09395359 0.051809497 -0.100433856 -0.54479843 0.35672948 -0.28038713 -0.3888827 0.26962143 -0.1783092 0.090297416 -0.0693364 0.43204442 0.22280651 -0.22849038 0.23227222 0.31720206 0.41429627 -0.20981173 -0.05700432 0.27741382 0.11196366 0.21954924 -0.34361094 0.19562335 0.026124984 -0.14968684 -0.34058332 -0.066449344 -0.7290452 -0.09303428 -0.27654675 -0.07874629 -0.089229204 0.5491247 -0.066518866 0.2695557 -0.31440443 -0.2466307 -0.22373311 -0.044412255 0.2893984 0.55099255 0.41385916 0.2429826 -0.22955488 0.42053893 0.1354966 0.4086209 -0.13058566 0.2600466 -0.43197468 0.3948813 -0.36174607 0.29275414 -0.124937974 -0.9208784 -0.1805475 0.23870458 0.24217857 -0.25521585 -0.53717446 -0.044650152 0.73346066 -0.25014675 -0.48048446 -0.060540915 0.07427696 -0.061538376 0.29001963 -0.12148788 -0.21479543 -0.13110867 0.022579622 -0.156418 0.21211861 -0.10777955 0.37040287 0.15884161 0.11471486 0.0774834 0.23651886 -0.044832874 0.5397954 0.2156545 -0.051961064 0.19192229 0.1372723 -0.05914924 0.07983091 0.44515672 -0.031230243 -0.030595735 -0.048080117 -0.33197784 0.21418138 -0.35404673 -0.12320639 0.123407565 -0.060930826 0.02900138 0.35484737 -0.36788815 -0.30193985 0.05881517 0.3191115 0.08753255 0.16235231 0.61167914
282 -0.19361725 -0.26835108 0.69049186 0.18813 0.034285363 -0.5844268 0.32448328 0.39963114 0.23432928 0.7466337 0.17416058 -0.522288 0.14646296 0.48161185 -0.47817084 -0.13849513 -0.33598927 0.24115364 0.0597837 -0.36870018 0.57738197 0.14209329 0.6340646 0.20251375 -0.26146245 0.110414356 -0.25228834 0.39405313 0.4042808 0.1775957 0.31664172 0.22509712 0.8532177 0.055058535 -0.23077507 0.933057 -0.29255956 0.5966754 -0.40321624 -0.5090656 0.20876384 -0.23727627 0.13854164 0.40025753 0.05204837 0.3759239 -0.047779713 -0.1524309 -0.97468346 -0.6251164 0.011531388 0.85187995 -0.30850795 0.0459347 -0.5094602 0.19083032 -0.25090608 -0.6226688 -0.049061902 -0.28792766 -0.036383122 -0.17346428 0.472924 -0.36736912 -0.78393865 -0.35499468 0.14919 0.29417753 -0.6066875 -0.062534966 -0.273825 0.32525203 0.2297052 -0.20232299 0.026851784 -0.4836156 -0.29017144 0.22717707 0.24994105 0.08892865 -0.45655936 0.14013225 -0.048656575 0.037356935 -0.5227784 -0.21923538 0.98596877 -0.09569968 -0.7030752 0.052294277 -0.6691045 -0.37967768 -0.087917455 0.28444517 0.15783362 -0.20674291 0.26920196 -0.047773052 -0.033693444 -0.14706048 -0.19187105 -0.37271297 -0.46139306 0.10892031 0.35242593 -0.4295084 0.07696202 -0.30322862 -0.4212274 -0.5536104 0.45464554 0.2750281 -0.75233597 0.31457356 -0.16374896 -0.12142611 0.13887225 0.50794774 0.37127867 0.6175749 1.0099232 -0.14019363 0.63318616 0.08227075 0.10382672 0.06446134 -0.05182269 -0.5359925
56 0.52362365 -0.020208597 0.68438613 -0.17090106 -0.7220987 -0.25496995 0.19077627 -0.20541863 0.29176304 -0.24642523 -0.84721005 0.28732032 -0.97316915 -0.106825516 0.11381349 -0.56293005 -0.06856523 -0.88785726 0.068118095 -0.007022795 -0.6168997 -0.84491944 -0.118092366 0.6582255 0.22565632 0.60264903 0.413707 0.1524439 0.6996685 -0.5353979 -0.0036239752 0.3517667 0.6608243 -0.51232415 0.49300513 0.15369022 -0.06775617 0.32091615 0.40687057 1.0050554 0.24609771 -0.61411893 -0.444223 -0.2809428 0.19968884 -0.43576115 0.024922138 0.12437641 -0.121775225 -0.044263635 -0.5834603 -0.0958139 0.30373672 -0.21233782 0.33225778 0.16450725 0.5575815 -0.99122 0.4363557 -0.4359869 -0.5274106 0.27048087 0.70010626 0.25395423 0.04873709 0.11625095 -0.045562156 -0.26277837 0.4087388 0.6677141 -0.79878455 -0.044970892 -0.1021899 -0.36348322 0.10117649 -0.27548283 0.34086773 -0.13755374 0.33351782 0.5708883 -0.6650308 0.3667927 -0.13886759 0.09540252 -0.02254134 -0.89013594 -0.011740295 -0.77986574 0.10877908 0.6975533 -0.75443476 0.077713914 -0.3721971 -0.32894462 -0.2176206 -0.6465873 0.7459165 0.2951923 -0.1261763 0.039901678 0.017805064 -0.32511494 0.07136263 -0.008896242 -0.07314677 0.23982835 0.3854997 -0.5275322 0.14454095 0.7482191 -0.08501218 -0.55244946 -0.15591845 -0.3565875 -0.027321633 -0.5097033 0.16346844 0.16962595 -0.33746207 -0.055184428 -0.10164599 -0.3375909 0.5744896 -0.36435097 -0.39735508 -0.105833754 -0.16439085 -0.16734129
377 0.050601743 0.15094179 -0.10639994 -0.6937052 -0.12153881 -0.2623455 -0.43558806 -0.38322973 0.64611775 -0.15632294 0.0814759 -0.1121502 -0.2430167 0.22851287 -0.52741706 -0.012068995 -0.02523884 -0.027213663 0.3682881 -0.16277404 0.10309206 0.46859235 0.08013093 -0.15219466 0.43685853 0.13031782 0.045206983 0.6276844 0.23296537 -0.03946584 0.026551167 0.043331023 0.53112465 -0.10655701 -0.21235125 0.0043982384 0.5088173 0.3158703 0.42234775 0.41012025 0.27594924 -0.12901418 0.61157274 -0.17021221 -0.65959716 -0.14023307 -0.29153356 -0.74406415 -0.38487482 0.290511 0.29840398 -0.5284574 0.22088961 -0.06350485 -0.08333905 0.1317153 0.26779616 0.18104386 -0.44418216 0.021736959 -0.8712759 0.5603721 0.5863826 0.31737012 -0.28098533 0.81990606 0.46794584 0.18934675 -0.14182307 0.27794188 -0.1802269 -0.19625407 0.15912123 0.073628135 -0.33730924 -0.6285026 0.49230683 -0.12996148 0.0312536 0.42859775 -0.11690511 0.18362689 -0.30346608 0.4243065 -0.10884852 -0.19248788 0.3832129 -0.3232607 -0.8488877 0.95121926 -0.74064076 -0.16501038 -0.26117152 -0.733765 -0.16834646 0.12335402 0.12740253 0.348419 0.6670302 0.12603651 -0.40444404 -0.257796 -0.52321994 0.27280438 0.27781096 0.075363696 -0.2514436 0.23673473 0.6305479 -0.36791185 0.1573269 0.4561483 -0.038521122 -0.05272126 0.061177887 -0.5228103 0.4472703 -0.14593588 0.16190307 0.45510638 0.44627118 -0.14562275 0.6694489 -0.0014007109 0.1773813 0.072580226 0.35904273 -0.5810702
349 -0.2970134 -0.45446926 0.5785404 0.47362995 -0.08500752 -0.58410454 -0.11208557 0.01356122 0.09782432 0.2773342 0.11892174 -0.38694978 -0.15180624 0.5378832 -0.38002408 0.056927495 -0.4024363 0.04795302 0.40509373 -0.16162375 0.43874982 -0.16163012 0.4018075 0.33400682 -0.3697405 0.032328594 -0.2872405 0.40431774 0.33711767 -0.2162965 0.65520126 0.41569826 0.7956149 -0.08536587 0.0061288485 0.8076325 -0.5284132 0.252493 -0.018662022 -0.39479584 0.18910351 -0.10478154 -0.084159024 0.20755167 -0.20907408 0.095052406 0.24716572 -0.2317942 -0.85409486 -0.6429877 -0.023824649 0.4572649 -0.32650727 0.34766603 -0.40644467 0.23069756 -0.2761118 -0.89171565 -0.07777253 -0.22824533 -0.23676412 -0.07554673 0.208288 -0.064217746 -0.37925377 -0.10345345 0.17621139 0.023132628 -0.31646243 -0.12720037 -0.440441 0.19022672 0.10571619 0.032432646 0.43605214 -0.4336599 -0.33475757 0.44747573 0.37169415 -0.33981758 -0.39246702 0.059953656 0.021879284 -0.12826572 -0.3975381 -0.01965176 0.9778117 -0.30794638 -0.6514896 0.130013 -0.56881166 0.035184406 -0.17226447 0.06518057 -0.25594625 0.0024747984 0.6380846 -0.047638826 -0.09493935 -0.16135633 -0.18839718 -0.33068776 -0.24027632 0.040036224 0.20963699 -0.06167368 0.06396854 0.031166121 -0.18105754 -0.63714 0.37601128 0.5513537 -0.58510256 -0.2297822 -0.22018774 -0.03453857 0.13406381 0.31910974 0.3798736 0.2714927 0.5987746 -0.0293672 0.69039166 0.20050466 -0.017568326 -0.12515135 -0.10443653 -0.08709165
191 -0.47291774 0.06051886 -0.4438199 -0.8306267 -0.0018923981 0.3161475 0.049828857 -0.15735166 -0.47464457 0.35011548 -0.90599066 0.33212203 0.10715373 -0.31185344 -0.82181346 -0.20591956 -0.916916 0.20008577 0.23587118 -0.58056337 -0.02684098 -0.21225084 0.32130006 -0.060439892 0.45204338 0.6126147 0.14574514 0.24527267 0.105158225 -0.076330744 0.14616829 0.77306885 0.6603509 -0.35220233 0.058932696 0.5154336 0.35043922 0.26138222 0.33573908 0.0943542 0.007493674 -0.3468238 0.70645726 0.12732042 0.1691806 0.11237845 0.39141124 -0.043794163 -0.46895507 0.3658197 -0.7801526 0.30536282 -0.42387545 -0.30306783 -0.71491766 0.13339545 -0.81715053 0.007980143 0.18396069 0.1620597 -0.15020604 -0.08633204 0.47024643 -0.04415162 -0.5795286 0.112954676 0.3262032 0.36064354 0.16880758 -0.07304329 -0.07851657 0.12856339 0.45651639 -0.1639726 -0.29810876 -0.76553416 0.043299396 -0.21209468 -0.027637891 -0.0029143277 -0.07023561 -0.23240142 -0.0398781 0.7105585 -0.40580133 -0.8666794 -0.16160658 0.04010312 -0.43334177 -0.029006394 -0.8393328 0.2828121 0.15340777 -0.45815557 0.02632698 -0.35743457 0.44703856 -0.19870794 0.042338032 0.059579164 0.14639243 -0.61682564 -0.17920154 0.51130044 0.12706806 0.30700985 0.053732414 0.48843893 0.0028033005 0.41749954 -0.07609093 -0.3236628 -0.39463267 0.21541004 -0.0012667599 -0.93920565 0.2845385 0.29986352 0.0201666 0.6854053 -0.11255723 0.25441912 0.47809353 0.18760087 -0.16458526 -0.4058008 0.7253851 0.5088946
338 0.6215203 0.07447782 -0.5621295 -0.6369103 -0.58339727 -0.2813472 -0.21724097 -0.3366694 -0.07067334 -0.013002592 -0.082991555 -0.0746583 -0.17128572 0.19302514 0.014445461 -0.5590828 0.5021051 -0.15981579 -0.1907224 -0.6569408 -0.8881678 -0.026858324 0.058570005 0.6170847 -0.019903606 0.02118166 0.2258651 0.228783 0.51537514 -0.13867763 0.23212703 0.29168338 0.19250874 0.57429326 -0.28139734 -0.30114195 -0.3356593 0.12636144 -0.080052294 0.31257898 -0.2465272 -0.21021591 -0.77530396 0.27111146 0.46885884 0.19526082 -0.4147246 0.3831934 -0.10607037 -0.11078023 -0.17934771 -0.14180669 -0.193006 0.080521666 -0.22095786 0.6798851 -0.40876353 -0.13593091 0.31520614 0.1007552 0.19437312 -0.20853093 0.07326763 0.27211848 0.0644514 0.07320038 0.30503708 0.053705763 -0.08292506 -0.21900651 0.63480777 0.054639112 -0.16266653 -0.22305603 0.24666151 -0.05792104 -0.36766565 0.009609147 0.25851452 0.6039153 -0.25549617 -0.7455547 0.3481134 -0.10458329 -0.61366206 -0.034129303 0.04948158 0.007664348 -0.230648 0.25090373 -0.17563233 -0.21178465 -0.119481474 0.47616506 0.35098338 -0.6983752 0.8039303 0.19155568 -0.1561365 0.025513446 -0.208885 0.87786704 -0.504096 0.11159746 -0.136624 0.32290253 0.21420772 0.10277417 0.35152096 -0.08789803 0.114419505 0.5727221 -0.27349862 0.56956786 -0.11429009 -0.5988776 0.13244136 0.15413952 -0.062135633 0.33924833 0.96962386 0.09162871 0.38970917 -0.072705366 0.28756556 0.27945915 -0.2155397 0.6453754
186 -0.16468576 0.81723195 0.4002192 -0.15460828 -0.07967586 -0.57646483 -0.5017017 -0.0035913854 0.014464906 0.17676109 -0.20384052 0.35320327 0.3792751 0.5247283 -0.40488735 0.11953728 0.9107202 0.33352888 0.15559936 0.03090779 -0.54406977 0.20227207 0.14196292 0.3120615 -0.10659158 -0.110113345 -0.49388665 0.09105816 0.09367876 -0.14217864 -0.09718946 0.054336358 -0.091371804 0.3724547 -0.10680548 0.42547408 0.20710436 0.12831521 -0.039346024 0.035549417 0.12666962 0.08741929 -0.04215803 -0.13690078 0.18524326 -0.120414115 -0.63602644 0.09659381 -0.23657571 -0.005114687 0.035682026 -0.3656407 0.25710267 -0.40180722 -0.19933973 -0.1557972 -0.8184484 -0.847694 -0.21771637 -0.12984662 -0.203657 0.040198628 0.7441155 0.2119353 -0.8650515 -0.3107255 0.031140596 -0.021806594 0.05318243 -0.39515597 -0.2525222 0.46272638 0.009331337 -0.031813424 -0.31851384 -0.8968898 -0.50450283 -0.5623817 0.48337176 -0.32858315 -0.1452016 0.37583232 -0.45279613 0.065080814 0.38571724 -0.5557688 -0.09980812 -0.012498644 -0.42526296 -0.15231289 -0.39092597 0.53991103 -0.24619976 0.031896777 -0.33069286 -0.0799158 0.18340321 0.14949189 -0.08770178 -0.2734109 0.04061823 -0.31577024 -0.1265289 -0.12283999 -0.7688355 0.13721117 -0.6436307 -0.3590914 0.23239817 0.32992175 -0.15534084 0.16559337 -0.19012427 -0.7167316 0.15862928 -0.31897762 -0.37239313 0.55198544 -0.055585902 0.3401959 -0.17036667 -1.2653594 -0.2712138 -0.32594344 -0.40210265 0.26722297 -0.01594341 0.46712133
211 0.40000162 0.2792316 -0.041866053 -0.46767977 -0.11412838 -1.0430378 -0.53427655 -0.0428367 0.36821425 0.3775691 -0.18364018 0.48884293 0.103952676 0.13154185 0.32389915 -0.009386023 0.5760974 -0.1901016 0.1510638 -0.6966343 -0.01643526 0.8349124 -0.25050482 0.3661303 0.34773874 0.49559918 -0.0774906 -0.35294732 0.87614197 0.19858417 -0.19846028 0.17424445 -0.31485167 -0.335838 -0.26380676 0.003037163 0.2751682 0.1484134 -0.21762669 -0.38013893 -0.3049707 -0.53640413 0.108096994 -0.10567017 0.13127832 0.1815007 -0.669304 0.12312378 0.2188444 -0.14564317 0.08659109 -0.44434065 -0.08255917 0.38416812 -0.26382208 -0.18370771 -0.5483405 -0.4939992 -0.24591868 0.12145881 -0.35670573 -0.21675089 0.41210908 -0.29276147 -0.14473966 -0.4396513 0.26915208 0.012655272 0.20803905 -0.55031943 0.2232539 0.40469843 0.11743759 -0.030809926 -0.30451334 -0.2823179 -0.39188817 0.5738553 0.35346267 -0.06752264 -0.2125366 -0.23933151 0.36777115 0.4221577 -0.06529719 -0.4035142 -0.05614861 -0.16748725 -0.36545187 0.22702734 0.4280856 -0.029456308 -0.4583649 0.1282117 -0.019642677 -0.79878366 0.29828858 0.21142514 -0.44417378 0.18353793 0.043980617 0.36023793 0.15675306 -0.047176555 -0.42931536 0.06787262 0.39471927 0.10787646 0.34589353 -0.24499498 -0.040518664 -0.024972148 -0.6564802 -0.27638254 -0.6291327 -0.20314795 0.3053725 0.47857153 -0.40801716 0.09270029 -0.12155299 -0.6804297 -0.09173182 0.086823404 0.09269915 0.15138517 -0.29712483 -0.40186575
36 0.079897486 0.1326599 0.21198264 0.043650188 0.13791992 -0.17450647 -0.080957726 0.4042474 -0.038911723 0.2310495 -0.046208475 -0.3304265 -0.1319213 0.4199682 0.09371333 0.34173787 -0.00380576 -0.20519324 0.7088015 -0.4591408 0.115444265 0.2838586 0.11396872 -0.16294657 -0.3615335 -0.14045268 0.20020285 0.035607245 0.43024674 0.0090515865 -0.18113796 0.047620334 0.63286924 0.5398431 -0.4005696 -0.19651094 0.0035306732 -0.73032963 0.21955793 -0.09695714 0.4783872 -0.75618297 0.15354964 0.2533135 -0.4638847 0.18414737 0.28446907 -0.23546298 -0.6325865 -0.26106536 0.0004156741 0.11755852 0.21747717 0.28091517 -0.22103599 0.1834888 -0.25007915 -0.13998897 0.3674421 0.10108215 -0.10601346 0.029613744 0.16268584 0.17298676 0.27938437 -0.22877422 -0.17938845 0.10632943 0.43613425 -0.17363735 0.049530037 0.116769746 0.08700697 -0.08863712 0.06582979 -0.38420838 -0.44169554 -0.31582522 -0.17154863 0.14074863 -0.5270601 -0.22120981 0.173931 -0.54198134 -0.10777059 -0.11329801 -0.6381986 -0.10528414 0.32049197 0.115324445 -0.021157859 0.41190258 -0.04937534 0.0038488512 0.09654175 -0.34470257 -0.08821169 0.39372373 -0.13461876 -0.14731501 -0.3285399 -0.26186275 0.020505894 -0.022819983 -0.46412346 -0.10823231 0.057294607 0.031274423 -0.30627462 0.3750565 0.14704093 -0.11577927 -0.019640438 -0.35560763 0.3418642 0.23269995 -0.22147775 0.32709357 -0.04580971 -0.19350587 0.34982172 -0.6886492 0.20531614 -0.23919533 -0.10274119 0.031894587 -0.1211789 -0.10143457
283 0.24640396 -0.21565081 0.58190084 0.23721576 -0.007594186 -0.8264924 0.22246394 -0.06630562 -0.5524661 0.025930269 0.30950686 -0.26617834 0.3071167 0.5999841 -0.52759755 0.37872744 -0.33544454 0.44852564 0.3938167 -0.2400343 -0.043271516 -0.35041904 0.37957305 0.013552832 -0.07505856 -0.05790053 0.17563976 0.10126598 0.4457056 -0.38303292 0.5280164 0.25294834 0.53435695 -0.18419921 0.0016109413 0.4409916 -0.6105522 -0.083417825 -0.26328722 -0.16399612 0.51308095 -0.6715048 -0.3141018 -0.001416946 -0.06583336 -0.13071613 -0.13560605 0.026666583 -0.8096097 -0.2224131 0.3090004 0.042656127 -0.73962533 -0.16531405 -0.37207395 0.8027059 -0.23761274 -0.8312892 -0.16851923 -0.058395118 -0.7885137 0.01804165 0.686686 0.57363254 0.024193086 -0.1747773 0.16605791 -0.057898983 -0.34631878 0.29130635 -0.6456973 -0.03842101 0.3873559 0.46091288 0.02713817 0.052870892 0.25639483 0.3529499 0.16161183 0.06931878 0.032509223 0.12263354 0.22530983 -0.0801947 -0.24394527 -0.36922655 0.3533536 -0.10695599 -0.30443323 0.35471818 -0.058285497 -0.15138449 -0.16537166 0.18991262 -0.42557293 -0.336922 0.4198725 0.12240447 -0.60757804 0.19746698 0.21250528 0.1189679 0.027240498 -0.35917702 -0.078605 0.030934973 -0.22286054 -0.31328875 -0.7963445 -0.46146265 -0.11564946 0.26858425 -0.026425073 -0.23324049 0.19451138 0.27283862 0.1066008 0.028252918 -0.025171986 0.6818526 0.40663242 -0.20328707 0.6458134 0.57550484 -0.72379845 -0.21397923 -0.53766316 -0.10900671
273 0.12806019 0.39003953 -0.15876307 -0.2666239 -0.43040147 -0.14222589 -0.5046546 -0.18606156 -0.5412729 -0.09884273 -0.15012442 -0.097791895 -0.30967376 -0.075281225 0.019915562 0.22046396 -0.1506141 -0.059380867 0.18773602 0.10403531 0.34738046 0.272059 -0.08585549 -0.20004243 0.26023448 -0.12461997 -0.08084188 -0.18977797 -0.1453414 0.30697185 -0.097605735 0.73417616 0.20972867 0.38827196 -0.07782801 0.45922768 -0.20808479 -0.2674743 -0.02029395 -0.07383134 0.17978196 -0.51588494 -0.16703817 0.016488485 0.06513136 0.38315538 0.0990629 -0.05365917 -0.433546 -0.70592886 -0.25113407 -0.22778949 0.19810525 0.32192788 0.039855085 -0.3217615 -0.22288117 0.00094633293 0.1065299 0.020737963 0.5840666 0.19868596 0.057912733 0.9976571 -0.048656695 0.51533556 0.26580742 0.24272011 0.36133638 -0.36997172 -0.19779053 0.6843104 -0.5236383 0.16996741 -0.2957192 -0.7561276 -0.8049887 -0.19202858 0.03606773 -0.19057806 0.08994768 0.33580765 0.3856848 -0.0035018988 -0.26782694 0.18103084 -0.023840504 -0.16207048 -0.47532323 -0.31889087 0.32704213 0.17623046 -0.5162831 -0.13729043 -0.055758636 -0.45509705 0.04546588 -0.03949303 0.0014259472 -0.306877 0.07533491 0.05315733 -0.24767916 -0.15154554 -0.62754697 0.03973465 -0.5324067 -0.2638724 -0.032150116 0.14861403 0.37920532 0.5247889 -0.41609597 -0.35041144 -0.0657923 0.009980876 -0.055042017 0.15646718 -0.27439716 0.28024527 0.41335696 -0.90810174 0.12441141 -0.13999148 -0.03952682 0.41101116 0.6953595 0.3928198
70 0.19178732 0.14191708 0.41695127 -0.6585171 -0.26632982 0.040853165 -0.2129762 0.024341097 0.16346005 0.16649415 0.39188552 0.25347644 0.050803404 0.4136106 -0.06739248 0.44252405 0.073366046 -0.2829049 -0.1393127 -0.26366222 -0.5991345 -0.2756174 -0.08651601 0.22340931 0.33819616 0.08082895 -0.14779325 0.046533898 -0.23877339 0.30919465 -0.6546768 -0.027969452 0.583626 0.08546418 0.13367413 0.47468814 0.3047453 0.17104542 -0.5400849 -0.25821716 0.44834614 -0.41243038 -0.23944275 -0.0237098 0.32714915 0.24869353 -0.7359604 -0.10635104 -0.3633663 -0.05968773 -0.21370047 -0.40684885 0.5195777 -0.3468805 0.13892175 0.43793622 -0.23918967 -0.43186247 -0.08066547 -0.28645375 0.59191644 0.14648601 0.5588135 -0.46867752 0.42482668 0.44395143 -0.00051958597 0.024412526 0.13311926 -0.23379324 -0.47242284 -0.264362 -0.38801488 -0.444148 -0.15688989 -0.34087053 -0.57515574 -0.3901438 -0.27744034 0.4978975 -0.50218034 -0.1810285 0.08781966 -0.17665939 -0.19858311 -0.10826585 0.0023819467 0.27317947 0.25231582 -0.5766292 0.05857053 0.4348918 0.17484203 -0.03239011 0.3777455 0.19370934 0.5279652 0.6508239 0.13083121 -0.31361398 0.044958614 -0.08911836 0.72540224 0.26976162 0.038104873 0.038993746 -0.01632986 -0.5632075 0.31795546 0.31869265 -0.04634467 0.11197065 0.073855214 0.1900839 0.13345619 -0.37957838 0.3711907 0.16524823 0.16818798 0.5009374 0.45775494 -0.4852508 0.5625606 -0.275856 0.414189 0.29289365 -0.42700928 -0.23570167
294 0.10770474 0.06636395 -0.32087436 -0.63517445 -0.4583796 -0.23586299 -0.07237475 -0.33480188 0.26950195 -0.52639306 0.17732233 0.020769153 0.34580168 0.4200729 -0.64855117 0.034820095 -0.29991302 -0.22184913 0.5863552 -0.49697572 -0.07380786 -0.43058187 0.21148756 -0.36550978 0.42786735 -0.15581487 0.019945128 0.3172179 0.05393862 -0.47279948 -0.20420794 0.16742931 0.16283724 -0.2502119 -0.16580845 0.7721563 -0.30761582 0.07345613 -0.4382846 -0.051386587 -0.102367654 -0.63433254 -0.010601966 -0.038473196 0.118445866 -0.3123566 -0.0958674 0.31680393 -0.035165302 0.25387362 -0.07302123 -0.11746509 -0.14673805 -0.16022614 -0.32031977 0.64595634 0.10358707 -0.3077559 -0.07905889 0.07755061 0.12762089 -0.38022944 0.83625466 -0.005665632 -0.036045138 0.17134427 0.3039178 0.77056855 -0.3057994 0.3479683 -0.14752339 -0.31103456 0.36587453 -0.057004947 -0.66289735 -0.31547806 -0.5847897 -0.42921948 0.17555419 -0.11623619 0.39682496 -0.28656456 0.4300588 0.4087944 0.095817186 -0.41358516 -0.4645011 -0.3635023 0.09501679 0.63774323 -0.340702 0.20175602 0.22263026 -0.77546614 -0.31588337 -0.14514515 0.29798362 -0.6511831 0.16767736 -0.07134344 -0.33573705 -0.32942936 0.27183282 0.48384053 -0.15598409 0.19970293 -0.32836285 0.3092609 0.027380157 -0.123223916 -0.20550272 -0.14499526 0.10930548 -0.37087294 -0.52687746 0.0143461265 0.41624165 0.005442321 0.65884566 0.17213969 -0.056360956 0.022057215 0.4942582 -0.17552473 -0.1036244 0.07325923 0.4029052 -0.1285667
264 0.38657078 -0.108119346 -0.46926427 -0.42435563 -0.5399258 0.23576131 -0.59991443 0.04722389 -0.37657055 -0.038150225 -0.2381638 0.21625546 -0.100575306 -0.09621151 -0.34923232 0.45025545 0.738643 0.37370133 0.67260903 -0.03531661 -0.06539761 -0.24851218 0.16726276 -0.3328603 0.35674274 -0.22969829 -0.23877198 0.09958443 0.00277149 0.045719057 -0.102868415 0.3756516 0.55305815 -0.35449925 0.1754422 0.023591837 -0.033995636 -0.115226716 -0.29776725 0.32812515 0.17054477 0.12742966 -0.21105501 0.14638194 0.18553403 -0.12987293 -0.20485708 -0.31615275 -0.39605063 -0.2880278 -0.30046195 -0.11240229 0.37896794 -0.033562586 0.019715423 0.23581254 -0.32465878 -0.17830117 -0.20371918 -0.17021352 0.16603594 0.41006857 0.28156266 0.29273674 0.37318686 0.45614508 -0.068323456 0.0093085915 -0.31501982 0.094612196 -0.13510501 -0.014406698 -0.36332974 0.4154414 0.027023517 -0.51364565 -0.1212621 0.10183336 0.5846596 -0.26136988 -0.36603945 -0.30710974 0.54799485 0.021085119 -0.25196096 -0.031304196 0.39981714 0.067452274 0.03410527 -0.24596822 0.17561027 -0.0009643243 0.084693804 -0.21290973 0.36293313 -0.20790277 0.29660416 0.1937169 0.46149656 -0.26416504 0.17262234 0.14707842 0.33837414 0.077896096 -0.39857498 0.32903603 -0.00055211264 -0.28132054 0.017802956 0.3155399 0.10835342 0.10785305 -0.084785186 -0.2793419 -0.16230674 -0.043425962 0.28655607 0.27549908 -0.08386951 -0.2683768 0.561036 -0.16587967 -0.07320521 0.22487332 0.06451526 0.1454942 -0.10709845 0.54692984
285 0.3323788 0.24235663 0.30582967 -0.10550074 0.24591418 -0.32074735 0.12357603 -0.08856722 0.11742375 0.38201296 0.1921311 -0.34760565 0.2824874 0.35611868 -0.89597356 0.39787167 0.39362374 0.32510832 0.6062491 -0.67080927 -0.33275667 0.20678097 0.13509151 -0.18810268 0.62648326 -0.09376705 0.070781395 0.074361295 0.3910732 0.018182289 -0.45244476 -0.08838713 0.8348296 0.31198525 -0.57866013 -0.064908616 0.09445251 0.16099097 0.1042548 0.28353015 0.40275574 -0.35049754 0.57239705 0.009172844 0.07542264 -0.89349246 0.25219387 -0.44939134 0.02741818 -0.1399534 0.44274098 0.5085928 0.20651232 1.0818316 -0.5245014 -0.33664176 0.036319416 0.2553874 0.7744839 -0.08605462 -0.17863864 -0.05847166 0.34848243 0.10053297 -0.09204401 0.50131136 0.10647408 0.3964579 0.2798211 -0.33769983 0.011533613 0.6831579 -0.060747113 0.08501222 -0.08519469 -0.18351598 -0.9232743 0.1761101 -0.2826595 0.7378998 -0.3791317 0.44397566 -0.3668203 0.064431734 -0.31379947 -0.26724568 -0.16096874 0.4355559 0.13209377 0.43110985 -0.4387288 0.060595818 0.113999724 -0.4583272 -0.29337722 -0.25037122 0.16811308 0.124415636 0.3654008 0.26483393 -0.24337322 -0.16539909 -0.38089713 0.040993266 -0.44465888 0.19801362 -0.49950242 0.21051908 -0.2681408 0.05201525 -0.15082386 0.43291083 0.08029319 0.5497477 -0.022967286 -0.43690935 0.03737598 -0.52354175 0.5249 0.32148734 0.06953144 -0.9295356 0.23793086 0.53401685 0.45484158 0.3066662 -0.07725714 0.15625322
408 0.3572544 0.61109656 -0.08436948 -0.39531073 -0.21516666 -0.27312943 -0.37295747 -0.43939137 -0.2968359 -0.22772852 -0.16645181 -0.03634702 -0.17652313 0.24234088 -0.064009406 0.38024056 0.31525457 -0.13257466 0.24918462 -0.11143334 0.20002055 0.34909445 0.022145031 0.24760191 0.04617332 -0.062666185 0.49878582 -0.22140393 0.19211955 -0.12027775 0.07659261 0.08228079 0.027737847 0.3110963 -0.028874533 0.13759664 -0.22005834 0.067862526 0.07334397 0.092338495 0.03019684 -0.43983358 0.060064316 -0.4815825 -0.124959156 0.41783056 0.4364412 0.07188205 -0.49193466 -0.6098602 0.1914635 0.2928324 0.12664443 0.5939522 -0.075317055 -0.28884733 -0.28262118 0.09012394 -0.10862762 0.06456529 0.004461555 0.034602895 0.10538936 0.5749229 0.0029073928 0.2190193 0.33538857 0.036499273 0.20415467 -0.46712402 0.23823169 1.0122753 -0.060169924 0.23071614 -0.56461024 -0.66704065 -0.7898895 -0.51803267 0.07846343 0.2844151 -0.16076884 0.38303939 0.14243977 -0.111382544 -0.24309754 -0.41587785 0.074404255 -0.30350018 -0.7020074 -0.21512297 0.118392095 -0.01860252 -0.2321746 -0.19916485 -0.28996605 -0.19337855 -0.029097755 -0.18251722 0.39555058 -0.59730715 0.063447066 -0.1025013 -0.6141252 -0.064286634 -0.7073694 0.17348543 -0.63409084 -0.28880024 -0.02662046 0.45111427 0.40978462 0.48249096 -0.21854398 0.081709675 -0.12735708 -0.030797971 -0.06819647 0.12609775 -0.07620328 0.41224658 0.1270977 -1.3841738 -0.0966897 -0.1192291 0.060777072 0.35682666 0.43558124 0.47478187
45 -0.0057643144 0.20287333 -0.30228043 -0.7543581 -0.3022209 -0.5107538 -0.48224944 -0.26232103 0.74579144 -0.22047175 0.13969062 -0.1711696 -0.33912402 0.45828813 -0.62292993 -0.052800346 -0.05230515 -0.30340904 0.25355104 -0.15702456 0.1378685 0.57814705 0.14111902 -0.026796915 0.25515243 -0.050063755 0.021716664 0.6415784 0.26267523 0.11913678 0.31678978 0.23407099 0.7040432 -0.14380886 -0.33883426 0.0623419 0.42272744 0.5742524 0.4278382 0.42374292 -0.030236198 -0.26298282 0.64508575 -0.23733792 -0.6653229 -0.36428785 -0.13062032 -0.81632584 -0.10067341 0.31490856 0.354532 -0.376583 0.34284246 -0.25354716 -0.023600938 0.016516106 0.1269925 -0.0045791212 -0.39752465 -0.059914913 -0.7989119 0.36491096 0.6623693 0.1189803 -0.5297215 0.8562719 0.4227327 0.07699577 0.03872639 0.31137574 -0.006522517 -0.20142369 0.46087047 -0.2073713 -0.46222866 -0.6189652 0.3410611 -0.23089564 -0.12381655 0.20804392 -0.079709835 0.032976527 -0.10715626 0.4936441 0.14451541 -0.28741524 0.432898 -0.52395016 -0.79750186 1.0502611 -0.89661527 -0.19735962 -0.28747755 -1.0604943 -0.22608814 0.035821866 0.31889936 0.73079306 1.1152031 0.1278691 -0.2832327 -0.30392328 -0.5429923 0.49273798 0.11864257 0.13315605 -0.46378163 0.26421422 0.53729415 -0.35120115 0.30930725 0.21940388 0.11784635 0.06619848 0.20714478 -0.37288722 0.5480207 0.03008802 0.1061604 0.38181233 0.62717766 -0.38933268 0.7667728 -0.0503015 0.20266257 0.24382576 -0.04125106 -0.6170638
277 0.0382468 0.24996112 0.30562595 -0.37403882 -0.2160201 -0.5377729 -0.2183661 -0.18913795 -0.10301337 -0.032646522 0.26785147 0.055685464 0.3336278 0.43291742 -0.49484038 0.4926079 0.64206827 -0.06878314 0.11903581 -0.18849123 -0.59937215 0.5927333 0.17044818 0.4217895 0.13571964 -0.5181854 -0.11701539 0.048318226 0.18463701 -0.064704634 0.1545197 -0.04146167 -0.04667278 0.07734318 -0.03447984 0.08491297 -0.06303865 0.34154576 -0.40439126 0.07490424 0.3065944 0.34171042 -0.05991056 -0.55448556 -0.16604844 0.00519017 -0.31241143 0.16075242 -0.61704916 -0.44614565 0.008872675 -0.35616583 0.1316546 -0.20477898 -0.2003893 -0.5691739 -0.6380773 -0.43891186 -0.28952318 -0.17125884 0.19440104 0.09910923 0.794613 0.24017568 -0.6895255 -0.3066289 0.3437442 -0.23383342 0.47691375 -0.58565205 0.1506628 0.34859824 0.008219028 0.25895837 -0.2601507 -1.0087217 -0.632612 -0.78184146 -0.038230628 -0.22783665 -0.041319378 0.5174706 -0.41407734 0.1819103 0.16392748 -0.7937361 -0.2548459 -0.011670711 -0.71664774 0.106981345 -0.2770322 0.59774923 -0.34642798 0.28337228 -0.70124865 0.12423734 0.021543212 -0.08180771 0.19430247 -0.5374266 -0.15979837 -0.4592822 -0.18398145 0.017072171 -0.7933795 0.13600822 -1.1685109 -0.31534284 0.13995102 -0.064279415 0.25494248 0.0411913 -0.32986084 -0.38681778 0.17959316 -0.26141948 -0.016528593 0.5693672 0.09359654 0.38102725 0.1953182 -1.459545 -0.10428285 -0.22758193 -0.07742929 0.29975963 -0.23988213 0.40447617
196 0.42746913 -0.31086096 -0.19900736 -0.8153736 -0.0029932791 -0.9829589 -0.41142216 0.16913058 -0.051032774 0.1595996 0.33121586 -0.25131637 0.8574732 0.4903427 -0.022103202 0.055370197 0.58632094 0.04238754 -0.05726649 -0.49473003 -0.25818387 0.3108914 -0.0932629 0.08212454 0.15489528 -0.41000447 -0.06577688 0.26153168 -0.0035889982 0.55936617 0.5633076 0.049542136 0.1519913 0.48072287 -0.9225571 0.20187405 0.08605617 0.33103454 0.10162441 0.007560107 -0.17637198 -0.12863895 -0.09925427 0.3795701 0.4237096 0.5159742 -0.115133405 0.32028162 0.15493181 -0.038580816 0.7948626 0.14582694 0.28282577 0.4225832 -0.56314874 0.2861037 -0.8031892 0.027094482 0.25126952 -0.09001475 -0.32887647 -0.49692264 0.33807406 0.5593705 -0.04225402 0.25915623 -0.11163828 0.5122711 -0.13838229 0.16113782 0.5109517 0.020325985 0.384394 -0.85361785 0.09008789 -0.3384326 0.47448617 0.15698144 0.051527727 0.21940719 0.016698832 0.30190098 0.5901017 0.14720397 -0.18836683 -0.25477192 -0.06547532 0.60559934 -0.5385557 0.62035716 -0.03651966 -0.03856327 -0.5158746 -0.5386619 -0.11573983 -0.6988607 -0.03982485 -0.15722018 -0.51568776 -0.03293619 0.33322597 0.11423789 -0.24373586 0.101109624 -0.6582584 0.30579355 -0.062300235 -0.38740996 0.38980448 -0.446859 -0.18926106 0.67881 -0.03316937 0.4689221 -0.75617886 -0.45121723 -0.48026296 0.6751825 -0.5917312 0.571923 0.1147585 -0.35525832 0.56827974 0.17587833 0.18582757 0.21869773 -0.19562408 0.17759779
100 0.53666776 -0.06690595 0.06534063 -0.4378663 -0.37504256 -0.6656342 0.46220854 -0.28936648 -0.39051443 0.90955687 -0.2511356 -0.113764256 0.58838564 0.20150466 -0.38062435 -0.004018028 0.050816547 0.038936652 0.4789819 -0.5387678 0.0007124236 -0.13300861 0.18924934 -0.020674031 -0.41219875 0.48399803 -0.49777842 -0.23159395 0.11425602 -0.08364498 0.031530704 0.34539515 0.7009459 0.90254855 0.49810407 0.014321929 -0.17446646 0.13925073 0.065725446 -0.48915383 0.39266825 -0.16186422 0.14031672 0.021135058 0.68765914 -0.30289194 -0.085149765 0.17016928 -0.52918094 -0.49316153 -0.20320192 0.3514889 -0.031963516 0.31683263 -0.10787718 0.29932886 -0.35097834 -0.60722935 0.0010694703 0.007541525 -0.44473675 -0.16282317 0.48879603 0.39474276 -0.08941953 -0.10781189 0.10150347 0.103617035 -0.21684477 0.116288885 -0.09240204 -0.16210206 -0.044047464 0.39873052 -0.17121051 -0.101227134 0.12793975 -0.13184641 0.15972263 0.21797901 -0.31758732 -0.085093625 0.16269447 -0.069569804 0.3763558 -0.73044616 0.16074483 0.06212051 0.2080293 0.2741035 -0.034110907 -0.039799914 -0.20743275 0.2084145 -0.30301663 -0.7687401 0.012256298 0.545394 -0.26134238 -0.123912826 -0.6800936 -0.38642347 0.35583472 0.3507185 -0.40374723 -0.4655049 -0.0039380323 -0.53361195 -0.64205205 -0.14705211 0.2672978 -0.6044693 -0.04306938 -0.07659719 -0.39058283 -0.15866958 0.33001307 0.022516249 -0.24573532 -0.24990867 0.12512444 -0.085387185 -0.25034672 0.067076854 -0.13274492 -0.17838643 0.16250591 0.26087424
257 0.29101437 0.74777704 -0.2717663 -0.8106431 -0.4394982 -0.528495 -0.49732178 -0.40420163 0.49641833 -0.77955306 0.7408267 -0.11113484 0.4623122 0.719848 -0.3352528 0.108300276 -0.022342382 0.09059059 0.6748107 -0.1157465 0.8267292 -0.5460149 -0.5060444 -0.7202547 0.5306346 -0.093728654 -0.35056606 -0.008134116 0.4682682 -0.1781878 0.033211224 0.051014666 0.6745714 0.0308579 -0.24926005 0.5868763 -0.049298473 0.24156445 -0.46884564 -0.2987715 0.32993808 -1.2189647 -0.8027225 -0.28163233 0.49783128 0.4152025 -0.27623543 0.37864047 0.031678047 0.09904568 0.5906634 0.52928567 -0.43493733 0.34691137 -0.6492949 0.51439303 -0.39903387 -0.37908554 0.29591018 -0.6251832 -0.20090188 -0.19031385 0.34769732 0.10498906 0.19655865 0.35142964 -0.0030334995 1.3354921 -0.26968056 -0.2210153 -0.018467585 -0.20150775 0.91835356 0.05810485 -0.8438456 -0.36443093 -1.12695 0.3919326 0.06278171 -0.2830794 0.2450369 -0.56809 0.23904571 0.026247513 0.5081398 -0.70039606 -0.5594563 0.081054375 -0.5248569 0.6601172 -0.9921302 0.22874528 0.12390394 -0.48351234 -0.14579658 -0.35967866 0.052708156 0.08133516 -0.4492488 -0.50403 -0.4016627 -0.5469251 0.4696213 0.26933262 -0.17464684 -0.670635 0.09267931 0.29347438 0.2651406 -0.32743505 -0.70319915 -0.13981484 -0.48638305 -0.2828207 -1.0915927 0.38543868 0.87707645 -0.30014735 0.29928407 -0.54701656 0.8847296 -0.2916551 0.6398556 -0.13544862 0.5342387 0.08613241 0.26861864 -0.21262395
265 0.09629897 -0.19234324 -0.055725943 -0.8449471 0.07798145 -0.26899403 -0.39862314 -0.078062326 0.4956697 -0.2548338 -0.055686474 0.24750516 -0.20974746 -0.08484781 0.17287374 0.09910956 0.27234143 -0.6973011 0.45459476 -0.079112984 0.0019502676 -0.06353622 -0.42226917 -0.086887784 0.8613657 0.3138111 -0.14242555 0.22997789 0.50264174 0.27088308 0.10983288 0.016103968 0.43462166 -0.20246148 -0.32776847 0.009780155 -0.07719307 -0.03970205 -0.20020178 0.5443894 -0.014978707 -0.17983805 -0.25068992 -0.0667924 -0.11373576 0.08087831 -0.8789563 -0.30642208 -0.5753701 0.06635355 -0.37800714 -0.7601908 -0.14192203 0.040966593 -0.4451765 0.32639986 0.42949754 -0.13806108 0.3593591 -0.46787053 -0.54747593 0.086541235 0.25256023 0.27056232 0.4006296 -0.39843047 0.21279638 0.14783482 0.24284965 0.15169181 0.12518351 -0.20125496 0.1148369 0.3433269 -0.26785797 -0.4553756 0.77727693 -0.06941083 -0.3066864 0.47860348 -0.24608274 0.21627682 -0.06722767 0.50141627 -0.30118835 0.1718117 -0.7215432 -0.107653715 -0.6099893 0.87351245 -0.6837994 0.47109944 -0.52323365 -0.36268637 -0.42066488 0.57401294 0.008862142 -0.20023558 -0.25974765 0.23807743 -0.20809998 -0.6340402 0.1949858 0.10344801 -0.27897584 -0.16124545 -0.12511165 0.024153365 0.3764008 -0.2562514 -0.51328737 0.10912339 0.2126005 0.050499983 -0.4171641 -0.25159657 0.4663143 0.103067495 0.03882131 -0.008958838 0.3307653 -0.033008717 0.65013635 -0.049515717 -0.42838526 0.24861404 0.4076203 0.27425525
245 0.40545288 0.106424116 0.047317993 0.34725294 -0.5716213 -0.6048367 0.34691274 -0.096692815 -0.033753946 0.022024708 0.53070104 -0.17223404 0.19963558 0.44901526 -0.080849655 0.29668346 -0.29423743 -0.21984482 0.038393628 -0.1283143 -0.054072604 -0.36393183 0.44595388 -0.108209275 -0.06993117 0.050757147 0.21953216 0.15845947 0.39465618 0.20939831 0.43690223 -0.014708975 0.73413754 0.11228036 -0.070346415 1.2299864 -0.6176857 0.40849668 0.34717062 -0.28708383 0.32133088 -0.544966 -0.35634583 0.072072715 -0.12257356 -0.1285514 -0.37860048 0.21724382 -0.52904767 0.13261607 0.18796812 0.5285434 0.14078008 -0.22059532 -0.26651353 0.71693766 -0.24292436 -0.6640243 -0.43856412 -0.2279052 -0.09545448 -0.63241535 0.5107155 0.44434088 -0.22331344 -0.3157871 0.13687822 0.36383092 0.0779206 -0.20206174 -0.9309215 -0.36967668 0.37380955 0.35079578 0.37953103 -0.2965555 0.026684761 0.128738 -0.5592463 -0.25011232 0.17285094 0.49282402 0.06303651 0.45183727 -0.9258532 -0.48395497 0.1467353 -0.5781034 -0.0983568 0.40639126 -0.7028204 0.2522763 -0.11505513 -0.119529516 -0.21069875 0.34898892 0.09338648 -0.24538903 -0.17121306 0.3878287 0.035074938 0.18511842 -0.12950812 0.19152932 -0.5512479 -0.7894478 0.33036977 -0.24934839 -0.60845983 -0.16425987 -0.42858717 -0.09870366 -0.032852195 -0.07724852 -0.50562674 -0.5600973 0.66250426 -0.3838561 0.9503294 -0.28028926 0.4223505 0.119495206 0.15279518 0.028346037 0.15980513 -0.34424102 0.44130275 0.3319185
149 0.21902373 0.0069535654 -0.20909673 0.21648195 0.114045165 -0.34431905 -0.4703836 -0.033660214 0.14118125 -0.32739106 -0.46408805 0.26165098 0.45240554 0.17501968 -0.4676562 1.1103734 0.7536402 -0.24969022 0.2993115 -0.5423483 -0.30027002 0.19009277 -0.20371418 -0.20916855 0.348542 -0.0045397095 0.49268502 0.024708848 0.16721298 -0.14872386 0.38673905 0.11534804 0.63396835 0.24614576 0.03655168 0.022406777 -0.7908274 -0.758352 0.37199008 0.191105 0.42440423 -0.30750987 0.25683898 -0.22935271 -0.40817872 0.5342994 -0.16140515 0.22143741 -0.20423396 0.12622237 0.12463883 -0.42556906 0.48223713 0.5612018 -0.03407283 0.008346211 -0.25165093 -0.3033478 0.40002996 -0.26316524 -0.18847641 0.059243206 0.2555828 -0.24420552 0.36651126 0.038204193 0.1251813 0.06754163 0.5514916 0.24591552 0.3107796 0.2970878 -0.07123638 0.63829637 0.14907172 -0.45846123 0.41730672 0.07145578 -0.17963284 -0.017881392 -0.28140542 0.13633963 0.256913 -0.032627806 0.19844455 0.26379663 -0.11513994 -0.7582738 -0.025042374 0.32796532 0.0043352237 -0.113099195 -0.12538114 -0.30704233 -0.48581013 -0.31379527 0.06877039 0.4848822 -0.29097337 0.21146257 -0.31993744 -0.6765419 -0.274106 0.21667784 -0.72024703 -0.4657525 0.15030865 -0.023991905 -0.18609262 0.34203473 -0.51494974 -0.33040896 -0.23109536 0.12475166 -0.24109478 -0.21211658 -0.08745649 0.45317495 0.009444703 -0.151809 0.14721696 -0.689615 0.19859155 0.041792527 -0.56605536 0.4689065 0.22467771 0.12998502
241 -0.39873263 -0.49810898 0.63276935 0.38159496 -0.0751323 -0.6555883 -0.09977794 -0.13495752 0.11728004 -0.12051052 -0.05649926 -0.491543 -0.20851256 0.32849053 -0.17252406 0.40258363 -0.20377742 -0.20531091 0.5323213 -0.21592352 -0.07231315 -0.31340924 0.36939365 0.4837114 -0.5386952 -0.4793807 -0.50558984 0.2362605 0.17095044 0.068395436 0.61560625 0.43076125 0.9135725 0.18646647 0.0035339438 0.746822 -0.34064388 0.1145604 0.47366673 -0.32344854 -0.034993585 -0.10206899 -0.2707329 -0.039673015 -0.09635095 0.32964975 0.33285254 -0.18476015 -0.663273 -0.54036516 -0.13648897 0.65928036 -0.02511047 0.09465712 -0.5557445 0.015965717 -0.21695651 -0.8057308 0.14962585 -0.507416 0.06779293 0.1453551 0.06528846 0.41240636 -0.10441151 0.07564631 0.0029724953 0.18883948 -0.07516616 0.034257136 -0.19323976 0.05003899 0.2423582 -0.57338613 0.74314344 -0.34369308 -0.30445594 0.5116602 0.49966463 -0.37255225 -0.079625994 0.3218001 0.061272062 -0.376963 -0.39229015 -0.18002997 0.86481965 -0.17024882 -0.64529854 0.25306913 -0.49661162 0.23654856 -0.039650653 0.029890668 0.016718796 0.03228939 0.6514555 -0.27018106 -0.09484955 -0.077807404 -0.6118603 -0.16926797 -0.8516609 0.05782613 -0.2777761 -0.2779015 -0.014759675 -0.2864867 0.21744962 -0.6438974 -0.011791553 0.25696978 -0.3559159 -0.20834665 -0.026270248 -0.21246228 0.14692758 0.20118655 0.052271377 -0.05977472 0.56115764 -0.25277156 0.68149865 0.097024575 -0.29323885 -0.30442566 -0.08305006 0.18160449
364 0.15504119 -0.17429145 0.36076197 -0.087784015 -0.079213314 -0.78188056 0.26219422 -0.01259159 -0.6276093 0.09571307 0.3844967 -0.012247776 0.25600556 0.5877912 -0.5772155 0.3328364 -0.49221316 0.697445 0.5649708 -0.46566954 0.28271377 -0.3294719 0.31392428 -0.10048964 0.12923452 0.2430869 0.12133546 -0.09245251 0.67206925 -0.4509677 0.38670155 0.64375883 0.5099138 -0.01016033 -0.07355317 0.30199164 -0.698751 -0.051679555 -0.13330717 -0.17974718 0.7191452 -0.6062427 -0.29943094 0.04112288 0.24665567 -0.26432788 -0.14194995 0.27760005 -0.7054463 -0.68740124 0.31380314 -0.13594085 -0.7520999 0.24352911 -0.4231197 0.42576703 -0.44081327 -0.6880525 -0.0037165221 -0.0014718387 -0.9342058 0.04933997 0.48515418 0.8730089 0.09415904 -0.0019900862 0.18150096 0.021927664 -0.42610908 0.051156934 -0.33192354 -0.1340052 0.030511908 0.5878223 0.2504896 -0.0025954086 0.17510583 0.38130078 0.34423122 0.008851709 -0.024160536 -0.11006264 0.27018386 -0.08746318 -0.20868729 -0.45698866 0.3218221 0.0005870039 -0.26458314 0.3547213 -0.021072531 -0.10530616 -0.34347856 0.23752406 -0.6724673 -0.67489576 0.41319486 0.13654582 -0.8701987 -0.05901201 0.24810807 -0.037092734 0.06815629 -0.37723815 0.22321087 0.13473143 -0.057522397 -0.07864901 -0.9688663 -0.45168763 0.11337692 0.5119496 -0.42760548 -0.40831202 -0.006328721 0.36171356 0.3089904 0.20786153 -0.16979921 0.62488055 0.35478234 -0.03177433 0.6116443 0.76483554 -0.581328 -0.2657306 -0.27170706 -0.07699719
422 0.7396699 0.24359465 -0.18317758 -0.75178015 -0.42181534 -0.586281 0.010271516 0.430203 0.013907626 0.274544 -0.49746144 0.33394918 -0.22298409 0.17831874 -0.035887096 0.06798061 0.114470534 -0.31538576 0.40380263 -0.5596215 -0.50435066 0.15741637 -0.5041637 -0.05750177 0.20206994 -0.4799056 0.019219266 -0.1362737 0.809011 -0.12608139 0.18461731 0.57984877 -0.031244658 0.46127665 0.11223874 -0.03739951 -0.4143981 0.031837426 -0.48031637 0.22936302 0.26389283 -0.29180872 0.21346185 -0.33789995 -0.09572175 0.67403895 -0.7959305 -0.22671534 -0.39710847 0.46019423 -0.42714173 -0.11483256 -0.17305617 0.3565963 0.13964306 0.30253538 -0.20130086 -0.019030705 0.28698286 -0.14913176 0.14939353 0.0365555 0.3444451 0.5412065 0.0062529906 -0.13410415 0.50532717 0.049846336 0.28558347 -0.2729154 0.15526909 0.52718633 -0.33597928 -0.7413706 0.42566583 -0.3668922 0.11017821 -0.19568524 -0.12775315 0.062096268 -0.15903494 -0.3433139 0.16751839 -0.054888498 -0.9353762 -0.19182092 -0.37624004 -0.23596437 -0.557815 0.15855947 -0.33228105 0.023649648 -0.019901374 0.34812766 -0.14250216 0.03750985 0.100281365 0.27335158 -0.7155599 0.86065537 -0.4199336 -0.17208897 -0.5116979 -0.2392053 0.049826667 0.44847894 0.20208655 0.1737987 0.4019545 -0.2848367 0.60318124 -0.28563726 0.30714172 0.09947015 0.21644379 -0.19636528 0.6080596 -0.060738873 -0.43843538 0.19778179 0.107969776 -0.10700001 -0.047967236 -0.0058674943 0.019616507 -0.40302613 -0.1829236 0.020689275
147 -0.2981204 0.095397994 0.13156855 -0.4059883 -0.4627949 -0.39699414 -0.21191593 0.14883804 0.7359861 0.10368061 -0.32347694 -0.19638135 -0.59179264 0.23444691 0.18764327 -0.31328902 -0.34800962 0.0057722502 0.45696992 -0.2842847 -0.3638289 -0.14802144 7.1371716e-05 -0.08157488 0.20877877 -0.24855961 0.13941848 -0.19209293 0.4093013 -0.20523271 -0.24237378 0.20522836 0.7907444 -0.13715298 -0.09662917 -0.12768503 -0.072423875 -0.22816776 0.22325104 0.23457375 0.27448168 -1.0150028 0.27335218 -0.71301097 -0.55345607 -0.40837073 -0.6540199 -0.43087026 -0.3357422 -0.54864466 0.29937363 -0.391219 0.2592649 -0.37114146 0.04593535 0.14501624 0.047953226 -0.53876704 0.09731237 0.0039322255 0.37765437 -0.73394305 0.5046354 -0.30117062 -0.0049166754 -0.18561246 -0.17545515 0.30172038 0.18678579 0.09609042 0.06409434 -0.2802641 0.34580067 -0.6058292 -0.34218282 -0.29362205 -0.9247276 0.46458155 -0.37040535 0.20956288 0.6653502 -0.3030657 0.05911236 -0.97648656 -0.22346921 -0.5791074 -0.49046332 -0.26465496 -0.24341871 0.51772696 -0.53179336 0.038994633 -0.20721571 0.4739011 -0.1003455 -1.1074337 0.5396612 0.98026216 0.16675611 0.40119255 0.1629748 -0.22874634 -0.35018587 -0.30186903 -0.5957276 -0.15795863 -0.22545242 -0.84924096 0.16183685 0.53276664 -0.0132870255 -0.33413175 0.06423835 0.0038264107 -0.15426114 -0.52169997 0.3327575 -0.5999225 -0.5173692 0.19485281 0.5972123 -1.3596743 0.31851554 0.19536668 -0.17996207 0.26370704 0.43795156 -0.4798065
144 0.6742303 -0.20145234 0.53134274 -0.19029525 -0.17560346 0.041925114 -0.46357065 0.01338392 0.5562272 0.3906626 0.58155155 -0.53110117 -0.3996473 -0.4100033 -0.34494323 0.40296447 0.20496473 0.19271542 0.41626075 -0.14523125 -0.3137817 0.25374967 0.1789314 -0.4815612 -0.2752816 -0.021050911 0.0812487 0.43145204 -0.28781056 -0.17693138 0.19735216 -0.19656174 0.39957938 -0.25200605 0.119364195 0.58910584 0.2279809 -0.83257174 -0.18018389 0.19639371 0.09614706 -0.380634 -0.1346357 0.047888584 -0.2820956 0.13336858 -0.37375018 -0.14544868 -0.36513215 -0.021549959 -0.03152739 -0.16038859 0.061759576 -0.3536679 0.6118884 0.13341953 -0.13645391 0.5052826 -0.15427078 0.15846182 0.27240837 -0.21365379 0.02542427 0.6062881 0.091783926 0.009389585 -0.0361327 0.5688626 -0.4923203 0.21214086 -0.29247266 0.36445206 -0.3884756 -0.8158128 0.3708351 -0.77089596 -0.10847083 0.44629195 0.058392994 0.082141645 -0.349336 -0.0043390486 0.18137836 0.109365344 -0.6131297 -0.19727649 -0.013125458 -0.303222 -0.11544338 0.26214474 -0.46650434 0.034130137 -0.034089886 0.048402928 -0.21968502 -0.40206414 -0.061746396 -0.16364844 -0.40253708 0.4603984 -0.38594663 0.034167387 -0.3208475 0.061552826 -0.08145342 0.13796961 0.5718518 0.07211309 0.34593517 -0.48279566 -0.9455937 -0.33078867 0.0745565 -0.22176959 -0.16116266 -0.606879 0.28842214 0.65908486 0.08169709 0.26024258 0.22622824 -0.267397 -0.084359996 0.21432231 0.30532315 -0.24197036 0.08072337 -0.22699589
15 0.37953943 0.038905557 0.45710298 -0.40310603 -0.6078005 -0.46506718 0.09317551 -0.16313033 0.0934235 0.48388538 0.639611 -0.016330585 -0.39972436 -0.30507877 -0.76334614 0.38997906 0.12558673 0.22641735 0.3533506 -0.46974695 -0.16672349 0.1415975 -0.290382 -0.22389695 -0.40827602 -0.2608392 0.24570264 0.020868402 0.21275623 -0.62459743 0.211954 0.45586643 0.16322525 0.25328466 0.34492844 0.5695159 0.08847907 -0.11179492 -0.3694918 0.45129544 0.33692583 -0.8310226 -0.32081658 -0.45451072 0.24662435 -0.15273336 -0.097997725 0.07681246 -0.6137685 -0.3812051 -0.04531163 -0.17652155 -0.13540864 -0.4544031 0.8225936 -0.11359799 0.040353667 0.55109924 -0.23815891 -0.08776306 0.63936937 -0.0085373465 0.073632665 0.5124819 -0.16319579 0.120577484 0.56277466 0.17855133 -0.29718655 -0.07173609 -0.29266918 0.38038313 -0.74161226 -0.14607891 0.07992196 -0.52380186 0.030971875 0.044164654 -0.054298487 -0.013839715 -0.069624566 -0.6506439 0.17628723 0.22618228 -0.4891494 -0.36810926 -0.10642531 -0.2511286 -0.12094518 0.13851345 -0.26330024 -0.14679135 0.21902965 0.19878006 -0.24336487 -0.4942763 -0.42495692 0.22173409 -0.30676278 0.91135 -0.21165028 0.16411 -0.48816139 0.28569698 0.02477649 0.68505603 0.70678955 0.238293 0.1787118 -0.25069737 -0.3473836 0.005873707 -0.036861796 -0.53832805 0.3086297 -0.31003124 0.3521736 0.44899902 0.24269618 -0.08678963 0.27178133 -0.22221896 -0.050596885 0.13114034 0.3537364 -0.21113457 -0.29168925 -0.20595744
121 -0.010263137 0.040312335 0.072461866 -0.8215586 0.27605507 -0.15317775 -0.6147038 -0.38952994 0.48647887 -0.029090751 0.06540883 -0.05134299 -0.0005219023 0.038395315 -0.32614934 0.10344786 -0.06173927 -0.4593062 0.44875947 -0.2754776 -0.10063648 0.21374965 -0.24104296 0.043194212 0.2659638 0.23005557 -0.05312041 0.4351693 0.29969066 -0.0192637 -0.0763782 0.16084637 0.40757865 0.02087655 -0.3104385 -0.013832922 0.32315463 -0.045166522 0.0680812 0.2810484 0.3708255 -0.14106582 0.09604738 -0.06272235 -0.33948803 -0.15725681 -0.5845846 -0.48428273 -0.33948797 -0.019307898 0.18307799 -0.47358572 0.09974989 0.17175002 -0.034218032 0.14638355 0.7202675 0.036449432 0.043978386 -0.2606137 -0.9286569 0.41816685 0.094514504 0.45231593 0.2776518 0.3782158 0.27433503 0.08829609 -0.30797714 -0.04635726 -0.08194202 -0.25466248 -0.15796477 0.3382269 -0.27242252 -0.4736138 0.30217725 0.116598524 -0.072911985 0.5780981 -0.10819676 0.26251397 -0.42592296 0.15003435 -0.2502043 0.14377668 0.019015938 -0.37985495 -0.76904917 0.6626007 -0.85166997 0.31707826 -0.31147268 -0.5178592 -0.51443803 0.27636406 0.06356948 0.13772713 0.013935564 -0.033754606 -0.47962007 -0.3167161 -0.054025367 0.039163515 0.02975258 -0.0942995 -0.03356602 0.11930779 0.46470377 -0.47908163 -0.2855034 0.6542169 0.13990827 0.0017412957 -0.42108196 -0.4714643 0.11169791 -0.31393677 0.3311214 0.57237875 0.25805652 -0.021497495 0.5373653 0.013027054 0.034888495 0.44859424 0.716364 -0.13753428
32 0.27023163 0.010336291 -0.15053712 -0.33675104 -0.5451301 0.10341158 -0.68646437 0.331493 -0.058728524 -0.20712788 0.13518323 0.12254842 0.013438335 -0.21136771 -0.48134106 0.6686932 0.41719317 0.047019485 0.3447734 0.14136706 -0.120189324 -0.17312779 -0.0035567654 -0.48644918 0.6571192 -0.31891066 -0.15546638 0.20750706 -0.11226662 0.20706251 -0.4736353 0.29508394 0.5141023 -0.4632007 0.32681322 0.17809355 0.31540328 0.012842564 -0.35794562 0.008504481 0.14111754 0.18364552 -0.19075073 0.015306385 0.09505519 -0.15870641 -0.29026532 -0.29006714 -1.0302905 0.14167829 -0.3468587 -0.09053551 0.39612076 0.12881969 0.071282126 0.42095038 -0.28105077 -0.098319724 -0.36953253 -0.3834153 0.46454212 0.6816727 0.3332458 0.07095281 0.21852948 0.34992555 0.20029412 0.079863 0.08811955 0.108461544 -0.2915086 -0.24895838 -0.17852086 0.22019474 0.24479482 -0.64792013 -0.15271287 -0.020018624 0.22265567 -0.024557175 -0.47831905 -0.2446644 0.48336497 -0.042348575 -0.42690066 -0.004945212 0.16395201 0.1270206 0.24471451 -0.1468684 0.17988223 0.13614954 -0.059974313 0.18551925 0.37724698 -0.20552386 0.3737602 0.57612616 0.21838225 -0.072551005 0.090102285 0.00078295846 0.74746406 0.18250683 -0.3831272 0.19819447 0.07620042 -0.42867938 0.18774979 0.35458916 0.04163872 0.15935121 0.26800832 -0.19866094 0.19535464 -0.2351399 -0.00373058 -0.05496798 -0.11974031 -0.12597977 0.864629 -0.47454864 0.19884482 0.15570427 0.3996284 0.4157589 0.0494032 0.40514162
266 0.0070457417 -0.17799754 -0.5014512 0.007959497 0.16621557 -0.33324718 -0.25725242 -0.024757065 0.2630197 -0.4436826 -0.3141916 0.5240107 0.58209676 0.29859722 -0.12971501 0.87313884 1.0265911 -0.40086204 0.16709276 -0.61235416 -0.0381712 -0.083313696 -0.029997664 -0.3624405 0.5995412 0.5699597 0.35544154 0.16185948 0.35345632 -0.14233015 0.13780457 -0.16442153 0.44059962 -0.20327444 0.05799795 -0.077320136 -0.3768772 -0.34376264 0.37556872 -0.004413845 0.131949 -0.17988522 0.33737817 -0.20285341 -0.220413 0.27800202 -0.53097993 -0.103051625 -0.62920725 0.13941148 0.15329807 -0.5226835 0.27919132 0.31357136 -0.08813489 -0.11496369 -0.2601002 -0.25495875 0.32084665 -0.4227031 -0.29651105 0.063733645 -0.107380524 0.061962448 -0.13558772 -0.17666325 0.3923726 0.09801742 0.41105282 -0.03540577 0.42795235 0.043688405 0.084755234 0.5627032 -0.058907405 -0.41822213 0.39322782 -0.32528305 -0.25108963 -0.3147851 -0.25838965 -0.016131856 0.31788555 0.49897605 0.1711563 -0.06560373 -0.031162763 -0.19494067 -0.040794395 0.24078809 -0.24648571 0.19768316 -0.56411165 -0.04682568 -0.14795221 0.06263732 0.06308227 0.03498897 -0.2458476 0.2948032 -0.0073591624 -0.7679232 -0.24392234 0.08830054 -0.5683589 -0.3045428 0.24065892 0.27468953 -0.07569596 0.3932533 -0.2442581 0.05240544 -0.34913465 -0.09458386 -0.1766972 -0.22349818 0.0784937 0.67743695 0.21452817 -0.46962318 0.3217885 -0.59812504 0.30178973 -0.062371325 -0.5748928 0.5389343 0.35512242 -0.23887749
370 0.13950299 0.73966897 0.57598644 0.13575128 -0.35433298 0.18005009 -0.18050395 -0.9555627 -0.06127519 0.08865141 0.50379056 0.20751895 -0.0919986 0.08557006 0.2281176 0.09273946 -0.25450653 0.53464305 0.58018434 -0.4469342 -0.2808249 -0.7029437 -0.24541233 0.28259286 0.8795238 0.5547837 0.3153956 -0.37086514 1.0339302 -0.6622246 0.083871126 0.7250885 0.29239157 -0.16773288 0.23935144 0.14382581 0.3084467 -0.7907098 0.3619033 0.123587675 0.5308271 -1.5458934 0.12044229 0.14393607 0.8404181 0.26157922 -0.3104599 -0.26587152 -0.88455844 -0.28714734 0.42118895 -0.33639657 -0.025892654 0.35444772 -0.10084972 0.66894007 -0.13609011 0.1840566 0.5803101 -0.31703502 0.276404 0.08007943 -0.6281612 0.6478559 0.43810752 -0.37306952 0.26971498 -0.10158503 0.082784936 -1.1285486 -1.2809149 -0.40202692 -0.3008994 0.6434855 0.7271979 0.2313375 -0.16909975 0.45510966 -0.46461657 -0.44897538 -0.62199974 0.2752772 0.11517174 0.10356529 -0.7913072 -0.5702584 -0.5872315 0.99490595 0.23290342 0.07132941 -0.35215017 -0.06032712 -0.47964424 0.27863064 0.22150078 -0.16733465 0.45679748 0.5475353 -0.4808009 0.86181074 0.6127318 -0.035240598 0.5949649 0.33390316 0.23760666 0.50435233 0.26688147 -0.21005043 -0.21982226 0.114009425 -0.89474875 0.279796 -0.4235649 -0.89690536 -0.31892523 -0.3028685 0.18187074 -0.12266778 -0.09583388 -0.2288268 0.61179096 -0.39763266 1.4058367 0.74221903 0.19528945 -0.38098454 0.40306246 0.2464622
263 0.3207028 0.3566131 -0.016891034 0.21351767 0.31154156 -0.53451586 -0.5685016 0.35977992 0.20074819 0.07876889 -0.3470436 0.47880727 0.7774255 0.3621501 -0.28001523 0.3191264 0.9237944 -0.24671307 0.17112292 -0.26137647 0.053819448 -0.13372108 -0.12542957 0.12716952 0.41893262 0.3782821 0.16220978 0.2917445 0.54632777 0.19749425 -0.421947 0.028350636 0.13283959 -0.0800245 -0.178425 0.1978667 0.15186688 -0.22596379 0.13549292 -0.30710164 -0.08771623 -0.54630786 0.28847593 -0.13360643 0.15352795 0.45303243 -0.7759567 -0.029089287 -0.450303 0.41448832 0.12700951 -0.05676772 0.11393501 0.24036965 0.22422563 0.053298626 -0.29848233 -0.5561776 0.08085873 -0.22826359 -0.38247362 0.07366157 0.2603657 -0.02605102 -0.22344287 -0.24710856 0.26300293 0.055115595 0.5327777 -0.24444115 -0.198522 0.09390429 -0.095159456 0.24141087 -0.21496741 -0.41247755 0.11015724 0.21871464 0.43748662 -0.30544665 -0.36003226 0.29231587 0.13763916 0.2941212 -0.07896365 0.16144331 0.008274574 -0.002543824 -0.18620881 0.14183232 -0.11549831 0.12091838 -0.51059246 -0.07969024 0.04806424 -0.24130192 0.021329094 0.09141026 -0.3334659 0.22870935 -0.025720103 -0.2867977 -0.05723554 -0.21418823 -0.647974 -0.31416613 0.27579594 0.12877838 0.53397375 0.13964805 -0.2395644 0.09540404 -0.43587095 -0.4279472 -0.15055853 -0.34371516 -0.36899555 0.38455287 -0.13369183 -0.01443461 -0.24999455 -0.51218003 -0.07093154 0.06475029 -0.6283906 0.30132428 0.36384115 -0.20800807
143 0.5761656 0.4434492 0.2256724 -0.38268334 -0.12635434 0.45869344 0.24222946 -0.22105384 0.13015181 -0.14745969 0.47134227 0.09959717 0.39888468 0.9389774 -0.27909517 0.2551543 -0.04546415 -0.08356572 -0.22485165 -0.75195706 -0.72803414 0.50546473 0.10761832 -0.069973566 0.31799248 -0.32830995 -0.19821285 0.57900584 0.10943729 0.15328209 -0.0682361 -0.008596745 0.55411 -0.047030304 0.1351355 0.42530262 -0.4205489 -0.5343026 -0.33225736 0.20478448 0.5333678 -0.12455871 -0.19064192 -0.32099757 0.32383603 0.5790407 -0.5535244 -0.030378949 0.0057822927 -0.24081644 -0.43238744 -0.5593554 -0.018852955 -0.24050568 0.67199296 0.12629257 -0.011515296 -0.5761848 0.25563464 0.1715601 0.521458 0.3533041 0.51177007 0.06667333 0.0016207568 0.48261473 0.44726273 0.21353216 0.68101573 -0.6203063 -0.64678717 -0.2877982 -0.37095428 0.41273913 0.4258832 -0.45342293 -0.5675986 -0.5530278 -0.41543332 0.26486784 -0.7427538 0.46613887 0.2874135 -0.22206195 -0.4310233 -0.44749573 0.61784154 0.22349973 0.0034050902 0.07348834 -0.34890488 -0.36330515 -0.0048623453 0.43149048 0.13353544 0.23102227 0.54487735 0.5701564 0.06500875 -0.12991655 -0.35086715 -0.035623576 0.020568293 0.34387448 0.2326867 -0.26326725 -0.76919883 -0.18382154 0.10783263 -0.07670282 -0.21926574 -0.17360124 -0.85468805 0.42527863 0.44726896 -0.281123 0.66669583 0.27767783 0.52107555 0.35171553 0.65455264 -0.52511233 0.3775985 -0.0023226687 0.25362387 -0.0834255 -0.33848703 -0.02631829
168 0.42027482 0.038482208 0.07938262 0.2435999 0.13686948 -0.28546327 -0.17981057 0.23944117 -0.17589298 -0.089611776 -0.3313024 -0.01685205 0.52458835 0.27034268 -0.32162338 0.8649379 0.3413395 -0.1919964 0.42733085 -0.54595333 -0.09949008 0.3060703 0.056053557 -0.08029131 0.11975796 -0.056820747 0.38504487 0.1125711 0.51347214 -0.02207374 -0.20175767 0.037425615 0.365976 0.24104148 -0.11510539 -0.098885156 -0.43034798 -0.5400859 0.40600547 -0.02834614 0.42859805 -0.4474567 0.27891752 -0.045655288 -0.35618025 0.20758434 0.09071691 0.2267178 -0.7070629 -0.1510411 -0.050824806 0.21549633 0.4907621 0.5020856 -0.022310162 0.16759686 -0.0027367673 -0.19522902 0.16557361 -0.04416778 -0.0683068 0.09269041 0.28926423 0.05383998 0.3993654 -0.17688343 -0.045736317 0.16851296 0.4673552 0.14590679 0.22157232 -0.16446833 -0.10859984 0.27929926 0.11662794 -0.43175358 -0.14627123 -0.16704735 0.114287145 0.36882254 -0.44484615 -0.038717035 0.3231921 -0.23022549 -0.15498367 -0.022997363 -0.21573287 -0.58102405 0.26437926 0.23895973 0.24312997 0.049759325 -0.30185378 -0.1160503 -0.3784363 -0.36314562 -0.20363466 0.4185686 -0.4172143 -0.010454693 -0.49435174 -0.28643686 -0.10290287 -0.17962757 -0.86841136 -0.38875848 0.103284575 -0.22479449 -0.34178758 0.4236589 -0.15190658 -0.19829702 -0.24404922 0.10943706 0.25231647 -0.025801493 -0.28113964 0.36266991 -0.08182913 0.117683485 0.00092880207 -0.7868044 0.22244221 0.058361597 -0.2955077 0.09120497 0.27849618 -0.17414007
