452 16
435 -0.8378398 0.09216188 -0.13419011 -0.7377031 -0.06741389 1.1152328 -0.59996855 -1.1039252 0.63800955 1.2947897 -0.34286726 0.27006194 -1.002294 -0.444865 0.24809374 0.361955
62 0.043199625 0.6214798 0.76538646 1.0890461 -0.96156806 0.7284182 1.4222825 -0.19548824 -1.013424 1.0348914 0.3301873 -0.917365 0.02118253 -0.7028707 -0.20326261 0.76134235
112 -1.266269 -0.24047199 0.9990226 0.6110406 -1.0811647 0.8399086 -0.45248276 0.27655697 0.12009507 0.4073231 -0.3262577 -0.07543035 0.692901 0.32493073 0.008034905 0.4895702
136 -0.22215974 -0.45804742 -0.5731607 -0.38633925 -2.1075714 1.0650241 -1.6089888 -1.1125275 0.17391622 1.4907188 1.6388366 -0.19164208 -0.4740861 -1.724882 -0.32405788 0.046566766
206 -0.6865201 -1.0799965 -1.4689066 1.1701388 0.013547105 0.43034834 0.55465674 -0.23947024 0.25603387 0.7639527 -0.8979078 -1.9124238 0.9030152 -0.4688733 -0.43981418 1.399434
159 -1.1046925 -1.4112433 -0.7041163 0.46905008 0.4666994 0.27047354 -0.21159069 0.48432443 0.6040415 -0.7983489 0.27417558 -0.36009723 -1.3287117 -0.918266 -0.96761876 1.1663405
34 0.042293124 -0.4087984 0.1846477 0.02712719 0.12748674 1.5400202 0.32347506 0.21792969 0.5206332 1.5071126 0.03639884 1.5747219 -0.21311413 0.72185504 -0.4873815 0.97741
9 -0.6230262 -0.04270735 0.5807208 1.1765488 -1.4889355 1.3930123 -1.1292659 0.3077846 -0.44397926 -0.019789085 -0.23103495 1.628398 -0.19406687 -0.21848944 0.78401107 1.2046486
119 -1.4155687 0.2629886 0.6728668 0.8016136 -0.7611801 0.33094904 0.26458478 -0.1967492 0.57401854 0.5720085 -0.12873103 -0.12056837 0.055860203 0.3048769 -0.5830122 0.18336697
287 -1.1072668 -0.41606113 0.8719104 0.43614712 -1.8977863 0.74717724 -0.7226019 0.30619556 -0.20601675 0.25519598 0.073765114 0.109106585 1.3831304 -0.33693117 0.30910003 1.3854316
431 -1.374866 0.12073924 1.251408 0.66531354 -0.89413357 0.23119242 -0.020355932 0.35275963 -0.21136656 0.9306175 -0.69357955 -0.24717997 -0.096677594 -0.3075382 -0.5707659 0.11624992
325 -0.93987983 0.0944273 0.87141234 -0.10540153 -0.19294195 1.2971137 -0.7844302 -0.1357282 0.8528126 0.6761405 -0.26759115 -0.261409 -0.33167538 0.26366657 -0.12704687 -0.14049922
438 -0.5958591 0.93482417 -0.9504987 2.1264503 -0.357311 0.21909204 -0.36381164 -0.5121312 -0.06782166 0.4258 -0.15267286 -0.9300728 -0.60568535 -0.22616604 -0.94120604 0.8581884
317 0.06706666 0.31087676 1.3058423 0.123713575 -0.7316021 0.16771023 -0.6167153 -0.16180837 0.41796064 1.2676613 0.16590875 0.13399194 -1.2113217 -0.61376923 -0.86937326 0.28675616
142 -0.065175444 0.3082787 -0.8887632 1.2546737 -0.45608872 -0.042632516 -0.10487514 -1.069707 0.5023622 0.574728 0.3027274 -0.97041243 0.53802127 -0.59561294 -0.70381373 0.9519433
120 -0.50280255 -0.47447792 0.14920346 0.39479342 -0.11949802 0.037649687 -0.75635827 -1.9611307 -0.13254051 1.4362545 1.0701915 -0.858933 0.31131074 -0.813157 -0.055516448 0.8362746
72 -0.51923805 -0.44453412 0.08172513 0.3020543 0.63339335 0.70473087 -0.052995972 -0.1560643 0.6426388 2.09547 0.030266697 1.4733136 -0.52167505 1.1154162 -0.36130708 1.6740361
375 0.24705693 -1.1588804 -0.4884733 0.7303967 0.76752776 1.6017716 0.29204693 0.99000514 2.0010176 1.7287486 0.5930613 -0.44839594 1.2498281 -1.1791779 0.7964468 -0.27897754
47 -0.9143705 0.48179486 -0.13699268 0.6326418 1.1861995 1.0364745 -0.65005726 -1.8988163 0.20765083 2.047624 0.15227352 -0.038122833 0.43061346 -0.8670655 -0.18573311 0.26913387
221 -0.59217846 0.59951264 -1.0415605 2.2850337 -0.32053885 0.762231 -0.66414714 -0.5779033 -0.3465756 0.16282704 -1.1751949 -0.79235506 -0.0061972886 -0.32706967 -0.6877114 1.2046361
35 1.6168305 -0.18770076 1.476736 0.55501246 -0.67362654 0.8423798 -0.47598714 1.273199 1.7431482 -0.16504051 -1.8420132 0.16972733 -0.3245001 -1.8614669 -1.3900651 2.4436886
415 -0.6186868 -0.8379105 0.103060775 1.0085021 -0.7743852 1.2114363 1.63604 -0.2758548 0.5135353 1.8437738 -1.765336 1.2034007 -0.46034363 -0.15585637 -0.92454433 0.15513723
122 -1.6294142 -1.4084442 -0.63437295 0.53486884 0.8391338 0.19299527 -0.06477296 0.51559794 0.88537776 -0.5506133 0.37872845 -0.27830857 -1.1669201 -0.84092355 -1.3177339 0.9942638
176 1.621804 -0.7021697 1.4204096 0.88064975 0.8805951 2.3252225 -0.6743678 0.024890987 -0.9552258 1.0690235 -0.41473165 -0.13919692 0.8665082 -1.7862935 -1.7270151 0.54114246
175 -0.044437673 0.03703443 -1.0165839 0.7303289 0.47182572 1.2717054 0.09044422 0.98660606 1.4452603 1.0411254 0.7775075 0.3891512 0.4592185 -1.5211753 0.63986444 -0.5163091
148 -0.7026489 0.5130141 1.0612686 -0.33043516 0.28840166 1.6083459 -0.78165764 0.23608533 -0.22621734 0.88958853 -0.08229819 -0.3424225 -0.2726944 -0.04491427 0.01744904 0.19750677
376 -0.85168505 -1.3335106 -2.6760817 1.0551937 -0.10587022 0.5109706 -0.076414384 -0.56749624 0.21169686 0.45356733 -0.86632514 -1.9004854 0.059281014 -1.5652173 0.838457 2.645176
44 -1.1681104 -1.4420865 0.0068114437 0.15095727 1.15471 0.30764103 -0.09739891 0.42963514 0.9762329 -0.675332 0.6133656 -0.28973767 -0.9656972 -1.2188368 -1.1923355 1.163803
342 -1.0359601 -0.2527071 0.8087277 0.36838 -0.89932764 1.0039754 -0.043123 -0.0027670648 0.9499429 0.2925139 0.100105055 0.43947977 0.049260188 0.4055628 -0.08655574 0.016510762
128 0.6125779 -0.11562967 0.009149791 0.11032457 0.7683874 0.532992 -1.4031142 1.0544325 0.82382894 -0.2900276 0.19454443 0.021257443 -1.1141291 -1.7649591 -1.2869709 1.7975835
134 -0.31318578 0.34182152 0.72352105 -0.5622278 -0.080959104 1.4840361 -0.6973816 0.19635169 -0.177825 0.8335867 -0.3847807 -0.72369444 -0.47360352 0.019435968 -0.6444953 0.6402283
282 -0.23157565 -0.23589447 -0.3588524 1.5583929 0.7616188 -0.21331622 0.7925803 1.6588126 1.6713059 2.414598 1.289372 0.83902854 1.7069652 -1.9280869 -0.064367265 0.87386656
56 1.9246775 -0.80220336 -0.20414983 0.20198597 -0.8323105 3.480823 1.5852193 -1.1385708 0.839181 0.48879462 1.5205956 -0.87784463 -0.47940427 -0.28501067 -1.1031647 0.35565394
377 0.40029234 -0.1589842 -0.9404347 0.21776864 0.9369533 0.6833749 -0.8564875 0.4386315 0.7797391 -0.929707 0.49709556 -0.5268582 -0.76456267 -2.214027 -0.6754563 2.7655663
349 -0.15181966 0.3254505 -0.7696255 0.6410889 0.2852256 0.30929977 0.49586043 1.7594901 1.2530149 1.7932016 0.90501684 0.33299223 0.81699187 -1.255655 -0.026768591 0.44480392
191 1.9445497 -0.18709886 1.486987 0.8958551 -0.7533237 1.2274991 -0.577214 1.2232199 1.4078233 -0.0073592444 -2.0978007 0.31862357 -0.10127279 -1.8221403 -1.2444881 2.1642528
338 -0.16775565 -0.60056615 1.12705 0.8729524 -1.221686 0.8369308 1.3847455 0.21297325 -1.9497547 1.2143576 0.4541051 0.8439873 -1.483665 -1.348824 0.32270256 0.57940966
186 -1.2434047 -0.2480904 1.3503178 -0.5188933 -1.2047491 1.3744061 -0.42486596 0.4967675 -0.41849208 0.19098873 0.7382064 0.71807176 1.5812476 -0.7542442 -0.001064874 2.1455774
211 -0.20789252 0.4309157 1.3749981 1.5697176 -1.4286915 0.44419217 -0.043602772 -0.29276636 -0.51797277 0.9247418 0.06612256 -0.011567413 0.37749425 -0.06338911 1.4937204 1.5392572
36 -1.5353314 0.1268919 0.7056391 0.7800493 -0.40513656 0.76320976 0.35839963 -0.20610166 1.239687 -0.14399245 0.6345042 -0.3404856 -0.35128996 0.31396136 0.28655848 0.091317765
283 -0.34213695 0.027261145 -0.69716316 1.3596042 0.3510824 1.6419966 0.6728978 1.560796 1.9889679 0.6289144 0.14183891 0.42959738 0.24250768 -1.9828247 0.77862287 -1.0076407
273 -1.5749259 1.021876 1.3375795 0.07980941 -0.08841431 1.2241555 -0.8167346 1.0065143 -0.7012423 1.1852819 0.68537706 -0.31763443 -0.30755726 -0.887927 0.46721348 -0.03202743
70 -1.1960417 -0.5226586 0.32898057 -0.6307178 -0.5546065 0.44545835 -0.8957538 -1.9080589 0.27599186 1.732541 1.3454753 -1.160798 -0.05626379 -0.64294285 -0.15872742 0.973534
294 0.7912279 -1.586147 0.8097491 -0.061178602 1.1673328 0.99033856 -1.3290795 0.15063134 0.17251563 0.43521777 0.1540285 0.1331987 -1.2456701 -1.5542217 0.4267109 0.96179026
264 -0.35070226 0.33590442 0.6754636 -0.49004993 -0.3063293 1.3059406 -0.81275034 0.29738942 -0.10590966 0.7785456 -0.120003924 -0.1209051 -0.98821765 0.061882865 -0.536747 0.4264529
285 -1.7887492 -1.9568197 1.0475261 0.41438496 0.27173895 -0.15477172 0.44935554 -0.3135545 0.8169177 -0.7261407 1.423546 0.3532409 -0.6872868 -1.0629995 -0.4362546 1.0409017
408 -1.5080427 0.3272481 1.4309415 0.29527754 -0.2456804 0.85567147 -0.48914167 0.3181579 -0.41079548 0.1429436 0.88528675 1.1155068 -0.24653824 -1.2009205 0.7435998 0.59187275
45 0.57162756 -0.25758392 -0.86193836 0.46101668 1.6497006 0.41711602 -0.813433 -0.18204544 0.882168 -0.74514496 0.82171553 -0.47372395 -0.5861598 -2.760102 -0.9241622 3.5254815
277 -1.8460763 -0.20152515 1.0063212 -0.92197883 -1.1041625 0.83312696 -0.07911782 0.83619565 -0.00343625 -0.10887552 1.1349982 0.49455997 1.0553489 -1.5348909 0.31785262 2.1602926
196 -1.7774079 -1.1849648 0.49454632 1.5896171 0.40208068 -0.47893545 0.67279404 0.7539294 -0.69667524 1.034668 -0.688793 0.7600374 0.05574438 -0.8292518 1.35935 1.5599687
100 0.20357095 -1.3266919 1.289739 0.90397614 -1.0570357 0.56947714 0.7461461 -0.048553452 2.0690835 1.0954914 -0.09601436 1.1095778 0.049139645 -0.8887954 0.035901338 -0.3392549
257 0.8912744 -2.4653883 1.6742886 2.4322388 1.0910746 0.32030877 -2.3349447 1.1427542 1.2637024 1.5138133 1.7917197 -0.28233916 -1.6744531 -0.15163629 2.4952576 1.2560456
265 0.78269064 -1.3868899 -0.05433185 0.1852334 0.045230713 1.1970484 0.38212433 0.560142 -0.15352555 -0.16792858 -0.22799177 -0.87218237 -1.0645455 -0.015768707 0.7449772 1.864136
245 1.2467684 -1.6642561 -0.2879997 0.5411221 0.53909934 1.72789 0.03194427 0.71878713 1.8294687 1.8207238 0.90994865 -0.46624774 1.0336674 -0.97441 0.8848934 0.25103873
149 -1.1216035 0.022988265 -0.17523581 1.0927873 -1.3830105 2.217081 -0.18605489 0.49737346 0.682763 -0.7914419 0.51385427 0.6166407 -0.1184525 0.8587529 0.42811432 1.0330094
241 -0.073107235 0.22289976 -1.40328 0.83254594 0.68535906 1.085393 1.2110138 1.5357035 0.26309294 1.9320982 1.4198657 0.77037245 0.7757526 -0.66948116 0.3232066 0.7990769
364 -0.6756325 0.40865296 -0.11517637 1.747759 -0.46988395 0.97851616 0.77146256 2.4147232 2.297575 0.6896484 -0.40667498 0.06100533 -0.20250535 -2.033596 0.79012316 -0.88769937
422 -0.4414999 0.4014333 0.30804634 1.4384828 -0.942335 1.0925792 2.095113 -0.10356954 -1.301132 0.38547024 0.4078965 -1.0123948 -0.67036504 -1.0494773 -0.17670912 0.7360046
147 -0.9216908 -0.609593 1.3066097 2.1678905 1.1936266 2.8216326 0.57701933 -1.7877876 0.38228393 -1.3099774 1.8194757 -1.9896897 0.77596927 -1.0225058 0.7357004 0.67944825
144 -0.5279509 0.7189401 -1.262872 1.927095 0.6539034 0.84031415 -0.15947205 0.30958107 -0.103574656 0.37085387 -0.3626486 -0.7901359 -1.095048 0.054579135 -0.5924652 1.0726589
15 -0.5222032 0.35137087 -0.8600831 2.3874693 0.46445608 1.2404418 0.60684884 -0.042176496 -0.86717415 0.42093378 -0.1125806 -0.7387772 -1.7491764 -1.0259336 -1.3359109 0.027379163
121 0.008311637 -0.7858251 -0.816896 0.12735534 0.4376141 0.5665034 -0.09751568 0.6431464 0.39062056 -0.66487825 0.18389356 -0.60377836 -1.1077825 -1.2222464 0.14886025 1.687098
32 -0.7975107 0.06331402 0.79765993 -0.9779176 -0.18240505 1.6173638 -0.81724787 -0.23407064 0.2707844 0.9361556 0.37952152 -0.9569995 -0.4872461 0.20761706 -0.7624881 0.58826715
266 -0.49307242 -0.42433923 0.33704162 0.7941489 -1.0206637 1.2846518 -0.5149738 0.845573 0.42595574 -0.5253928 0.25550383 0.18946578 0.04940425 0.74283355 0.52222484 1.264326
370 -1.0305524 -3.0349004 -0.051063903 2.533444 -2.0011146 1.1771046 -1.5847368 1.405999 0.46352315 2.4252408 1.1954099 -3.0925143 -1.0502468 0.2857086 -2.4086804 -2.219334
263 -0.82864827 -0.54913473 0.7585655 0.83471435 -1.2790278 1.0619156 -0.53044224 0.47872493 0.06328818 0.105625965 -0.15646745 -0.07454948 1.0196478 0.4455347 0.31113857 0.9699945
143 -0.81848663 0.028915482 -0.7266262 -0.81691945 -2.0475674 1.096678 -0.89177793 -0.5097391 0.37329033 1.3679644 2.471098 -0.59254557 -0.7760342 -1.590361 0.030527374 0.4133943
168 -1.3247466 0.1692353 0.5504527 0.57230103 -1.0048106 1.5913254 0.3061485 0.27823162 1.313337 -0.38851115 0.7063063 0.35796216 -0.2565745 0.54041517 0.4700978 0.4766742
253 -1.7985028 -2.198762 1.9585607 0.98404753 -0.10001782 -1.4249649 0.42624426 -0.00587228 0.8440727 -0.0151628945 2.6525242 0.5887306 -1.0797632 -0.9893884 -0.9165415 2.3486035
20 -1.9633892 -0.78569573 0.282731 2.365199 0.14634113 0.92563224 -1.0850445 1.8936423 -0.10504167 0.22735529 1.0707028 0.9769702 0.38506144 0.86820513 -1.9009032 0.627084
372 1.3549603 -1.4215455 0.09600319 -0.07172344 0.37218338 0.9450213 -0.94467217 0.260041 0.35011774 0.2811942 0.02844437 -0.12555966 -0.3677155 -0.9836886 0.2455172 1.5740584
440 -0.55952865 -0.4691289 0.76233864 0.6372175 -1.138283 0.8566829 0.8500286 0.4372902 -1.4616107 1.3414745 -0.29889536 0.7603408 -1.230498 -0.64267105 -0.43251163 0.30248806
214 -0.06608038 -0.6725452 1.1117358 0.25409633 -1.141048 0.20701623 -0.17013526 -0.32295844 1.5010116 1.0997893 -0.039004296 0.99168855 -0.7029689 -0.6636614 -0.41900674 0.06818314
406 -0.77904683 -0.29383552 -0.09718493 -0.3040121 -0.6652415 0.40222123 -1.0525105 -1.92383 -0.002756199 1.7852575 0.6836753 -0.82712626 -0.6366852 -1.0691901 0.31942144 0.5324573
400 0.63966453 0.011550965 0.81110734 -0.06208645 -0.9715941 -0.03635928 -0.861282 -0.044019967 0.27490538 1.0099888 0.71140516 0.019312449 -0.8574391 -1.3024077 -1.3808733 0.5119251
339 0.19958313 -0.08106075 -0.11494628 0.011620314 1.0710858 1.91122 0.58389395 0.68114644 0.11204665 1.7031153 0.824788 1.4903693 -0.35071534 0.57107854 -0.2126474 0.9388478
46 -0.28103316 -0.81292486 0.7271365 0.1847024 -0.78778803 0.88104874 0.10704876 -0.05388675 1.3204632 0.70522547 -0.036211535 1.0800971 -0.12425247 0.13891281 -0.096869394 0.076596744
289 0.252131 0.4911922 -1.6606811 1.1661205 0.8553686 1.6293633 0.13428149 0.44470447 1.1487104 1.189324 0.9982212 1.1244057 0.6172072 -1.5880778 0.7965566 -0.071517944
71 -2.1928623 -1.008263 -0.5979467 1.8813992 0.94302726 0.45815805 -0.73373014 1.2655418 -0.8359862 0.31828785 0.9636978 1.1976389 0.13605699 -0.014019686 -1.6043602 0.89812803
67 -1.2922957 0.28261027 -0.2077019 -0.54359275 -0.8978539 0.8886744 -0.25069943 -1.4389024 0.36613342 1.7032948 0.40675306 0.09266364 -1.8675938 -1.161415 0.6206749 -0.012211595
433 -1.8406316 -1.8500334 0.75946355 0.534155 0.04665392 -0.68876857 -0.12548615 -0.03944565 0.37031603 -0.51649237 1.3563763 0.5342886 -1.2192658 -1.3688716 -0.885452 1.1892767
319 -1.7558521 -0.5689527 1.4737787 0.79432565 -0.3443014 0.80613285 0.5774534 -0.29233396 0.77785784 -0.6510117 1.5934124 0.117571786 -0.75069386 -0.22985 0.882748 0.4900748
270 -1.3354027 0.15876102 0.48635796 1.1695911 -1.0466642 0.41702685 -0.26570812 -0.011675145 0.87199104 0.8930231 -1.2762614 0.59145826 0.28081942 0.06950413 -0.7740939 0.3822235
383 -1.1084137 -0.14623637 1.1878011 3.3823926 1.1875125 2.8189752 0.5978339 -2.4631493 0.22088756 -2.24935 2.0764625 -1.0971566 0.46752307 -0.78966194 -0.6055233 1.2866098
113 -1.9966834 -1.5029027 1.1747334 1.5025028 0.34800234 -0.7377999 1.2929348 0.5925494 -1.1410491 1.3811688 -0.59227157 0.107315026 -0.1748969 -0.8638463 0.8088757 1.7224828
328 -0.4198718 -0.49344552 -0.005275384 0.9195529 -0.37108544 -0.37122327 -0.61233246 -2.28701 0.27018094 1.7061801 1.4132131 -1.0214826 0.37793192 -0.6836629 -0.9369983 1.099182
173 -0.6029815 -0.52388245 1.7553072 2.4697974 1.1847223 2.6971078 0.6700179 -1.6855494 1.0341588 -1.3892244 1.9071822 -2.2376835 0.66830516 -0.79982346 0.501191 0.6228911
239 0.5219329 0.42950293 0.88806975 1.9111 -0.79948086 -0.56360227 -0.34350464 -0.7721133 1.6873796 1.9536526 -0.22225054 1.1369985 -2.5169125 0.13543126 0.3271817 1.4152075
65 0.29198822 0.25787368 1.2804029 0.27774963 0.88472706 1.7126417 -0.7938403 -0.22794007 -0.627873 1.1689334 -0.36792237 -0.7772508 0.04221958 -0.8312784 -0.069892004 0.035884146
361 1.257721 -2.4365993 1.4992092 1.72641 1.0378547 0.5457187 -1.8979647 0.8014124 1.0131149 1.2248144 1.2704157 -0.61672056 -1.6948016 -0.86135405 2.2754123 0.9803201
183 0.19324511 -0.76285934 0.4084398 0.35423478 0.7812615 1.4910349 -0.092079535 -0.08302226 1.0431437 1.670451 0.33084694 2.044171 -0.33799475 1.2351848 -0.6508573 2.09501
429 -0.537538 0.040545445 -0.38309047 1.7055355 -1.7491026 1.9481608 -0.8312163 -0.017777978 -0.38253158 -0.4158471 -0.008047863 1.4972306 0.05812135 -0.200151 0.77377355 0.9636609
240 -0.73596764 -0.12985359 0.8629056 0.9670751 -1.558931 0.4913303 -0.4680456 0.1687427 0.029606951 0.2844719 -0.07279659 -0.1508805 0.89794147 0.07122068 0.6386349 0.9901622
445 0.6925531 -0.30601245 1.4896041 0.5145539 0.029024305 1.1902863 0.37458387 -0.1208357 -0.6726464 0.8185515 -0.5962438 -1.033869 -0.13708481 -0.02131282 0.37200195 1.0880778
235 0.84486765 -1.1461174 -0.35061333 0.51211023 0.6765357 1.8992268 0.17447008 1.2851263 1.4063127 2.0306666 0.93034744 -0.43970045 1.129412 -0.55801445 0.8197806 0.31599283
366 -0.82812643 -1.8372198 -2.6647253 1.3882886 -0.17278253 0.5276381 0.88566726 -0.7451325 -0.043601673 0.7892562 -1.3413496 -1.5007612 0.68518144 -1.6108384 0.6585359 2.453429
171 -0.5672216 -1.313429 -2.0678253 1.205678 0.101640776 0.5113022 0.1857978 -0.40666196 0.049917337 0.67291075 -0.9068281 -1.423269 0.16550212 -0.5158001 0.3046296 1.7293866
40 0.87688494 -2.0314336 -0.3961625 0.32529852 -0.63662696 0.89974654 1.0788589 -0.17581473 -0.0148491245 -0.23395272 -0.6163407 -0.7725978 -1.9363102 -0.8251279 -0.04533848 1.252905
286 -0.98524106 -0.15836369 -0.5453275 -0.7342066 0.19335842 1.4046569 -0.034685172 -1.5187204 0.92911893 1.8589504 -0.68907845 0.672378 -0.9085183 0.33240342 0.49133846 1.2980053
23 -0.20891643 0.7578522 -1.0365521 1.1581895 0.7435066 0.6178118 -0.49379143 -1.6027191 0.82434285 1.7233058 0.62336063 0.24987262 0.98630446 -1.3492658 -0.39608097 0.45552182
378 -0.6744297 0.65611255 0.74751234 1.061452 -1.1871387 0.68367946 1.1201146 -0.4748717 -0.08424336 0.71064043 0.37569827 -0.47616088 0.024677576 -0.064412095 -0.48716998 0.2817863
77 -1.765211 0.021619644 1.1295291 0.8815621 -0.675172 1.2625914 0.7605839 -0.26970384 1.3235077 -0.5334069 1.2127548 0.24474865 -0.5378871 0.2934002 0.7964303 0.7549948
275 -0.51568395 0.6857684 -0.89460516 1.3128552 0.96910465 1.2092223 -0.7268242 -2.0516737 0.9347966 2.1047902 0.6579447 0.30429745 1.0418421 -1.3676994 -0.3959795 0.30081037
43 0.14078005 0.56140304 0.20973872 0.8670984 -0.12855406 -0.48747844 -0.08905665 -0.06738158 1.1251998 3.19481 0.2585389 1.0155447 -1.4105744 1.1524806 -0.76642513 3.0141466
195 0.44436565 0.8659435 1.198609 1.4924598 -1.3146386 0.7418366 0.9630829 -0.31037062 -0.85653377 1.2674929 0.2914595 -0.5867588 0.25797117 -0.4452365 0.69985497 1.151697
371 0.002318321 -0.7626744 0.49977985 -0.19980283 1.445859 0.4670117 -0.8446296 0.87443465 1.4265714 -0.29079774 0.37477943 -0.42928135 -0.72154355 -1.6718374 -1.1090521 1.7710302
61 -0.28242162 0.19144447 -1.0903876 2.3256512 0.77635807 1.3109996 0.12567 0.2790719 -0.58600605 0.19300233 -0.14024949 -0.79314524 -1.7325459 -0.7139783 -1.0904226 0.22242154
238 -1.129001 -0.37598252 0.28785625 0.16528907 -0.24927975 -0.011508494 -0.92429024 -2.126964 0.12839398 1.8531343 1.577887 -1.3195403 0.35701168 -0.5677233 -0.224062 1.3804271
447 -1.4744649 -1.5436531 -0.56359273 0.46745974 0.103766255 -0.12573425 -0.3767792 0.23764138 0.52916056 -0.70691246 0.75256544 0.13880455 -1.440406 -1.1509906 -1.4957844 1.1593207
93 -0.0009230218 -1.2776558 0.332272 0.94827473 0.8425752 0.8529098 0.9802188 0.8964653 2.6042578 1.9223834 0.23225532 0.16313294 1.3242893 -1.0045327 -0.1962868 -0.17992744
446 -0.54770863 0.25973126 -0.18813756 1.3091009 -0.44130814 1.3229494 1.1905212 0.25731644 -1.3411851 0.34364194 -0.3123925 -0.37754065 -1.7750237 -1.2773081 -1.2639567 0.11074257
337 -0.34259188 -0.35096735 0.21083209 1.5449111 -1.6724396 1.2743392 -0.6828588 -0.109406956 -0.68744797 -0.23421584 -0.09451015 1.9242264 -0.1536626 -0.8414612 1.1498071 1.4233696
185 0.37126032 -1.4905772 1.4279848 0.86214864 -1.6083648 0.19925697 0.5540416 -0.3357701 1.9627419 1.0183375 -0.18816096 1.3112775 -0.29485396 -1.2856458 0.09485818 0.0145807015
14 -0.9055544 -0.6704935 -0.7936616 -0.85803986 -1.7246308 1.3007072 -1.5382751 -1.3804854 0.46791008 1.249414 2.271543 -0.9101258 -0.76440823 -1.6819124 -0.2381546 0.36946148
254 -0.6370604 -1.346636 -2.33277 1.258126 0.10938893 0.62289894 0.50220644 -0.5109035 0.24528296 0.5725723 -0.95225334 -1.7402762 0.39198428 -0.9110168 0.31879652 2.056641
404 -1.2248732 0.19684197 -0.020730272 -0.07227098 -0.8145442 0.47436988 -0.40576607 -1.6590635 -0.24602073 1.8992499 0.7911057 -0.11494049 -1.6072469 -1.2958767 0.47100982 -0.050093863
6 0.65575194 0.35872555 1.3198557 0.5008635 0.28188288 1.5712138 0.42358333 -0.33691835 -0.34142148 0.9189831 -0.4548953 -0.9777729 -0.33122173 -0.28582284 0.41033944 0.54398245
242 -1.5540069 0.43253326 0.5260239 0.7117239 0.50051457 1.1218227 0.17033695 0.20686364 0.69167864 0.07542977 0.9379622 -1.5069264 -0.17767504 0.1794502 0.64753556 0.3686921
251 0.66172534 -1.3045948 1.0986739 1.0406241 -1.3679075 0.00942751 0.32090473 -0.7092404 1.7835832 1.3239603 -0.09694614 1.141341 -0.66337377 -0.77253944 0.09041243 0.100192346
225 1.3256242 -2.0297422 1.3143504 1.0270612 1.1417363 0.9586948 -1.5331008 0.5284342 0.0067291562 0.6618283 0.62197596 -0.2807041 -1.4995888 -1.0705092 1.3861778 0.84871197
229 -1.0243412 0.33216214 -0.5427744 -0.48570567 -1.64705 0.96470153 -0.028897522 -1.0753849 0.1134524 2.071688 1.6470712 0.25683242 -1.39299 -1.2389623 0.627087 -0.09405057
409 -0.20415154 0.766673 -0.29300722 0.52475035 -0.4567745 -0.0920468 0.8241019 2.1179185 1.3838073 1.8309834 1.0041488 -0.5649597 -0.014254067 -1.7398242 0.02146056 0.35341862
281 -0.53860265 1.0449494 -0.93652695 2.151187 -0.5013061 0.82624054 -0.7354255 -0.80390996 -0.18029626 0.012668267 -0.74318814 -0.36438364 -0.62269413 -0.6313509 -1.0581126 0.7783773
313 -0.419378 -0.6840806 -1.8842318 0.47140437 0.1507932 0.6736799 -0.7352458 0.20664483 0.5170331 -0.339113 -1.0330523 -2.0263891 -0.94172925 -2.4393241 0.4495112 2.226155
203 -0.56226593 0.49801263 0.7559195 0.24269022 -1.2246567 0.67603904 0.75137913 0.36995772 -0.92212594 1.0061675 -0.53838605 -0.6374625 -0.35642353 -0.73551905 -0.71477556 0.70172596
114 -0.23606831 -0.19108167 0.46512115 0.032483228 -0.87072974 1.1916964 -0.54385275 0.42205542 -0.8193735 0.5002838 -0.13224246 0.94914544 -0.81644154 0.07833223 -0.16238432 0.7572262
271 -1.9278167 -1.0895432 0.07745524 3.0715764 0.06904077 0.8822625 -1.418042 2.2637773 -0.41290462 0.5003972 1.8339951 1.2725375 0.15064718 0.90034837 -1.9615833 0.40509328
267 -0.537571 -0.66874486 -1.1823705 0.2575142 0.34511214 0.7757588 -1.1808902 0.86539096 0.6281159 -0.837803 -0.6214969 -1.1157107 -1.4676467 -2.2846446 -0.1512351 1.3429143
444 -0.24406555 0.29299012 -0.6076259 2.6535802 0.4321858 1.4111432 1.1693622 -0.24260102 -0.7366188 0.0058462047 -0.32556784 -1.0424072 -1.996926 -1.2119223 -1.3624038 0.24491058
416 -1.1252683 0.18666932 1.1264291 1.1555144 -0.60148364 -0.06101526 0.84717286 -0.21749409 -0.6251714 0.9071825 -0.13880166 -0.56282127 0.07082083 -0.5194784 -0.44703674 0.33493176
189 -0.80372804 -3.0293884 0.19177724 2.640428 -2.3948448 1.4093804 -2.0624273 1.4621564 0.18132082 1.9250004 1.6600018 -2.730451 -1.292441 0.12222526 -1.8535556 -2.1829958
442 -0.4937617 -1.4833947 -1.9095525 1.3386401 -0.10974333 0.78309566 0.5995109 0.15690677 -0.31347412 0.98282456 -0.98085433 -2.5473723 0.87628573 -0.8405991 -0.62477756 1.8079714
346 -1.0334489 -0.38151693 0.98854935 1.0252329 -0.6774534 0.79449695 0.7759803 0.32528353 -0.8176642 0.8029685 -1.0975633 0.5800426 -1.2567827 -0.4914912 -0.69882435 -0.029304292
89 -0.78173286 -3.131172 0.1281308 2.5050824 -2.271569 1.0857363 -1.8771539 1.3772323 0.52875584 2.3426502 1.5761509 -2.9272764 -1.0130644 0.44747227 -1.9668179 -1.9888726
411 -0.38882434 0.8343554 -0.046161693 1.3963867 -1.0378076 0.22243096 0.7735144 2.6144798 1.9931315 0.76171917 0.34048823 -0.48934203 -0.33735397 -1.910412 0.4297806 -0.16039018
395 -0.30376062 -4.1237407 -0.6438749 1.722475 -1.3933132 0.95754045 -1.4717681 1.5406337 0.10179288 2.402367 1.470617 -1.7411302 -1.2197291 1.2404182 -1.9023603 -0.60577196
156 -0.61670077 0.19882046 0.99689835 0.30513725 1.9537193 1.3974103 -0.92924136 -0.9330708 -0.12384899 1.7846919 -0.30906603 -0.3733455 0.23443136 -1.3775097 -0.19951849 -0.29384434
132 1.3365426 -0.46495622 1.7601613 1.0332901 1.2697479 2.4125412 -0.9325641 -0.31830278 -0.8723158 1.3098702 -0.17030977 -0.32993054 0.85493636 -1.5010791 -1.0563263 0.34432217
425 0.64343655 0.35337436 1.2985682 0.21597008 -0.6956686 -0.02702109 -0.48613736 0.08860681 0.37054947 1.3714162 0.7557389 0.055540744 -0.9667229 -1.4780012 -1.5551783 0.2386383
79 1.763441 -1.1163787 0.5975318 0.21880949 -0.80295134 0.93592006 -0.37793833 0.5288344 1.1815938 -0.13433418 -1.2953538 -0.1440829 -0.53377223 -1.1183022 -0.593336 1.9863493
348 0.9872476 -1.0402707 1.175721 0.585846 0.340737 1.1005056 0.17672874 0.3495909 -0.41113654 0.39874384 -0.35747474 -1.2852081 -0.67542315 0.15956946 0.96961373 1.7186568
208 -0.37129298 -0.20764704 -0.7989485 -0.36147588 -2.6932578 1.4858248 -1.3309139 -1.018404 0.2792471 2.3472652 1.9126292 0.2539242 -0.39462242 -1.6563265 -0.21023852 -0.33286226
308 1.9065478 -1.3699942 -0.43463704 -0.2759118 -1.1787347 3.3786104 1.5912855 -0.76541173 0.49752074 0.42411622 1.563642 -0.46967995 -1.004321 0.14497812 -1.5830357 0.90890336
224 0.18712452 1.1009198 0.86809486 1.4126692 -1.3782903 0.8909009 1.6008519 -0.37290603 -0.7386968 1.9034778 0.54772776 -1.1026766 0.1455695 -0.66116947 0.1487982 0.7729984
74 0.03317615 -0.28650478 -0.69497603 -0.17511195 -2.8041096 1.3763944 -1.6326442 -1.2612084 0.28500265 2.3442986 2.2154477 -0.02095105 -0.20382945 -1.8463756 -0.413983 -0.12949288
207 -0.81725544 -3.3591392 -0.3317134 2.181492 -1.778381 1.035004 -1.4304239 1.6162002 0.11721187 2.238245 1.3907847 -2.6233683 -1.2838827 0.71706 -2.0784872 -1.5685613
426 -0.7106098 0.6606885 0.3389892 -0.5713563 0.48281828 1.012375 -0.53792614 -0.41525567 0.43589333 1.1992707 -0.47002253 -0.3067578 -0.8545032 -0.088142626 -0.5382391 0.7492101
272 -1.2210301 0.36267868 0.24133724 1.6894716 -1.9672879 0.6057506 -1.514291 -0.16548106 0.48532408 0.86799836 -1.1972111 1.1990883 0.5245837 -0.45042637 -0.06546809 0.6169628
310 1.9846253 -1.2569268 -0.10485029 -0.16516073 -1.1970239 3.4801521 1.7613744 -0.99411786 0.8944744 0.77986556 1.5649247 -0.6960712 -0.67487264 -0.11961392 -1.7216337 0.504033
373 -0.6750457 -0.19995053 0.45919132 1.9414121 0.6040499 2.5401392 0.3531606 -1.5000384 -0.04708932 -1.3904979 1.9679707 -1.8345362 0.98480237 -1.4907117 0.5120119 0.71870476
399 -1.5547837 -0.1273144 1.2588761 0.42811382 -1.5358661 1.9651228 0.20911305 0.1259451 0.83044267 0.06575006 0.35800397 0.9990574 0.26053992 0.1054703 0.52293074 0.30494702
357 -0.28612602 -1.0912423 0.6806583 -0.5817023 1.142973 1.1718264 -1.1177754 -0.49687192 -0.07673629 0.5832126 -0.59826165 0.21692517 -0.5499432 -1.6725098 0.27736783 0.3768329
97 -0.7777713 -0.13872899 0.6637859 2.6774697 1.0374115 2.754664 0.74798924 -1.799454 0.12667567 -1.9594916 2.2727575 -1.7123498 0.54326826 -1.144824 0.37355098 1.3847831
31 0.48915613 -0.02339674 -0.42878214 0.06878474 1.2040168 0.4727831 -1.1357467 0.76231796 0.90592176 -0.53470236 0.5587243 -0.43229654 -0.83278 -2.1695917 -1.0828325 2.852773
374 -0.76437604 0.8207648 0.25087425 2.102133 -0.5033371 1.022385 0.4993646 -0.3134896 -0.14637391 -0.11668919 -0.9473536 0.22890247 -1.4442737 -1.3848262 -1.7547642 -0.2141085
115 -0.21340361 -0.40157697 0.090198316 0.5196036 -0.20236991 0.85684097 -0.088202834 -1.4993795 -0.58279616 0.25125083 0.8872229 -1.4194146 0.75581026 -1.5260324 0.06811326 0.53503704
160 -0.87288207 -0.9433837 1.0254138 1.3749776 -1.5850109 0.35814443 0.31257445 0.18504116 -1.3469462 0.14012882 0.008657065 1.4678059 -0.6445131 -1.4948957 1.5016556 1.4022379
82 -1.0634451 0.015545278 1.693036 -1.0275335 -0.55287343 2.1205356 -0.17193995 0.5150653 -0.32232648 0.5149603 0.8471767 0.5315287 1.4604063 -0.46364838 -0.6267295 1.9458393
21 0.42089003 0.2039741 1.2618911 1.1994627 -0.50829446 0.86029184 1.2241813 -0.20188147 -1.1170669 1.1262513 -0.13039449 -0.7772616 -0.05177612 -0.2991909 0.4224018 1.124173
414 1.3519439 -0.1355576 1.3295182 0.73797685 0.19711554 1.847424 -0.20792805 0.913828 0.31668052 0.15244319 -0.84779155 0.6039515 0.6069949 -1.7220632 -1.6360168 0.93033457
350 1.017629 1.0854346 -0.7119859 1.2855936 -0.72999907 2.171761 1.4781562 -1.2950174 1.6570652 0.112797275 0.92191553 -1.0018377 0.2113621 -0.42264515 -1.1482247 1.1836184
301 0.3733772 0.37370893 -1.9014784 1.2555915 0.7490628 1.2342052 -0.34632212 -0.9267875 1.16802 1.6361198 1.2842894 0.8931114 0.8992949 -2.1399262 0.30657005 0.029385896
288 -0.11825274 -0.28584546 -0.12829344 0.0015480487 0.4965291 1.4220655 0.17423509 0.25399226 0.51653355 1.9282846 0.55115354 1.7482617 -0.43854278 0.800284 -0.40726185 1.1525289
387 -0.17657326 -0.5777617 0.31771055 0.1388094 0.51896966 1.191033 -0.08120462 0.088128716 0.89504784 1.7977579 0.01450116 1.8791223 -0.32336247 1.043744 -0.5661867 1.7587217
394 -1.3747774 -0.08597782 1.5740649 1.1822925 -1.3464563 1.8135164 -0.19910015 0.075363144 -0.02194104 -0.10550915 -0.046687327 1.1862165 -0.083807215 -0.32238388 1.073618 0.4963638
314 -0.7269678 -0.4791052 -0.0009828683 1.4812938 0.9311618 -0.08501284 0.9427875 1.2046442 2.011538 2.360241 0.78991884 0.6398144 2.0876377 -1.2988646 -0.45852047 0.75735754
157 -1.0126481 -0.11170397 1.2455739 0.652987 -0.81530565 1.4551598 -0.8018271 0.45513645 -0.1949556 -0.07521635 0.23517616 1.5540118 -0.13280083 -0.47110805 1.1321111 0.84163463
177 -1.7202029 -0.73557156 0.7710923 1.1052532 -0.61454946 1.0862585 -0.67325705 0.963056 -0.22477612 0.18269566 0.034100305 0.26639122 0.5928401 0.6701467 -0.64094585 0.4045766
59 1.1973802 -0.47929853 1.7306974 0.5512742 0.35226712 2.3655407 -0.6467949 0.30094954 -1.0356106 0.85270387 -0.43667918 -0.42789474 0.6568203 -0.87945336 -1.6470674 0.9581866
247 0.05261954 0.15364186 -0.70017433 2.1700766 1.1169208 1.4917227 -0.3331926 0.17161252 -0.9353205 0.48635662 0.18447441 -0.19658148 -1.6926218 -0.708831 -0.894182 -0.33158153
258 -1.4227775 -0.68553424 1.03378 0.95274055 -0.95633703 1.0398982 -0.56009454 0.5809954 -0.03346149 0.16335393 -0.034346413 0.046216056 0.8386817 0.55079967 -0.17889361 0.60873276
166 -0.6923328 -0.31454504 -1.3446057 1.6557775 0.07349287 0.6893143 -0.07714954 -0.13449216 0.0115474975 0.36454213 -1.1373138 -1.1544633 0.7529915 -0.09052484 -0.72557557 1.4617008
75 -0.6579857 -0.8762063 -0.40967044 1.3084135 -0.9425181 1.5220996 2.0681074 -0.12540856 -0.08745622 2.1397943 -1.3683534 1.9528868 -0.9804864 -0.6887496 -1.3343202 0.15628766
290 -0.71320796 -1.1192563 -1.240335 0.27603793 0.706506 0.50084466 -0.52384114 0.67321134 0.5385318 -0.8316507 0.04613102 -0.9195896 -1.4048344 -1.8928752 -0.5613877 1.3515888
215 0.21163124 0.27421907 -0.16133323 0.7531716 -0.5426147 0.74042034 0.78835166 -1.4421537 -0.6423964 0.5035652 0.5825841 -1.3525507 0.8826641 -1.8131721 -0.23602633 1.0067043
60 -0.5898297 0.3458304 -0.8268538 1.7088683 -1.2780081 2.2255774 -0.46581203 -0.2085435 -0.09786889 -0.62566435 -0.11261737 0.68795127 -0.14997996 0.38572952 0.6598821 0.9739802
109 -0.56831205 -0.64857787 -0.09986785 -0.8546073 0.4197042 1.4245212 -0.73363006 -0.9950798 0.41427207 0.8133176 -0.5587285 0.72079813 -0.931907 -1.2128646 0.13262782 0.1559438
309 -1.0278583 -0.2881366 1.0373638 0.8545646 -1.5290829 0.7982371 -0.9722132 0.37083015 -0.4554612 0.1896533 -0.011696629 0.40700155 0.7668317 -0.14287157 0.3269087 0.98066264
181 -0.4047767 0.024604008 -0.056791224 1.7551936 -0.51711637 1.5139439 1.8277353 -0.2860521 -1.4489207 0.2174671 -0.044833913 -1.2953109 -1.3637673 -1.4213852 -0.9177609 0.20337337
382 -0.6768767 -0.6686367 -0.41122335 -1.0284518 -0.45352337 1.5871918 -1.0692594 -1.152158 0.29600397 0.8524999 -0.14860761 0.7298908 -0.765719 -1.1497384 0.2971958 0.20760311
302 -1.2844012 -0.9870979 -0.8485364 0.9445534 0.26803508 0.21110402 -0.06719738 0.11928068 0.8251567 -0.87200195 -0.17295513 -0.20962816 -1.6573217 -0.93017256 -1.1986694 1.0331739
392 -1.0253022 0.23798822 -0.47798085 -0.9626399 -0.1344197 1.4146017 -0.19972265 -1.632385 0.94720495 1.6881555 -0.45525518 0.5565345 -1.3622193 -0.45384663 0.49422696 1.0650607
369 0.17452787 -0.6275464 0.018364727 -0.099696435 -0.7532131 1.4760683 -0.030458402 0.44980395 -0.41363785 0.95013595 0.2118807 1.4031545 -0.8615454 0.61549264 -0.37436578 1.1228098
423 -0.056620322 -0.54699653 -1.1697266 -0.025935821 0.8422497 0.9547792 -0.42933965 0.3897689 0.64738274 -1.0066572 0.1894582 -0.8997482 -0.8221129 -1.9968046 -0.4495214 2.126727
124 1.0712484 -2.0777795 -0.47324216 0.5499702 -0.12953913 1.4095832 1.0004586 0.2647049 0.093721606 -0.1513803 -0.3412658 -0.9813413 -2.0595908 -0.21970935 0.79460645 1.8988755
259 0.93334854 -1.0561103 0.17088775 -0.12511708 0.8351424 0.6370209 -1.6374956 0.61223173 0.31728408 0.18755116 0.18925086 0.16792047 -0.918598 -1.4574531 -0.6511902 1.9625267
332 -2.294315 -1.0036572 -0.48741534 1.1380454 0.43844157 -0.4424127 -0.1405053 1.0411788 -0.4730867 1.2670072 -0.4875401 1.2560799 -0.11203483 -0.8875062 0.5581062 1.0438893
145 -0.46343508 0.22309344 -1.9444512 2.2425685 0.51731527 0.93354696 -0.5251515 -0.10944773 -0.24835831 0.6760109 -0.38604003 -1.1584829 -0.98924404 0.2828711 -0.3777106 1.510808
133 -2.453764 -0.61076957 -0.40441787 1.21979 0.6246508 -0.028429592 -0.4937429 1.0776081 -0.47220737 0.84242445 0.097459204 1.4015248 -0.43379015 -0.4833474 -0.82595825 0.8871761
261 -0.4648817 0.409428 -1.2047408 1.8785422 0.22303165 1.0342635 -0.643589 -0.06826158 0.047086895 0.29931882 -0.9845373 -0.8482189 -0.04453978 0.034346074 -0.79052836 1.0189344
202 -0.82949436 -0.018819246 -1.3201655 1.3270416 0.4912909 0.9414823 1.4718436 1.7052132 0.40820926 1.6877097 1.5302731 0.23107691 1.0058658 0.06083089 0.55214864 1.1230854
69 -0.52748567 -1.588827 -2.2647386 1.3830737 -0.0201322 0.63078713 0.86167413 0.027595088 0.104252465 0.8493946 -0.9468636 -2.1369221 0.7338128 -0.96551543 -0.15269287 1.8906775
81 -0.4129664 -0.4899687 0.2717222 0.5935007 -1.0632498 1.175375 1.3708827 0.5844449 -1.4518355 1.6510876 -0.48283082 1.0992863 -1.1789582 -1.0076663 -1.2906115 0.28321716
180 -1.280511 -0.111530185 -0.5172085 -0.0028412614 -2.2360177 0.14906377 -0.13873127 1.2665957 -0.44981727 -0.015169211 0.93773913 -0.24485743 1.1232456 -1.1329658 -0.045195203 1.979084
274 -0.4625529 -1.2405447 0.15745108 1.3070314 0.95495397 0.6434488 0.7669613 0.61773264 2.2487571 2.046845 0.04053769 0.01906164 2.025578 -0.71991026 -0.10996766 0.10225112
200 -0.53158873 -1.1462815 -0.16689166 0.6457633 0.7797393 0.74632496 0.67073375 0.7311178 1.7921761 1.4341288 0.07422061 -0.987102 1.4665327 -0.13441522 0.07780391 0.37946302
78 -2.2304382 -0.070691764 0.54911697 -0.89022774 -1.3357474 0.43880194 -0.020813933 1.2117794 -0.039931223 -0.11741288 1.3296815 0.2502506 0.9215953 -1.8638338 0.36452758 2.8231642
152 -0.37969437 -0.41317478 0.3772301 1.1901846 0.048435707 1.3540087 0.9640337 1.6551399 2.0630257 0.9844157 -0.026077908 0.581121 -0.03189101 -1.7683705 0.5007848 -1.2705034
73 -1.2253056 -0.5183062 -0.7241589 0.4980158 0.26577336 0.51258165 0.63367474 0.76247203 1.2843441 0.9057302 -0.2752889 -1.5264863 1.2435126 0.07247523 0.034431446 0.9391414
345 -0.7091685 -0.17417586 -0.11315258 -0.081059135 0.40032202 1.2480196 -0.102219954 -1.2608668 1.1396463 2.1986108 -0.6102604 0.8593078 -0.9019628 1.3253428 0.030626686 1.6891438
280 -1.6149164 0.037697673 -0.32667992 0.67137104 0.59604466 0.52383626 0.51671994 0.59475166 1.005921 0.8994509 0.38948742 -1.6364217 0.77315295 0.06346953 0.9104006 0.9246866
25 -1.2896911 -0.6868099 -0.902485 0.80482876 0.9206157 0.03816243 -0.15736611 0.47312057 0.8788648 -0.47651383 0.94686323 -0.49111602 -1.6088006 -0.93504596 -1.1509548 1.1649997
305 -1.7138243 -1.6360316 1.1987672 1.6893297 0.71367484 -0.30421507 1.0382733 0.8900873 -1.2798175 1.4318722 -0.80180377 0.6418549 -0.1268041 -0.5388578 1.0724237 1.9005729
341 0.5040851 -1.1825075 0.02554873 0.33812076 -0.42584625 1.1566303 -0.387035 0.6487299 0.54768574 -0.41174543 0.023854492 -0.054788243 -0.55282474 0.26094553 0.9602058 1.6363709
137 -1.6036536 0.047826447 0.4655442 1.0650045 -1.3331721 1.7849278 0.31833294 0.22597387 1.7749504 -0.6753799 1.2655966 0.5939118 -0.46157736 0.74273896 0.58780706 0.9658162
174 -1.5898906 0.8796986 1.3040882 0.099199064 0.76824445 2.7774198 3.001617 -0.14058308 1.9421811 0.37583077 -0.9988442 -2.861427 -1.6151713 -1.5046891 2.0577838 1.8570621
418 -0.35252053 -0.07964646 1.0916352 -0.54585713 0.75193626 2.2072306 0.2339533 0.3702929 -0.22047226 1.430499 0.5372963 1.1550809 0.12671413 0.74613583 -0.62814146 1.3182653
390 -0.69749874 0.36315584 1.1504434 -0.9649676 0.3114366 2.4428298 -0.42233932 0.197545 -0.22001715 1.0352181 0.28106022 0.56044734 0.6097138 0.085110396 -0.4525799 1.139965
351 0.7805702 -1.4366608 0.92072964 -0.17790808 1.3458105 0.5142939 -1.0889376 0.461045 0.92102087 0.54302275 0.6132007 -0.08998822 -0.866856 -1.9063092 -0.118650846 1.3603194
118 -0.22782508 -1.271848 0.6422384 1.0521907 -0.2012222 0.81199783 1.1140773 0.7006789 2.3629634 1.255499 0.006656844 0.5839133 0.375963 -1.2229942 0.11503466 -0.99974537
193 -0.5800116 -0.7770537 1.3574836 -0.054567855 1.7723536 1.0585481 -1.2080058 -0.77469945 -0.23250614 1.3207333 -0.5113285 0.050125755 0.29340598 -2.3919296 -0.06175749 -0.023996368
18 1.5557461 -0.24473469 1.545 0.8559783 -1.1265148 0.90944093 -0.67600316 0.972273 2.3096738 -0.53140587 -1.9259601 -0.1949842 -0.2573301 -1.9425118 -1.4104733 2.1073947
68 0.5540703 -0.1293655 1.0957495 0.47730154 0.35470185 0.7833073 -0.25222945 0.86622167 1.6721755 -0.437178 -0.67362195 0.21315125 0.43847683 -1.6397251 -1.5182335 1.5290862
315 -0.36659688 -0.95948833 0.10786738 0.5652356 0.035950597 1.2852203 0.72041345 -0.25911045 0.25809637 2.0273378 -0.8008572 1.762011 -0.29860294 0.525745 -0.7464333 0.5691438
42 -0.8156245 -0.82856166 0.7710353 1.4211259 -0.21131115 0.9222602 1.6075928 0.14848234 -0.37647063 1.5372473 -1.6222551 1.2042207 -0.94676024 -0.3471732 -0.5922886 0.19065776
63 0.07782651 -0.122421235 0.31637302 1.0984678 -1.0490687 1.0509804 1.9582822 0.32097745 -1.1316206 0.2632828 0.49107105 -0.79497033 -1.6978242 -0.9076796 0.10514918 0.77609414
279 -1.7913266 0.21616918 0.84408844 0.8485354 -0.52416575 0.027981754 -0.2655352 0.2589314 0.10147684 1.1002914 -1.1981517 0.20467466 -0.113593675 -0.13910381 -0.43360558 0.53045076
243 -1.5489088 0.90639687 1.2540631 0.25705191 1.021705 2.7520163 2.8468645 -0.08894836 2.0546124 0.34699738 -1.1888102 -2.8076668 -1.500571 -1.3491104 1.9918501 1.8820292
167 -0.44951794 0.9289906 0.18117109 2.8177485 0.005878864 1.5907216 0.3080312 -0.4600535 0.111861624 -0.10491858 -1.2619663 -0.49018496 -1.0788364 -1.247081 -1.6803428 -0.2519174
125 -0.6576539 0.051889803 0.0042642346 0.6908153 -0.8964208 0.8644307 0.93703365 0.41233733 -1.5427845 1.1266246 -0.7387887 -0.013407538 -1.186763 -1.0202893 -0.99826604 0.5050537
244 -1.2707845 0.639823 -0.5746433 -0.90831745 -0.09645263 1.2928718 -0.4950248 -1.514016 0.7212588 1.7726258 -0.3905933 0.68021834 -1.6905787 -0.98698235 0.74679476 1.0672145
410 0.3689117 -1.5150857 0.8890795 1.1347365 -1.914124 0.37395826 0.8896296 -0.7922287 1.6466918 1.568941 -1.0063446 1.2587563 -0.65463066 -1.1011604 -0.0946504 -0.13070081
437 -2.1233573 -0.364753 -0.0056947186 -0.7042313 -1.521643 0.5226029 -0.14716874 1.5170572 -0.28106686 -0.20139788 1.058532 0.20568955 1.1344206 -1.6215694 0.16471487 2.6059542
161 0.24035527 0.55518425 -0.73543864 1.2205479 -0.9598015 0.39756054 -0.039583817 -1.4401033 -0.047456387 0.67420673 0.24727385 -1.3499913 1.1826253 -1.647131 -0.54957837 1.1125194
284 0.6740708 0.8510665 -0.73000956 1.2475308 -0.44505116 1.118246 0.68495345 -1.5980835 1.0406953 0.45957947 0.5177408 -0.8766882 0.6096864 -0.52396816 -1.292678 1.2990437
276 0.44382802 1.048326 0.8856686 0.38383943 -0.62611574 -0.4260621 0.66767085 1.6930485 1.6476529 2.1101658 1.1404327 -0.66520715 -0.4728549 -2.0280442 -0.7027793 0.49156192
104 -1.5220248 0.32746875 0.35918304 -0.7772443 -0.5330135 0.9012346 -0.5296207 -1.0458314 0.58013505 1.0518297 0.24866508 -0.51707405 -0.655151 0.19019358 -0.61947876 0.73997355
140 -1.2520858 0.19356717 -0.87954766 -0.7057786 -2.3539512 1.119419 0.06717776 -0.49778873 0.46427009 1.6208413 2.6568515 -0.408643 -1.2396333 -1.2844119 0.46789783 0.22171468
11 -2.0116208 0.0038390737 0.8856233 0.81350213 -1.2872906 1.9625666 0.39816967 -0.1730884 1.3751819 -0.34949073 0.94474155 0.6545775 -0.15542987 0.33009088 0.73538744 0.5073066
131 -1.9757217 1.02889 1.6434863 0.7701875 -0.4928463 0.7359952 -0.6272613 0.73346597 -0.48336127 1.2125338 0.11663236 -0.52990645 -0.21262375 -0.89635724 0.18038402 -0.29570195
172 -0.36048502 1.3071443 -0.7206025 1.1932853 0.44856572 0.6668762 -0.42793626 0.3566584 0.76433337 0.6625375 -0.06809185 -0.7286993 -1.2001283 0.41623914 -0.74663 0.978019
130 0.36883506 -0.14082159 1.2549103 0.054395597 0.17422722 1.6074505 -0.45010045 0.23240669 -0.5608633 0.925533 -0.7796496 -0.8464224 0.1988329 0.011758397 -0.5633237 0.8577403
194 -0.9999205 -0.6421138 1.3162496 1.9891553 1.1273117 1.8929044 0.20803253 -1.0840492 0.7960359 -0.6985958 1.6634444 -1.8195192 0.20377107 -0.33597225 1.0589453 0.2666425
7 0.972955 0.33211884 1.3569324 0.47072458 0.11426686 2.5118904 1.0577651 -0.7793819 0.8270817 0.7785921 -0.47018906 -1.5738399 -0.6703948 -0.6637783 0.95255625 0.29731372
55 -1.4275103 -0.023868848 0.46556276 -0.9841105 -0.4862853 0.9406729 -0.5596734 -0.9419832 0.47555953 1.3323737 0.8745546 -1.0269177 -0.45960984 0.17484875 -0.6889492 0.6491533
335 1.614737 -2.0711615 -0.040222615 0.1470251 0.276184 1.1512738 -0.5526655 0.84171665 1.2603874 0.9803585 0.76986015 0.089938104 0.096950084 -1.4820588 0.668848 0.82653797
228 -0.5759188 0.3377547 0.16554707 1.84828 -0.9284387 0.6420305 0.7846409 2.7074044 2.420732 0.55546594 -0.23220816 -0.5904872 -0.53620476 -2.0953643 0.6548692 -0.76589566
38 -0.12692131 0.9923182 0.015145611 0.2831556 -1.0034019 0.033345755 0.96623653 2.4254384 1.597112 1.869639 0.7717567 -1.0190696 -0.31728813 -2.0703125 -0.3773656 0.32350895
219 -1.1310502 0.7900356 1.4827355 0.05493607 0.7440809 3.2259622 2.4707499 -0.44065523 1.5827751 0.8059564 -1.4889692 -2.5534217 -1.270774 -1.0031105 1.8203659 1.7297103
256 0.36850855 -0.17691329 -0.6142515 0.20945932 0.98786736 1.666385 0.8778055 1.3729116 0.21956152 1.7005813 1.3150866 0.84449077 0.33565345 -0.063990645 -0.04876745 0.6226292
164 -1.2421292 0.59564036 -0.43476525 -0.63110673 -0.22552733 1.0443506 -0.23582001 -1.5230224 0.78787524 1.7058089 0.09273412 0.6128466 -1.8603672 -1.1223416 0.52512044 0.29730088
197 -0.9458187 0.12766182 -1.1832204 2.0470207 -0.0914221 0.24194409 -0.19244213 -0.07574497 0.21739665 -0.1491989 -0.31002048 -0.83491904 -1.4790853 -0.18281597 -0.94335157 1.0236073
293 -0.5215773 1.0626335 -1.3591108 1.8915838 -0.7670931 1.5865153 -0.92815965 -0.7579325 -0.3039669 -0.20957044 -1.0500532 -0.5442857 -0.27979228 -0.32347617 -0.46201456 1.4372417
22 -0.53068876 0.23203938 0.70828944 -0.5282921 -0.3340132 0.7219446 -0.76792526 -0.38329288 0.26014704 0.93078625 -0.11703528 0.093574375 -1.3504355 -0.3115525 -0.48534706 0.4462794
334 -0.9990794 -0.13651028 0.4245036 1.6628 -0.69406873 1.1393946 0.97519416 -0.116385475 -0.73895854 0.32501522 -1.0611818 0.33870953 -1.6950005 -1.1122845 -1.5713471 -0.3448777
220 -0.12261322 0.28320473 0.84444547 0.4242698 0.9003962 1.7715724 -0.9681095 0.2238946 -0.8438606 0.9773884 -0.1595089 -0.26925722 -0.30963802 -0.374038 -0.16124901 -0.09610629
232 -0.009957665 -0.1538976 0.84951556 0.645274 -0.9855253 0.9135019 1.8333411 0.25895822 -1.3544928 0.68716335 0.5677091 -0.2956287 -1.0396585 -0.9323696 0.12775727 0.6277156
234 -1.0263338 0.4979483 -0.043138664 0.16468532 -1.4049488 0.30250156 0.108444385 -0.9943645 -0.71855575 2.2264955 1.0449206 -0.019587241 -1.6219974 -1.3280731 0.93530214 0.19799687
307 -0.16547534 0.752144 0.10136086 0.11127769 -0.5551705 -0.38621816 0.6555763 2.2743506 1.5539228 2.2101302 1.0714086 -0.4918622 0.22943114 -1.9904667 -0.56900394 0.83430153
170 -0.53286344 0.18224879 -1.5849439 0.85949606 0.49939874 1.6401805 -0.16609578 0.63672334 1.3649133 1.104383 0.7976193 0.8768794 0.6125269 -1.2412465 0.58528394 -0.5683641
92 0.32591742 0.058273375 -0.4191124 0.09470273 0.8038552 0.49173057 -1.3625243 0.80417436 1.2057747 -0.5986356 0.15659653 -0.80413985 -0.8686316 -2.1292446 -1.0746592 2.056968
233 -0.70511633 -0.09464138 -0.9504856 -0.38403112 -2.3786168 0.6040193 -1.0977962 0.08631842 -0.2399269 0.91852546 1.7351936 -0.41508108 -0.23584883 -1.3772293 -0.31117642 0.753848
396 0.2521389 0.5693492 1.4106814 1.299384 -0.62703085 -0.40924782 -0.6839851 -0.6538703 0.80934054 1.7474586 -0.13364908 0.43737826 -2.1735244 -0.13049862 -0.1930287 0.8964609
358 -1.0426313 1.208229 -0.6701375 1.3739902 0.5360659 0.12650853 -0.11879905 0.4272951 0.87739915 0.42003506 0.50767684 -1.2068372 -1.5816294 0.07888544 -1.009066 1.381673
363 -0.7303709 0.34452277 0.50074315 1.6636462 -1.9053537 1.1864086 -1.8693291 -0.14981219 0.0074558533 0.44013202 -0.9218613 1.754027 -0.12430047 -0.4599786 0.33274078 0.9578271
66 -1.9420557 1.4495623 1.1587298 0.42931494 -0.14044064 1.375997 -0.84591436 1.5674502 -0.36114776 1.0976338 1.2833271 -1.4762833 -0.3467238 -0.61191875 0.96766984 0.13627127
4 0.15688074 -0.23025814 -0.5090917 0.37947953 0.41629538 0.59528494 -1.2951779 1.104289 1.1263593 -0.55396014 -0.27897242 -1.0447546 -1.5454562 -2.3601878 -0.55446887 0.93204564
230 -0.79035914 -0.34848538 0.36957657 -0.49707004 -0.34433174 1.054634 -0.8143973 -0.7433375 1.11757 0.9577962 -0.33382544 0.3285198 -0.6469196 -0.25106955 -0.06703139 0.05975347
204 0.96516514 -2.6315045 1.8136642 2.672533 1.2410461 0.2714513 -2.0672004 0.9025647 1.3494912 1.6485429 1.4768505 -0.39397666 -1.5153289 0.1808386 2.3156245 1.1233898
402 0.5586135 -0.018141685 0.4030142 0.16095749 -0.23621546 0.074654296 -1.0338064 0.8541747 0.97807807 0.051544484 -0.025969034 -0.00053546473 -0.87983036 -1.3809443 -1.2287236 0.96629596
381 1.4949993 -1.5995046 1.6211419 1.2353159 0.4472769 1.0956008 -0.4974844 0.5903786 -0.046567064 0.735668 -0.42414367 -1.8732375 -0.64856917 -0.06934265 1.3528126 1.7478675
17 -0.22373414 -0.5985355 0.9116888 0.30011708 1.2325333 0.28100443 -0.020353824 0.56874096 2.1823165 -0.55173254 -0.06960047 -0.5448845 -0.17997587 -1.5084583 -1.588316 1.6723036
384 -1.3673421 -0.37165502 0.82628214 1.7938424 -0.5520213 -0.23494005 0.22559986 0.08205714 -1.0123692 0.5145241 -0.35185072 0.8944718 -0.18450998 -1.1852604 1.9520179 1.5676934
248 -0.15053311 -0.7435324 -1.22197 0.12501417 0.10224188 0.75378615 -0.7189307 0.94050455 0.79846895 -0.49516243 -0.4482661 -1.5883428 -1.3116186 -1.5773983 0.1626604 1.7247771
201 -0.31524372 0.54399776 -0.37084275 0.7953109 0.23692678 0.0342256 0.71693027 2.1377919 1.6347551 2.0938387 1.2046602 0.35234776 0.9640784 -1.6808283 -0.4756411 0.7454928
76 0.61565894 -2.6622488 1.5331742 2.5210507 0.82904464 0.17071018 -2.1659567 1.602882 1.672637 1.7871091 2.0466723 -0.5407556 -1.7822204 0.3727824 2.5730646 1.3130227
222 -1.9984053 -0.16901861 0.07452286 0.39105546 0.21538745 0.04225016 -0.32022685 0.8653932 -0.14842552 1.574279 -0.8234111 0.7410607 -0.20550564 -0.073892675 -0.5613425 0.83919835
331 -1.4594297 -0.50829196 -0.13233039 0.3844436 0.26673725 -0.04498656 -0.35987428 0.43521008 0.17713723 2.3793848 -0.44461933 1.0429848 0.14345352 0.21339187 -0.07593435 0.9791845
58 -1.2232068 0.3316378 0.3665289 0.3751901 -0.2658403 1.1374792 -0.5126513 0.10036753 1.5563196 0.40590113 0.15640083 -0.5709113 -0.49584582 0.09048051 0.492759 -0.50711083
318 -1.1250578 -0.55130833 0.25865373 1.2320249 -1.112733 0.8113277 0.9917223 -0.673646 0.82295513 1.4968432 -2.0826676 1.0987209 0.02397796 -0.23743105 -1.1938559 0.46071094
421 -0.9887528 0.30019644 -1.1204323 0.7416043 0.40148297 1.587432 -0.3391475 0.9523645 1.4627224 1.2337903 0.370711 0.30816108 -0.09668634 -0.70713925 0.63732445 -0.9317442
218 0.40703344 -2.535346 1.6562272 2.5555885 0.83067894 -0.020902753 -2.1657872 1.7068843 1.4761834 1.7775004 1.9111141 -0.43372133 -1.803568 0.25227064 2.4725153 1.2716924
388 -1.2645862 -2.8016133 -0.016900105 2.5460289 -2.1441488 1.231317 -1.6878662 1.1704723 0.22082296 2.1172523 1.4750386 -3.1532059 -1.3342352 0.08011849 -2.159678 -2.2661605
95 -2.0837235 -1.2496103 0.31934285 3.2227814 0.0071652154 0.91933906 -1.3489935 2.2581353 -0.5074742 0.7409856 1.3452471 1.1472672 0.18033788 1.048494 -2.6423206 0.5536583
0 0.2513422 -0.28818706 0.69176847 0.45499507 -0.20885663 0.14472994 -1.3229771 0.8768777 1.6737989 -0.63523996 -0.6615581 -0.52631885 -1.3263446 -2.178721 -0.8395402 1.0064595
106 1.315302 0.18475036 -0.4519311 0.80363184 -0.4918161 3.1937683 1.6427194 -1.3338751 1.2082553 0.21586305 1.1795233 -0.92841035 0.29647154 -0.06881849 -1.5172788 0.9889308
57 -0.40487367 0.10437452 -1.0239505 1.1869485 0.5919418 1.7910823 0.36288625 1.2907622 1.7630457 0.6978965 0.42845625 0.7172026 0.3709448 -2.3926263 0.97409475 -0.98805004
306 1.3305224 -1.815572 1.8114619 1.292374 0.88919437 0.9990087 -1.0104613 0.5499266 -0.070088714 0.62584656 -0.2145608 -1.1803486 -1.0700107 -0.8295076 1.614119 1.3196497
88 -0.5008176 -4.3641934 -0.87676674 1.6553407 -1.0924187 0.749166 -0.60468787 1.631626 0.053387556 2.4907057 1.1208222 -1.7438585 -1.33207 1.3123372 -2.5743992 -0.32347873
300 1.6723647 -1.6888639 -0.4998118 -0.14282824 -1.4536645 2.5860074 1.0886754 -0.602846 -0.021269953 1.1124616 0.8568704 0.030809771 -1.2515031 0.9161439 -1.6030762 1.137892
326 -0.46955281 -2.115849 -0.8418945 0.51331913 -0.1492461 0.39004508 0.3334435 0.13464256 0.35731882 -0.8226481 0.23717822 -0.12556092 -1.7316346 -0.9087198 -0.6844967 1.2615988
126 -0.47433418 -0.24820292 0.23542854 1.2240976 0.6657388 2.1499166 0.404141 -1.7411137 -0.5019604 -0.45841712 1.4274018 -1.6143862 1.3706025 -1.7965863 -0.09073272 0.42777285
439 -1.2536906 -0.4894874 0.036258865 0.32111624 -2.1272042 0.3984922 -0.53320414 0.3862277 -0.698368 0.23931059 0.3855791 0.024683535 1.5666363 -0.68223965 0.34986892 2.0493321
417 -1.8463871 -1.3492439 1.7256298 0.6283607 0.20074087 0.25785577 0.69684166 -0.59786904 1.0737503 -0.6930265 1.5079824 0.12906088 -1.0257678 -0.53893536 0.42364883 0.64679545
85 -0.59851915 -4.0674124 -0.88474345 1.4628239 -1.4748206 0.86817527 -1.1462445 1.820679 0.15630163 2.6336029 0.9210704 -2.1529715 -1.3617624 1.1698613 -2.120378 -0.4722348
252 -2.0490942 -2.1603985 1.3275185 0.87317103 -0.19398542 -1.37022 0.17880595 -0.0051891254 0.71389216 0.06321234 2.3518398 0.8424957 -1.1635195 -0.96899545 -1.0272402 1.9706287
108 0.5672778 -1.2029917 -0.4965048 -0.41878214 -1.2934918 2.1535606 0.5461657 0.11387782 -0.33014467 0.91973513 0.40357155 0.7424891 -1.0792271 0.93529326 -0.6081957 1.3873168
343 0.16929364 -2.3781257 -0.7120292 0.5462642 -0.5268201 0.6046112 1.1394916 -0.27052927 0.43474355 -0.7004443 0.07184772 -0.90462977 -1.9657997 -0.7515783 -0.36830416 1.4136469
246 0.841354 -1.436916 0.37204844 -0.23171112 1.2646254 1.0259812 -1.8922288 0.4724011 -0.051634174 0.38262108 0.15747832 0.09025105 -1.4971173 -1.7499123 -0.030888937 1.6627121
135 1.40687 -0.69492257 1.73911 0.8719685 0.5878704 2.8577445 -0.7918517 0.48688838 -1.3036523 0.9615558 -0.5768775 -0.13507435 1.0074496 -1.4099567 -1.9907401 0.9921125
99 -0.19231024 0.30942354 0.14634353 1.1967211 1.4232656 2.0257115 -0.76127523 0.5989691 -1.013693 0.92078626 -0.07306125 -0.12571307 -1.0312965 -0.56137985 -0.41829354 -0.4154175
333 -0.62780863 -0.81261027 -0.7161236 -0.96275216 -1.4985853 1.579443 -1.2770196 -1.1377741 0.16863297 0.8451964 0.6402519 0.21098658 -0.5837158 -1.3696473 -0.18443535 0.045820914
303 -2.227309 -1.749126 1.1040962 0.5824955 0.11178341 -0.7435186 0.16380715 -0.04786866 0.6677734 -0.42428264 1.8416566 0.41605273 -1.3352398 -1.4328469 -0.9411377 1.2677006
393 -2.170555 -0.9372724 -0.54536 2.8040297 0.5003197 0.4984413 -1.1853926 1.9289457 -0.5424409 0.74526507 1.4148638 1.2995427 0.092483014 0.5255349 -2.350619 0.6598301
312 -1.7479333 -0.10892728 1.5262663 0.5185762 -0.34018838 0.65464145 0.0653291 0.13865262 0.25017577 -0.27689204 1.1953378 0.6648201 -0.49350327 -0.73275346 1.0944383 0.6976499
48 -1.1234384 -0.27682325 1.2502266 -0.031692438 -1.6293991 1.1434461 -0.5452359 0.385152 -0.2670898 0.31501564 0.3968189 0.2960976 1.7433343 -0.5320794 0.15539409 1.8873539
299 -0.8328718 1.3513162 -0.23216006 2.4568408 -0.64516425 1.0877942 -0.0039469055 -0.6342751 0.00041479475 -0.27385575 -0.91758686 0.1040631 -0.98750657 -1.3722405 -1.7957906 0.17516927
116 -1.2835004 -0.18544129 1.7687927 -0.7663459 -0.81174767 2.1163256 -0.14938663 0.35902628 -0.61442775 0.49652797 0.8813582 0.5629241 1.859617 -0.83295524 -0.36781925 2.108123
30 0.25020108 -0.0014740395 -0.572573 0.64113307 1.977841 0.41343963 -1.3162751 -0.3100747 0.89972717 -0.75767696 1.1109471 -0.23245455 -0.68879277 -2.9395978 -0.6432352 3.9249723
330 -1.3089385 -0.33970425 1.124393 3.5717425 1.2818875 2.359222 0.76806647 -2.6247249 0.108508535 -2.4419315 2.2257442 -0.5266391 0.43625015 -0.81240517 -0.50400615 2.0516973
84 0.755668 -0.1554064 1.3621725 0.52649647 0.44951814 1.6212937 -0.28100133 1.0689197 0.9388628 -0.09176589 -1.0887437 0.7364305 0.8646203 -2.1154323 -2.0425863 1.5362529
103 -0.17357959 -0.53739303 -0.6927236 -0.35680643 -2.6282797 1.364668 -1.8017292 -1.0404401 0.4414879 2.005117 1.8099775 -0.28716624 -0.16656154 -1.6943027 -0.5104157 -0.16057174
379 -0.8454476 -0.0288176 -0.4823204 1.762038 -1.6650987 2.341753 -0.5760338 0.2563673 0.29673457 -0.58586943 0.2886823 1.1271588 0.16508871 0.44466683 1.1893709 0.905317
129 0.13039672 0.044579864 -0.31394824 1.311826 -0.31580853 -0.30033436 -0.42542458 -1.5775537 0.21551162 1.0681815 0.87007797 -1.2004172 0.5556961 -0.5127401 -0.94563705 1.0637131
298 1.7133948 -1.0607346 -0.0711362 -0.0095543265 -0.8038876 4.1119385 1.8089995 -1.2315261 0.93467575 0.5749659 1.4049358 -0.77708447 -0.32402408 -0.43627533 -1.6767275 0.30294713
64 -0.9769869 0.29551938 -0.8448038 -0.2809978 -2.9775846 1.3192984 -0.68233573 -1.144939 -0.0332848 2.9469235 1.5050273 -0.06890858 -0.75964844 -1.4782418 0.23500581 -0.38885495
430 -1.4946277 0.14309628 0.12139928 1.1398878 -1.2566012 2.5197227 0.27039126 0.9562012 1.3468227 -0.8998818 0.8597905 0.4970658 -0.44345137 1.0333272 0.7250144 1.177661
10 -1.520953 0.23515531 1.2930102 -0.3642839 -0.6776447 0.6736472 -0.3575832 0.88456464 -0.1570261 -0.10866346 0.9621427 0.7810661 0.17714678 -1.5488032 0.6699697 1.4426111
398 -1.9641225 -2.4171233 2.0015316 0.92369473 0.0016092242 -1.4072019 0.27217484 -0.030452458 0.8045756 0.34258723 2.8827157 0.7995224 -0.81017876 -0.57480294 -1.0524507 2.9559925
291 -0.6287386 -0.85238177 -0.27721798 0.91350955 -1.0023232 1.8058531 1.812608 0.3158438 -1.2324364 2.1439407 -1.1887327 1.7625334 -0.9945406 -1.0693822 -1.4507778 0.34215558
419 -0.2447243 1.2710632 -0.1439947 0.07997971 0.58586293 0.9679257 -0.67043096 -0.15705897 0.9528191 1.3967857 -0.16611749 -0.8031742 -0.9385504 0.29499343 -0.98935896 0.8623815
5 -2.0528326 -1.3250624 0.8647802 1.7309647 0.38123477 -0.8187255 0.88971007 0.82801306 -1.0629122 1.2169093 -0.3923202 0.40964764 -0.12374254 -1.037409 1.168338 1.9302627
295 0.6614811 0.8570746 0.57611805 1.4954865 -0.46432617 -0.55028826 -0.2409653 -0.6565702 1.5525653 2.7064433 0.34839 1.0885888 -2.265959 0.75056344 0.066855066 2.3183672
449 -0.8853819 -1.8499515 -3.061791 1.3210104 0.01715519 0.79009885 0.39124072 -0.49830246 0.1112912 0.6452155 -1.3872948 -1.6946774 0.49331853 -1.7347362 0.96204793 2.9806433
292 -1.1028677 -1.7613221 1.3320632 1.2316251 0.2818226 0.6007977 1.948523 0.31564602 -0.81790596 1.7639822 -1.6400752 1.0528322 -0.54030186 -0.2118019 -0.088078536 0.9722946
80 1.9988964 0.11204432 1.5232122 0.787609 -0.87592 1.3021777 -0.46177796 1.3656545 1.9569117 -0.007329799 -1.9610077 0.09344532 0.045586243 -1.8823667 -1.6179023 2.334147
389 0.027373683 0.31067234 -1.8918147 1.0287548 0.75256777 1.5348506 0.6711182 1.0671213 0.6568001 1.3564987 1.6227869 1.171973 0.5064903 -1.0111296 0.6136009 0.3062607
16 -0.078225665 0.4685095 0.6491738 1.3418823 -1.1013025 0.9831958 1.8509321 -0.042878583 -1.0466055 0.6241671 0.43929625 -1.100359 -0.37151247 -0.95670456 -0.061017472 0.6843189
340 -0.484825 -0.34198555 0.28136548 1.5026263 -1.8876406 1.4644259 -1.2105727 0.0009940913 -0.61229783 -0.016756298 -0.22577152 2.0770044 -0.19134109 -0.8352922 0.9467763 1.3569103
83 0.2764294 -1.8037122 1.3046929 1.0852551 -1.6934854 0.37521282 0.8204428 -0.026138548 2.3088443 1.1909848 -0.04073397 1.2654926 -0.17579326 -1.3723975 0.20286363 -0.30203336
187 -1.5524523 0.21395122 1.9830763 0.7727584 0.33374026 0.6227541 -0.9635974 0.069605045 -0.23459503 0.48244065 0.6787436 1.3632002 -0.057864897 -2.0275187 0.9084015 0.4662263
359 -0.24687268 -0.92861456 0.4595602 0.6149549 0.7677516 1.8593483 -0.21656044 -0.00052785815 1.1018547 2.0994227 0.032749657 2.3536234 -0.017323678 1.4510571 -0.732912 2.0743625
94 -0.715897 0.24597971 -1.2252029 1.8593147 -0.10522885 1.1553974 -0.61872476 -0.42808327 -0.03683974 0.28351435 -1.4099455 -0.9766918 0.5990618 -0.07237997 -0.88490057 1.4092189
178 -1.1827132 -0.15948614 1.1715682 3.3019135 1.1338483 2.537587 0.7501373 -2.5003095 0.033938285 -2.4035478 2.3984985 -0.3912071 0.31435373 -0.8890558 -0.5920429 1.8204279
50 -0.20619364 0.7815786 -1.1342305 1.2887697 -0.1976771 0.21614768 -0.25123748 -1.6149147 0.6869816 1.254616 0.66247606 -0.412105 1.0282389 -1.083499 -0.53116566 0.7911924
227 -0.8341869 -0.24748233 -0.33474484 1.8982781 1.1126627 -0.050918974 0.89284146 1.5011573 1.8712059 2.6550145 1.1246302 1.1071422 2.2906232 -1.8623871 -0.5496175 0.8233592
190 0.25218287 -0.049016498 -0.65509564 0.48626554 1.6968011 0.5572808 -1.2499007 -0.054345433 0.90808713 -0.921566 1.2549887 -0.0010329277 -0.7450643 -2.9610536 -0.84798485 4.049655
356 -1.9933769 -2.388879 1.9392192 0.8987464 -0.11050582 -1.3883585 0.42472753 0.17765242 0.72543347 0.4268263 2.9948235 0.98403025 -0.8779657 -0.7327514 -1.3521332 2.8316457
368 -1.6548961 -0.3654249 2.4575167 0.73118466 0.895435 0.47075397 -1.0127096 -0.45426956 -0.028222183 1.4035859 0.05257426 1.7393482 0.15989079 -2.983258 0.8102158 0.12423609
179 -0.5350276 0.077589296 -1.9342645 1.2886323 0.45314154 1.3253506 1.5153146 2.1570947 0.18158698 1.985299 1.6539308 0.5261382 0.9162125 -0.21393302 0.3869242 1.3078481
448 -0.7394169 0.21309164 0.38703316 0.30248582 -0.96046185 0.3602667 0.8247147 -0.043756776 -1.3166302 1.7852932 1.0559047 0.35103506 -1.9027975 -1.3012611 0.75130033 0.34516943
386 0.51953024 0.732206 1.2344977 1.7966385 -0.61831844 1.0000466 1.336745 -0.50210994 -1.1651876 1.2136075 -0.048824478 -0.4126849 0.10142522 -0.4042475 0.76484144 1.4838296
198 -0.023295281 -0.7150448 0.16579428 0.4594512 0.66508776 1.1215516 -0.15879242 -0.24046521 1.1324106 2.229009 0.013053615 1.6743112 -0.38580003 1.4449704 -0.5473787 2.0009942
29 1.1808517 -1.811676 -0.46306458 0.55184925 0.6438965 2.2767065 0.15471262 1.1985658 1.7407146 2.0881236 1.2593542 -0.6354874 1.0383927 -0.8874212 1.20207 0.4448419
352 -0.32850513 -0.026930658 0.66663086 -0.717031 1.0122762 2.5531619 0.5069493 0.5201789 0.16385219 1.7880609 0.9706727 1.5183446 -0.099417515 0.62296504 -0.60468745 1.2757968
316 -0.7496744 0.94445926 1.609172 2.213206 -1.6858854 0.6084255 -0.35963598 -0.49137667 -0.5138205 1.3197321 0.1947302 -0.31558585 0.27047464 -0.21412848 2.3548195 1.804026
212 -0.6122533 -0.7282797 -2.4093244 2.0623105 0.7779811 0.9984217 -0.099025674 -0.38519704 -0.11521504 0.7718602 -0.6883412 -1.5236744 -0.5990057 0.034177605 -0.08064901 1.9633495
321 -1.0551889 -0.3956252 0.83114237 0.97460794 -1.6565171 1.383261 -1.1030406 0.40408245 -0.7552289 -0.044601522 -0.3166031 1.1182277 0.3792394 -0.34582692 0.4855385 1.0257417
33 -0.66765726 -0.08685748 0.14328578 0.55108225 0.3625459 0.6922672 -1.1145376 -2.0610516 0.038184416 1.7419333 0.6103057 -0.44295353 0.52836 -0.45552433 -0.26401755 0.34697673
111 -0.44200137 -0.7214709 0.21441238 0.3735567 0.4711313 1.0575838 0.385176 -0.16093765 0.69383806 2.5308323 -0.7080401 1.5564069 -0.55362236 1.0198405 -1.0219775 1.2073078
154 -1.1742474 -0.32128888 -0.44240102 -0.6188331 0.29099444 1.4693297 0.308554 -1.795113 1.544694 2.5111275 -0.82463443 0.59385806 -0.87830895 1.0347869 0.2048519 1.8428906
26 -1.2608153 -1.8948994 1.4058999 1.3914363 0.6316201 0.09267978 1.7943445 0.6783759 -0.9529253 1.4486011 -1.2360891 0.89698416 -0.056709684 -0.36929175 0.27389368 1.5989605
231 0.8153607 -0.64427423 1.0700065 1.7470894 -1.3593764 -0.6260584 0.11797389 -0.94953984 1.8845367 1.8813715 0.25508606 1.3626034 -1.7918193 -0.4407751 0.43616477 0.7731624
324 -0.79916936 -0.60040164 -1.1972609 2.361142 -0.30933717 0.6386788 -0.78327423 -0.72922677 -0.32192028 0.3209792 -1.2993367 -1.0867095 0.73489994 -0.36385468 -0.74733007 1.0204762
428 1.1374472 -0.28552678 1.0221477 0.0037831885 -0.37523925 3.476719 1.2696294 -1.0179462 1.0179483 0.40981948 0.37158486 -1.2245872 -0.124496005 -0.27901012 -0.18636371 0.23361783
320 0.94856936 -1.8173647 -0.47445914 0.47593513 0.007671393 1.8637373 0.58190686 0.6740271 -0.168262 -0.2272497 -0.37958723 -0.7623994 -1.9928002 -0.13992779 0.84386075 2.074276
322 -0.6796301 -1.2530236 0.32493693 0.10682821 1.3723183 0.11169285 -0.32651904 0.8080943 1.6206834 -0.53111976 0.58726954 -0.4619557 -0.8442187 -1.6171876 -1.3827161 1.6301739
96 -0.67261356 -0.58109045 1.729464 2.6326358 0.99500215 2.8336465 0.83980846 -1.5717005 0.5356475 -1.4380617 2.2762938 -1.9429137 0.22203638 -0.4653162 0.92358345 0.89193636
362 0.23565097 0.7468332 -1.6684921 1.4003489 0.8678942 1.4033622 -0.37962908 -1.2328459 1.1363958 2.0706384 1.1270458 1.1633232 0.9035329 -2.2734308 -0.018614499 0.123412766
278 -0.75904113 0.33210707 -0.07466067 -0.17567559 0.4948068 1.0312228 -0.74043685 -1.6356574 0.6106521 1.7314234 -0.27295756 0.24129622 -0.31652406 -0.71079916 -0.020527124 0.20133966
380 0.9248366 -1.5989085 -0.06443836 0.13017555 -0.16322811 1.1491727 -0.7466913 0.5092762 0.8365775 -0.30264017 -0.016671386 0.27501997 -0.57945895 -0.32849634 0.5176452 1.9486169
51 0.06848666 0.8267108 0.07360812 1.0442935 -0.7670408 0.8745627 1.1659404 -0.7564054 -1.1952195 0.789864 0.4470193 -1.2852992 0.451391 -1.3938924 0.09867987 0.93421084
184 0.31952804 -0.05555799 -0.78810513 0.06260766 1.2907715 0.5806656 -0.58771825 0.26671138 0.85800844 -0.86396664 0.8763362 -0.67135286 -0.5826686 -2.7037637 -0.7221156 3.4482758
354 -0.7594841 -1.6822528 -2.8965735 1.3036838 -0.014434428 0.7405513 0.39003354 -0.44090497 0.137581 0.4754714 -1.2148364 -1.7358812 0.38738263 -1.7145103 0.74046105 2.7902393
169 0.08649856 -0.8942401 0.32253885 0.24110976 0.34506783 1.7561021 0.054715198 0.13712916 0.8326807 1.7032243 0.18697414 1.9933733 -0.11712663 1.1628997 -0.4312227 1.8090683
205 1.7819114 -0.5622298 1.9071503 1.2975177 0.95491254 2.7055044 -0.7191748 -0.09682205 -1.0525407 1.4664305 -0.51702225 -0.06447098 0.8776128 -1.8922423 -1.80435 0.4504288
158 -1.1339043 -0.7911081 -0.32984197 -0.88778025 -1.2731417 0.5649693 -1.1748446 -1.6811465 0.5877323 1.8179232 1.8221133 -1.2918594 -0.27392092 -1.209997 0.3356385 0.9127651
123 -1.1045171 -1.1684142 0.5950362 0.11027323 1.4249403 0.39982283 -0.040288623 0.73167056 1.5936409 -0.8659435 0.2565798 -0.48339668 -0.77566093 -1.6661724 -1.3985721 1.5065951
107 -0.8998787 -0.15115075 1.0858178 -0.8211865 0.051443577 2.2680912 -1.3977292 -0.1706326 0.9150145 0.33141887 0.45936447 -1.9571446 -0.7354388 0.089931294 -1.2859895 0.5337243
151 -0.4815845 0.03715516 -0.22494136 2.1152341 -0.16440131 1.6438098 1.6789922 -0.3458209 -1.6476808 0.15627672 -0.122005254 -1.5091842 -1.7182761 -1.7443057 -1.2734505 0.22360022
365 -0.8619737 -0.5205479 1.6348081 3.0653915 1.1754701 2.5391262 0.8574604 -2.0775476 0.4197021 -1.8898889 2.2711036 -1.2833544 0.32591403 -0.5299646 0.261103 1.2432436
217 -1.8883349 1.1075115 1.0678436 -0.08474552 0.72107166 2.9075546 3.2111912 0.15127943 1.6219721 0.26355267 -1.1304504 -2.3012776 -1.2861072 -1.4131879 1.6833718 2.2687676
262 -1.3935012 -0.7646911 0.3953097 -0.28869092 -0.3285422 0.04691249 -1.1307081 -2.0189312 0.101003624 1.8063931 1.5149087 -1.5466899 0.1445295 -0.9838828 -0.12619507 1.3240731
427 -0.5923133 -0.73371416 -2.709852 0.5457115 0.05719983 0.8911065 -0.9459165 0.34369716 0.28987876 0.20156439 -1.1081239 -1.9074003 -0.40096605 -2.094927 0.61996025 2.5415778
420 0.024830274 0.52717566 1.7000147 0.011299112 0.32054916 2.9452085 1.6505414 -0.23979059 1.0303453 0.69225246 -0.73179156 -1.8459226 -0.998212 -0.8889236 1.6493536 0.77877223
323 -1.3386394 0.044357423 -0.9735337 0.9457071 0.63125294 0.92465866 1.0938346 1.5549313 0.5634677 1.1930776 0.7142937 -0.6976392 0.92133176 0.25136015 0.7705369 1.3246986
353 0.7216015 1.0696039 -0.6728037 1.316383 -0.38528728 1.8163264 1.3719239 -1.4995617 1.5930682 0.23769565 0.589897 -0.6887692 0.83090985 -0.5586138 -1.6600426 1.5391375
297 -0.6464735 1.120268 -1.3139303 1.6286789 -0.8761798 2.3567667 -0.9273758 -0.36526874 -0.53756344 -0.27197117 -0.8808551 0.18113579 -0.3362199 0.010349208 0.3370472 1.3247994
237 -2.397404 -0.21150535 0.93353146 -1.1026956 -1.2314156 0.7526365 -0.1360688 1.3269837 0.2065267 -0.23161994 1.257056 0.41295147 0.99136543 -1.7622526 0.3853828 2.965507
397 -0.50262064 -0.3336911 0.294975 0.89975834 -1.5457944 1.5657849 -1.1068889 0.69465494 0.09015462 -0.36323696 0.12822981 0.99469906 -0.04833902 0.45108092 0.6526674 1.4134657
110 -1.8518283 -1.0605893 -0.5297569 0.95556587 0.76307964 0.13774073 -0.24596497 0.73882765 0.04848883 -0.39001197 0.8084396 0.74484384 -0.29833344 -0.47933352 -1.4744844 0.94298613
260 -0.73882395 0.69478655 -0.4217061 1.2933221 1.3470154 1.1460079 -0.80528706 -2.1578047 0.757181 2.47873 0.3696835 0.04500601 0.7818797 -0.97349346 -0.53046554 0.32708782
12 0.01314825 -0.51576114 -0.33892667 0.748287 0.67560565 1.7087655 0.34403777 1.1411405 1.9205779 1.2308979 0.36096114 -0.1818827 0.79260075 -1.776617 0.91508657 -0.81156
163 -0.37832096 0.791499 -0.9936887 2.79109 -0.04250373 0.6597263 -0.15844718 -0.10731153 -0.34278905 0.1868995 0.044269253 -0.9761374 -1.2442708 -0.52823097 -0.8795594 0.22024764
138 -0.5590911 0.7006671 0.33608422 1.663427 -1.2047758 0.87005514 1.9535048 -0.2303482 -0.3197638 0.6181683 0.7100496 -0.80332434 -0.3230433 -0.3981574 -0.47456598 0.41954792
236 -1.1992906 -0.15471095 -0.69866705 -1.1472454 -2.2410927 1.278308 -0.09148597 0.17586398 0.56829226 1.2459911 2.6879344 -0.48027113 -1.0765579 -1.3753748 0.19315548 0.27608123
192 -0.3498943 -0.44061282 0.24246213 0.9371294 -0.2731885 -0.19959971 -0.8589488 -2.2310028 -0.085253 1.9014941 1.357131 -0.9226542 0.51898664 -0.45239016 -0.62361073 1.1651827
424 -1.6061498 0.49866283 -0.5825178 1.0551429 0.9493815 0.06460822 0.010436942 0.73809266 0.9082005 -0.16368492 1.0352678 -0.92018545 -1.8865873 -0.46887442 -1.1506665 1.4047526
209 -1.4456261 0.94817924 -0.6061155 -0.9650487 -0.36312765 1.2102865 -0.005885023 -1.3377093 0.9634827 1.759176 -0.014127955 0.59807986 -2.1007981 -1.4877219 0.90023404 0.8149126
249 -0.37400544 -0.8841094 0.12576585 1.2307127 0.7928102 0.05977333 0.778306 1.0657908 2.1066601 2.3710177 0.4544621 0.3623646 1.5432318 -1.5234555 -0.22489254 0.06516267
347 -0.25262558 0.23763813 -0.44655418 0.8257594 0.46623173 0.37473667 0.7655948 1.9740725 1.5629902 2.2976904 1.2702852 0.45653376 1.4115961 -1.5675591 -0.3807353 0.71432227
146 -0.73130953 -0.98871505 -0.3306241 1.2514558 -0.7649165 1.7921988 1.9766282 -0.15781985 0.10365299 2.266383 -1.6737354 1.8502783 -0.56668097 -0.5871058 -1.146571 -0.008136953
401 -1.7453235 -0.39092898 1.2829164 1.7759396 0.0013983557 -0.5487423 1.2030424 0.057182357 -0.93110305 1.2972604 -0.38517758 -0.35620123 0.070238456 -0.5691933 -0.1009181 0.98591775
329 -1.333944 -0.80576074 2.4519277 0.24990399 1.710577 0.8683644 -1.1867348 -0.5815134 0.049624164 1.2687982 -0.4876462 0.8777433 0.45273933 -2.6624317 0.2820929 0.32148838
268 -0.48005533 -1.0841293 -1.2415782 1.8948842 -0.37897986 0.6038528 -0.25612032 -0.37415713 -0.284729 0.4894187 -0.8642864 -1.5416576 1.0868411 -0.0395562 -0.36313424 1.2553444
405 1.782661 -0.536036 1.6473947 1.1778677 0.9619519 2.6219475 -0.8163834 -0.12275158 -1.0386065 1.4531536 -0.30560076 0.0036329788 1.0586277 -1.8294417 -1.7950528 0.5074911
199 -0.49434817 -0.7600481 -0.81205225 -0.69271666 -2.0765648 1.3189579 -1.7802572 -1.3985531 0.51711875 1.4778079 2.1337066 -0.697511 -0.6237709 -1.820928 -0.218342 0.3551474
391 -0.4308213 -0.73269546 1.2272558 0.5382776 -1.314643 1.0961517 1.1917694 0.48491 -2.0502357 1.3748891 0.26987126 1.045467 -1.4526179 -1.0802592 -0.030480372 0.71865654
213 -1.6977772 -0.74908644 -0.46339664 0.67794424 0.6696305 -0.045063213 -0.56582344 1.077294 -0.33618888 1.8534741 -0.66447175 1.3475308 -0.10035126 -0.37275112 0.4993157 1.2666872
54 -1.0629272 0.2724643 0.61870444 1.3050476 -2.3324575 0.63129747 -1.4650453 -0.005645805 0.31287622 0.65056795 -0.7267583 0.7361062 1.1289904 -0.37156215 -0.0108122565 1.2452091
19 -1.6142362 -0.23473524 -1.058591 1.5682658 0.15553072 0.36814043 0.0056914664 0.08830963 0.15009227 -0.67732495 -0.34863397 -0.37856016 -2.1042194 -0.648453 -1.144433 1.3471838
86 -1.5173607 0.22921367 1.0668118 1.1891291 -0.5715554 0.12994476 0.68716675 -0.2572138 0.08905797 0.70791245 -0.091267005 -0.47828943 0.10091341 -0.07946727 -0.97096616 0.12706822
28 1.4498575 -1.7801853 0.9482638 -0.25482148 0.90749156 1.1136128 -0.6479268 0.8608745 1.3022871 0.90924716 1.0282258 -0.050044704 -0.2588586 -2.0207076 0.25433296 1.2047622
91 -0.5719035 -0.6920564 0.8650758 -0.2154215 -0.8696257 0.594098 -0.85764223 -0.48134843 1.5291805 1.0510081 -0.1767235 0.8449341 -0.74548894 -0.6189749 -0.0051041655 0.11057946
8 -0.7016158 0.5812085 0.7191494 -0.4265509 -0.8659717 1.2499729 0.012184331 0.54777324 -0.48439914 0.9393026 -0.68282527 -0.8399174 -0.4641088 -0.17520852 -0.9045017 0.7493139
162 0.48522943 -0.1735253 -0.019881845 -0.31553802 -1.5306631 0.5076499 -1.1515547 -0.3432065 0.24270505 1.2086498 1.6115501 0.031830736 -0.6645806 -1.3382201 -1.112808 0.23604046
327 0.724858 -1.4011595 -0.20560288 0.5639557 0.43267098 1.8493632 -0.045809064 1.086517 1.9601682 1.844883 0.85446036 -0.61280036 1.1823832 -0.84879965 0.7823335 -0.08381593
141 -0.4486345 0.7548093 1.6335559 2.144105 -1.7567681 0.7186675 -0.41513696 -0.38350552 -0.52745765 1.2042603 0.5163142 -0.04918669 0.2853544 -0.051615655 2.3245306 1.9621959
434 -0.0006577257 0.6342065 -0.6647621 1.0727404 -0.7534838 0.15514271 -0.0013905056 -1.2705423 0.20088138 0.6571834 0.20390663 -1.3796407 0.967141 -1.2163142 -0.85504526 1.2375615
223 -0.89627504 -0.32228252 0.016341308 -0.6150861 -0.2878439 0.78434026 -0.81084967 -1.7395067 0.24412796 1.2666054 0.23461165 -0.033229366 -0.957335 -0.6734466 0.2300799 0.4271697
226 1.7866281 -1.7915497 -0.20651565 0.14013506 -0.8703565 0.9433961 0.40009978 -0.22773151 1.1288619 -0.12622696 -1.107579 -0.68481493 -1.4196957 -0.8915626 -0.67879313 2.0091271
403 -0.62233055 -0.7984081 -2.6227384 0.57377195 0.019861313 0.86865747 -0.780409 0.24953541 0.2260908 0.18281873 -1.0703679 -1.8776752 -0.3671795 -1.9449159 0.5590768 2.536612
52 -0.37948063 0.27371836 0.4128872 2.0003498 -0.89323497 0.85260075 0.80031705 2.7610848 2.2490332 0.46881986 -0.21171984 -0.22351286 -0.5447412 -2.0600762 0.891695 -0.7357403
210 -0.8999198 -0.016821308 1.0897666 1.7911488 -0.7697067 0.06595933 0.26879087 0.18073094 -0.8590662 0.65559393 0.01868502 0.18560632 -0.0952281 -0.49597883 2.3454452 1.5783107
2 -0.72387797 0.37187985 0.39272028 1.6259992 -1.7028056 1.546227 -1.847985 0.24161331 -0.2252136 0.18401122 -0.35311785 1.8776039 -0.3328916 -0.5394552 0.7797027 1.055547
105 0.9363046 -0.37231237 1.5513204 0.5285885 -0.83621866 1.1153961 -1.1064835 1.2064086 2.2483907 -1.0584931 -1.4690678 -0.4470715 -0.6806855 -1.9977642 -1.360747 1.7283297
436 0.5748147 0.7006602 1.2677779 2.0240593 -0.8575663 -0.5456996 -0.57402176 -0.62700456 1.3132024 2.0899332 0.004212697 0.82274854 -2.8497565 -0.032336973 0.4086145 1.3670539
432 -0.31555146 0.9509413 -0.101479515 2.3189578 -0.1406018 1.1865479 -0.086251326 -0.5196995 0.23079224 0.08709812 -1.3568203 -0.8870218 -0.2698133 -0.5445766 -1.4005868 0.47873953
385 1.8591031 0.04920822 1.3642999 0.64018404 -0.8705093 1.2367357 -0.51336527 1.2056015 1.8447843 -0.032555945 -1.8243836 0.10704118 0.0130127575 -1.7386948 -1.444214 2.2269187
304 -1.7518837 1.3600098 1.4792436 0.46740544 -0.19087058 1.3670803 -0.7756089 1.5484203 -0.72707814 1.2467647 1.4542143 -0.9285462 -0.5013684 -0.95137995 0.9730702 0.08398845
360 -1.0364171 0.39152178 -1.1141796 -0.049389075 -2.3011549 0.3743853 -0.54302895 0.98822224 -0.82203573 0.4237565 1.3129724 -0.21176305 0.5024946 -1.4122664 0.06857091 1.587661
441 -1.2767909 0.59097385 0.9741384 0.508309 -1.1077939 0.5865486 0.27935526 0.2827306 -0.60299265 1.0891566 -0.8580551 -0.5812539 -0.32794213 -0.41017243 -0.6027071 0.47096387
98 -1.3631889 -1.7646264 -0.88532263 0.6451305 -0.11498754 0.22513491 -0.7496576 0.6938299 0.67432547 -0.79554224 0.7642277 -0.29049933 -2.0793712 -1.2252938 -1.8834475 1.2833378
53 0.29037517 0.7352901 0.11781869 1.408555 0.04817517 -0.7192003 0.14626847 -0.5396358 1.4748465 3.9017892 0.41903886 1.1121445 -1.4446014 0.86600876 -0.7034897 3.3557916
27 -0.72501767 0.418556 -1.5470638 2.3784823 0.10362064 0.4346743 -0.49664855 -0.5744297 -0.15664698 0.47349048 -0.4948186 -1.1172882 -1.0681567 -0.16507766 -0.5273408 1.2461406
153 1.3176562 -0.13102105 0.64753973 0.22293276 0.16217452 0.6403179 -1.0398389 1.0560707 1.5494208 -0.13476026 -1.1799574 -0.2053627 -0.66130656 -1.6637058 -1.4392118 2.3155742
102 -0.8334388 0.20419347 1.7418458 1.7510175 -1.0481713 1.3936092 0.018712332 -0.20979556 -0.2866291 0.2646728 -0.29246023 0.85793346 -0.28892156 -0.17267837 1.5806851 0.815891
150 -0.96443135 -0.30440918 0.5632745 0.6746969 -1.1754283 1.161274 -0.8093358 0.6578824 0.4075808 -0.1081371 -0.13019939 -0.03351672 0.33761758 0.7788555 0.2837971 1.0179383
90 -1.8383591 -2.0303314 -0.92502326 0.71319145 -0.29696622 -0.20086376 -0.6787261 0.26168376 0.59890985 -0.7464516 0.62273204 -0.15162213 -2.053405 -1.7685395 -2.1127675 1.2566879
188 -1.0108368 1.1683863 -0.819052 1.9913182 0.028076814 0.004070701 -0.4707329 -0.14339451 0.3100937 0.37754306 0.06934771 -1.060649 -1.2691077 -0.13686913 -0.6235835 0.9221669
127 -1.0350045 0.6104712 -0.14441526 1.537479 -0.6233684 0.04896008 0.053484403 -0.43372208 0.5837662 0.23203357 -0.1659592 -0.29757288 -0.3205807 0.08356146 -0.83383703 0.25272635
451 -1.5414115 0.51596755 0.60740125 -0.052004635 -0.73775464 0.6170943 -0.043681983 -0.6775043 0.6361271 0.94041646 0.1692903 -0.38692865 -0.16322772 0.3217403 -0.85711783 0.43045095
155 -0.9814805 -0.024581045 1.261719 -0.5425764 0.28026748 2.6034737 -1.426363 -0.72943246 1.8444784 0.5139526 0.24955896 -2.0137167 -0.71719676 0.30771482 -1.1076126 0.6478369
182 -2.1267676 0.89325273 0.5846315 0.9279063 0.46151745 1.3582339 -0.6501373 0.937479 0.11345547 0.36227542 1.2105265 -1.7996887 -0.6493747 -0.1249077 1.1036915 0.28907225
139 -0.45626542 0.21233107 1.2092252 -0.030185416 -0.64269656 0.66542673 -0.8205967 -0.1389245 0.8732285 0.87018275 -0.006423205 -0.1870013 -1.0009629 -0.113270305 -0.5660019 0.16478421
407 1.1095879 0.83588314 1.1487341 0.056989606 -0.6797656 -0.032241885 0.31148198 0.74145705 1.2413185 1.9340694 0.9362867 -0.16155195 -0.48910183 -1.9116817 -1.1443994 0.46618396
165 0.3199682 0.44976962 1.3808181 0.9134105 -0.31876513 1.1938593 0.8200498 -0.23959714 -0.68656373 0.8237875 -0.3055543 -1.088424 -0.17317228 -0.5671391 0.33646187 0.45278203
39 -1.6206428 -1.5656931 -0.28447384 0.3706183 1.1612314 0.34548682 -0.070027374 0.45703918 1.0060959 -0.75316304 0.56459165 -0.054874394 -0.92849666 -1.1848327 -1.4994283 1.164177
216 -1.9330062 1.2331327 1.7037112 0.3450254 -0.51686054 1.0964836 -0.4836496 0.9912434 -0.6202348 1.3837776 0.6176852 -0.53397906 -0.24086548 -1.2332295 0.3325389 -0.2007727
24 -0.78216064 0.26198968 0.5835577 0.51110953 1.7018294 1.4098619 -0.8551559 -1.5419897 0.026813785 2.2752712 -0.28841776 -0.2064276 0.5601929 -1.2504922 -0.43783906 -0.1962499
117 -0.6521402 -1.3275247 -1.7935028 1.3679296 -0.28185275 0.49461284 0.60667783 0.08327568 0.07127179 0.97812426 -0.82251626 -2.4991488 0.7601398 -0.699716 -0.66976696 1.4897964
3 0.29226676 -1.0902209 0.18279912 0.60722184 -0.802695 0.94231796 2.0823157 -0.11261313 -0.59520453 0.020270692 -0.17134334 -0.8939457 -2.051364 -0.9222212 -0.19194151 1.0919884
296 0.936408 -0.42861497 -0.5941554 0.04326095 0.76798195 2.0658484 0.5964656 1.3526434 0.8383594 2.0048375 1.1182979 0.39442986 0.47323585 -0.52280414 0.62898195 0.56956655
13 -1.6614007 0.2165874 -0.0541979 -0.04218871 -1.078087 0.6775497 -0.30732155 -2.1661718 0.266333 1.9977067 0.8013971 0.19549179 -2.143762 -1.5530334 0.6179432 -0.13657987
336 0.28218025 0.9089174 1.0977932 1.2485873 -1.508085 1.0384413 1.4606401 -0.41965503 -0.908083 1.6925235 0.23684181 -1.0460563 0.17440782 -0.7628615 -0.145943 0.81370723
311 -1.1111197 0.112893544 -0.43872797 0.7039541 -0.02126135 1.5874822 -0.5823194 0.6160458 1.7834438 0.57831043 0.33156186 -0.1416071 -0.58827066 -0.016987009 0.8365566 -0.8398041
87 -0.87839097 -0.7444628 0.018181331 1.3023151 -1.0699562 1.0727967 1.4711782 -0.41011104 0.9223755 1.4145334 -1.9316952 1.1777452 -0.3078908 -0.2312676 -0.9927476 0.18727918
412 -0.32103416 -0.5043855 -0.29209444 -0.2793931 -1.3016024 0.54546493 -1.4986439 -1.6341314 0.11118838 1.6097801 1.2778859 -0.5988517 -0.58879447 -1.0291052 0.051917136 0.4363493
101 0.09488543 0.77693504 -0.08936604 1.2628949 0.042431965 -0.57290244 0.23057887 -0.107535854 1.3102549 3.8139203 0.47595495 1.1819643 -1.7509602 1.0050889 -0.50799674 3.283496
250 -0.80436355 -1.3386773 -1.8335664 1.4063185 -0.21054219 0.6310495 0.64943147 0.22552782 -0.003874826 1.0089675 -0.7559588 -2.6029148 0.8225044 -0.6115436 -0.58848083 1.4874603
255 -0.866884 0.33187148 1.4627253 0.6565114 -1.0126294 -0.053624466 -0.48105696 0.09038667 0.0155244935 1.1606365 -0.53538316 -0.096603096 -0.81111205 -0.35995612 -0.6735018 0.18216483
367 0.018350575 -1.0625073 0.25095102 0.79468673 -1.5874963 0.9141152 1.5392267 -0.5883494 1.164694 1.6492953 -1.5702565 1.3358548 -0.5958716 -0.95261365 -0.31662586 -0.015289634
443 -0.44799986 1.0388774 0.95763344 1.5262887 -1.5233111 1.0715805 1.6447779 -0.96775395 -0.10491127 1.5359284 0.3453196 -0.7053348 0.1663583 -0.16836795 -0.6159714 0.52667314
355 -1.0129708 -0.5346935 0.8599816 0.8817874 -1.8701439 0.9929167 -0.45827162 0.52886045 -0.027824624 0.079523295 0.19870847 -0.08809354 1.577468 0.09361322 0.2862797 1.4394239
269 -0.79606384 -0.12908904 0.8404833 -0.46369657 -0.34868115 1.5711194 -0.93001866 -0.31786144 0.7369174 0.79282916 0.04826424 -0.80511224 -0.57940114 0.42770025 -0.2843725 0.101433024
41 -1.1753104 -0.15607627 1.0417184 0.24529244 -0.57418036 0.9047361 -0.8583352 0.056505054 0.6315476 0.45764753 -0.44321156 -0.34648293 0.28302735 0.34955043 0.041985333 0.20964473
1 -1.3228104 -0.04784656 1.0608815 -0.26638505 -0.13106845 1.9702394 -1.119478 -0.39454898 1.4682381 0.5193338 -0.29506427 -1.2991654 -0.6998265 0.33127502 -0.3604202 -0.018447546
413 -1.2831732 0.24553445 0.50233275 1.7365556 -1.6713248 0.57354224 -0.9130466 -0.13230725 0.85222673 1.123155 -1.5034118 1.1213183 0.38850445 -0.03443817 -0.5734764 0.76889485
37 -0.5250186 -0.81407624 1.3595304 0.9272684 -1.382725 0.89203507 1.1812408 0.34496057 -2.059379 0.811798 0.50503737 1.2987306 -1.1735553 -1.7301898 1.2373646 1.2637497
49 -0.27004692 0.2253809 -0.79425794 1.4361577 0.65403444 1.9953555 0.38394955 1.6105766 2.098138 0.583301 0.34305242 0.52267843 0.14151047 -2.2727535 0.99105257 -0.97454786
344 -0.46597785 -0.8074401 1.2743305 0.8921341 -1.4271134 1.0121926 1.1246908 0.26404732 -1.9749104 0.7433618 0.4803975 1.2646927 -1.1688426 -1.5455124 1.0725926 1.2642281
450 0.8451907 0.113263145 1.1747863 0.27351797 -0.9275736 -0.21800098 -0.9170369 -0.28196424 0.4641599 1.458273 0.9626299 0.11891016 -0.8635049 -1.7235949 -2.0085163 0.6145955
