452 16
435 0.12168538 0.99994755 0.5538243 -0.27321795 0.12378559 -0.45272797 -0.18068895 -1.2760453 0.18665366 0.5182968 0.8598463 -0.964453 0.72771066 0.93971556 -0.8316566 0.55212736
62 -0.2944545 0.41236454 0.5525187 -0.3572915 -0.7767735 -0.3961554 1.9450008 -0.069634944 -0.48560774 -1.438704 0.94606096 0.25656596 0.44625217 -0.047890563 -1.0250663 -0.23226282
112 -0.73722273 -0.17250355 1.1375173 0.2634233 -0.13878193 1.0520713 1.1365554 -0.90963274 0.5978046 -0.0026067905 0.7790084 0.14733252 0.08832798 -0.007231884 -0.50836414 0.40826643
136 1.6169186 0.4681021 0.62344855 -1.1498529 0.20303765 0.6817248 0.8106186 0.05002001 0.5945443 -0.9096013 -0.38021576 -1.0158688 2.3192315 0.9805294 -0.7923642 1.9968084
206 2.1665103 -1.014451 0.4292351 -0.04885407 -0.9796037 0.43408614 0.76334226 -0.18914624 -0.33806527 0.61794406 0.9675242 0.14187549 0.36412063 0.33683318 -1.1844696 -1.7724355
159 1.6037115 0.14779954 0.73917633 0.113961436 -0.0050053755 -0.3316415 0.08168271 0.1875533 1.3959069 0.5247022 0.5335954 -1.4837863 -0.4275192 -1.3311603 -1.2844211 -0.45302272
34 -0.062424615 -0.18067881 1.105329 -0.5930851 -0.4259963 -0.6028104 0.40044925 -0.89592415 0.24193503 0.738002 0.2323763 -0.15595107 -1.2888156 1.6054531 -0.39331144 1.3238829
9 0.064677455 -0.2115368 1.306897 0.06067507 -0.052754726 0.60187876 0.5272806 -0.51552737 2.029226 -0.8514606 0.25444776 1.4931712 -0.5447973 1.2311007 -0.16120198 0.54323214
119 -0.21263069 -0.045484103 0.92386436 0.19955997 0.3422868 0.26627672 0.900412 -0.42405865 0.24550995 0.21351567 1.5555772 0.2105134 0.36848506 0.05846342 -0.35056496 0.19326733
287 -0.56124604 -0.25940785 0.9784446 0.37305287 -0.50675625 1.6815176 2.1097126 -0.7453358 0.87909126 -0.54919195 0.04194786 0.1287294 -0.06960583 0.263604 -0.70929956 0.5346658
431 -0.6662074 0.30126053 1.2360978 0.5429814 0.089523904 0.11981972 1.2016615 0.09027804 0.3542897 0.22884995 0.9067375 0.55798507 0.6903624 0.048675377 -0.90069616 0.13289438
325 -0.25678122 0.43284795 1.5272751 0.36677217 0.05227665 0.33202526 -0.42653152 -0.876661 0.17778833 0.11953245 1.0140734 -0.33389103 0.68244946 0.41818485 -0.26844317 0.6878588
438 1.2327502 0.17252207 -0.06342107 -0.6675659 -1.0243387 -0.4860503 0.62178993 -0.14514397 0.9459638 0.43607068 1.7321405 0.8936048 0.70416 -0.34542486 -0.53944063 -0.6955719
317 0.029504068 1.1943817 1.6540228 -0.5752787 0.011057006 0.06212279 0.36907044 0.6557483 0.12715606 0.7884231 0.3836959 0.025774369 0.9270075 0.47998714 -0.21922739 0.8241938
142 1.7363724 0.003530402 -0.15618847 -0.8034203 -0.83935505 0.31862053 1.1283138 -0.048674803 -0.1095177 0.47721228 0.9858715 0.14742063 0.70992404 0.08875709 0.0687808 -0.4644377
120 1.5138834 1.6494625 -0.10246322 -0.69830334 0.29400718 0.7562719 1.2301172 -1.4321833 -0.20749415 -0.548772 0.17101613 -0.022986123 1.1448733 0.53455263 -0.47216547 0.10693139
72 0.17996085 0.49250555 0.77447754 -0.79988813 0.061486684 -0.9402518 0.8212176 -1.5969393 0.5524456 1.473912 -0.04057943 0.1192445 -1.0056462 1.5657033 -0.38252854 0.66257536
375 2.0581932 -1.3219947 2.1026917 0.7033886 -0.39669287 -0.9433487 0.23088646 -1.2195628 -1.262432 -0.51654166 -0.82611245 0.018324459 0.15211704 0.4262116 0.2902742 0.34017026
47 1.398967 1.5030221 0.041105434 0.5690658 -0.035504773 -0.30315593 0.8197621 -2.4791174 -1.0191553 0.017326262 1.0277905 -0.06400808 0.71153474 0.22104777 -0.8002633 0.4134124
221 1.423398 0.016432028 -0.0074552377 -0.44306624 -1.7146685 -0.39737788 0.8560834 0.22698103 0.95286816 0.08855551 1.5890054 1.6054163 0.31841087 0.45069885 -0.7192217 -1.0613502
35 1.4932209 1.4956255 1.9033636 0.3484184 -3.0705464 -0.9663178 0.89528155 1.3457712 0.9426879 0.7020842 -2.2215254 0.22643442 -0.6259645 0.56289107 -0.81746083 0.6342871
415 -0.45041642 -0.6140975 1.5104977 -0.55925554 -0.5250669 -1.3131765 1.2830262 -0.2960338 -0.83371466 1.0588098 1.9355805 0.26710445 -1.198456 0.28606167 -1.8680775 1.1036643
122 1.9434369 0.019121692 0.8721946 0.44184166 0.47218725 -0.5269013 0.11412529 0.2511743 1.3380454 0.87108386 0.8047663 -1.352113 -0.5617972 -1.2590914 -1.1199291 -0.24922758
176 2.0017717 1.3327922 1.3301476 0.88335145 -2.0906875 1.1619364 0.2018607 0.94859767 -1.0356593 -0.95852304 0.38924083 0.9040596 -0.9274617 0.74583316 -1.7485863 1.4917119
175 1.2496572 -1.171484 1.1473716 0.6475911 -0.49998707 -1.3537257 0.45940056 -1.5063366 -0.16152339 -0.34787574 -0.32368088 -0.3854924 0.3951121 -0.20181121 0.717958 0.9826545
148 -0.4552105 0.8230868 1.4344232 0.69033885 -0.45999694 0.059665743 -0.3248108 -0.352156 0.21108593 -0.41073582 0.5149741 -0.121477574 0.44807962 1.0119997 -0.43344638 0.43771344
376 3.137742 -0.9809296 0.45877463 -0.55946416 -1.408768 0.39711812 1.06876 -1.1960895 0.96786535 0.70954144 -0.38759947 -0.64728385 0.59014755 0.7457687 -1.0520079 -2.665706
44 2.0366502 0.5515302 1.0933754 0.6706939 0.4613785 -0.45261776 -0.010484537 0.41438493 1.0323273 0.3372106 0.27849188 -1.5792518 -0.7678214 -0.9972409 -0.90047485 -0.1262151
342 -0.35625106 -0.2907942 1.3924876 -0.12954123 0.37142864 0.5105362 0.4680756 -0.58159214 0.40414545 0.048436724 1.0893036 -0.18984292 -0.10194355 0.21946667 0.060943957 0.76337326
128 1.198053 1.2477536 1.0993849 0.61893207 -2.049517 -0.22315612 -0.06641583 0.2717834 1.6110604 0.77281594 -0.6991374 -1.1881292 -0.23322558 -0.5641266 -0.3136137 0.60765684
134 -0.18876888 0.5788733 1.2533921 0.33741993 -0.72394633 0.27893698 -0.37325433 0.17701489 0.19587174 0.061378505 0.60919106 -0.3291063 0.6288298 1.3405235 -0.9558232 0.102493495
282 2.1704743 -0.72926176 1.6030853 1.3929894 -0.64507025 -0.9478628 2.3448915 -0.94188297 -0.4043275 0.9637794 -0.41177395 0.09941126 0.12197182 0.64782184 1.7640398 0.68485355
56 0.7255876 -0.67125964 1.170259 -2.8499665 -2.2464316 0.34189013 0.28996947 -0.18058988 -0.8650286 -1.134723 1.3489399 -1.8283077 -0.11861457 0.2336118 -0.23379502 1.3539413
377 1.3557953 1.1206421 0.5596643 0.2741101 -2.3025255 0.021011101 0.50680727 -0.60526335 1.4988811 0.034255344 -0.23971748 -2.4107795 -0.3684752 -0.80323094 -0.3940639 -0.5109188
349 0.89651436 -1.2495679 1.1965364 0.9556378 -0.910506 -1.1352285 1.6996332 -1.0300349 -0.025763024 0.75993127 -0.320165 -0.50891364 0.4728446 0.14840765 1.0971749 0.69247943
191 1.4043745 1.4744655 1.8262378 0.36510962 -3.2042062 -0.9848966 1.0090622 1.1109395 0.62820053 0.5274066 -2.2240236 0.66786855 -0.64082026 0.5302181 -0.8654903 0.85827196
338 0.10481235 0.41999432 0.815148 -0.8269529 0.62246156 -1.4282395 1.3729703 0.4740061 0.77165 -1.6540114 -0.20172031 0.9814575 -0.11935876 1.1713681 -1.2570018 0.3601068
186 -0.6585091 0.39546847 1.0405595 0.89047325 -0.6427347 1.3808185 2.2711496 -0.7637294 1.0502495 -0.9442068 -0.032801904 -0.9447815 -0.8874491 0.85910255 -0.57694054 0.96959007
211 -0.93567014 0.50482035 1.1206862 -0.99956584 -0.40975064 0.54451907 2.1617167 -1.3113967 0.7320912 -1.0784804 0.19469924 0.9923282 -0.2688358 -0.0014598351 -0.36739233 -0.24465364
36 0.17286092 -0.23227575 1.5949938 0.07593483 0.70718265 0.22125718 0.20919837 -0.48181534 0.45600507 -0.44396177 1.4883659 -0.2878473 0.22593151 0.048276395 0.41289258 -0.25250828
283 0.9131182 -1.4199935 1.9048897 0.67624176 -0.43490115 -2.0176086 0.66777974 -1.376227 -0.4434152 -0.63316673 -0.085598566 -0.21865457 0.17366615 -1.0578998 0.43785885 0.7480389
273 -0.4003984 0.9244704 1.5346681 1.3613851 -0.04498844 -0.23824823 0.53157055 -0.42514277 0.97114414 -0.8456855 0.38504654 0.4921284 1.231618 0.54761624 0.047298234 0.31126446
70 1.4063643 1.5500183 0.43237242 -0.6366383 0.67658037 0.9641132 0.8827723 -1.1744045 0.03216741 -0.54074 0.25214556 -0.9256193 1.6458338 1.155091 -0.6736308 0.24579671
294 1.1334461 1.4981878 1.4423013 0.15651354 -0.65587986 -0.021851953 -0.67991817 -0.8816042 0.6679556 -0.24444358 -1.3169763 -0.4230148 -0.53154224 -0.09072075 -1.0952365 0.4815163
264 -0.29647797 0.55505836 1.3689508 0.01067074 -0.36275548 0.040177193 -0.5389496 0.23542282 0.620783 0.1942615 0.45876125 -0.21175213 0.5837567 1.1400918 -0.6300821 0.46356007
285 1.7087922 0.44675326 1.4126638 -0.1045026 1.942937 0.09439497 1.1757091 0.5888358 1.0986485 0.18181194 0.13364097 -1.3681579 -1.1902828 -0.6822476 -0.45150092 -0.11146185
408 -0.00089647825 1.068324 1.3089026 1.0845608 0.86981976 -0.048240088 1.040722 -0.5735045 1.4489886 -1.1727266 0.20896798 0.30286688 0.01048889 0.65493274 0.26308316 0.5885606
45 2.0758731 1.9125731 0.34517765 0.30803245 -2.469768 0.10847884 0.96472967 -0.60252166 1.4733863 0.14629279 -0.3377637 -2.4042077 -0.8337839 -0.50082767 -0.2629486 -0.6166941
277 -0.106885865 0.28273615 1.215064 1.4762572 0.40414512 0.9389888 2.5914857 -0.018183697 1.1117095 -1.3571725 -0.28667265 -1.6623585 -0.5080474 0.88081914 -0.8351843 0.352355
196 0.24527931 0.1357646 1.1205455 0.7497694 0.7662766 -0.78837246 1.8836341 -0.9813709 1.367352 0.093944706 -0.41178828 0.9833652 -1.107816 0.51432323 -1.0677564 -1.5406739
100 0.6136339 -0.21390441 2.6285937 -0.92369354 0.6106319 -0.33964038 0.9298211 0.3177662 -0.94249445 0.5461563 0.20131214 0.051740915 -0.5866223 0.2157914 0.27598503 1.2330186
257 1.2077606 1.5815395 4.5475125 -1.6452464 0.24282436 0.36816728 -0.89493567 -2.7978837 0.81848025 0.17277323 -1.4120015 0.3554313 -1.4865829 -1.9130721 0.1849188 -0.44124916
265 -0.010774385 -0.091128744 1.0257407 -1.08367 -1.396104 0.062169842 -0.16934223 -1.0028583 0.5496534 -0.39579093 -0.3532427 -1.1734109 -0.83652467 -0.33888853 -1.7765756 -1.0699214
245 2.2298155 -1.2142043 2.0608678 -0.16022295 -0.62925303 -0.73892677 0.12024644 -1.2652574 -1.2018346 -0.7712148 -1.8602599 -0.16766569 -0.072521925 0.81657237 -0.21119292 0.6039759
149 0.19430298 -1.4447223 1.7614272 -0.03893953 -0.16347538 0.75191283 0.051738344 -0.5148034 1.821844 -1.2190988 1.3929992 0.1361777 -0.5873198 1.23653 0.24448526 0.20555782
241 1.3584726 -1.6941622 0.5295464 0.7012594 -0.7143583 -1.6741123 1.4182937 -1.2715768 0.33813617 -0.066726506 -0.18297759 -0.0106154485 -0.2950225 1.1263068 0.8648452 0.51840055
364 0.072326794 -1.571488 2.5218358 0.42856684 -0.27649763 -2.3057964 1.3505791 -0.84084696 -0.0082352115 -0.07189689 -0.067141056 -0.14412902 0.6134344 -1.4735084 0.35317537 0.35326073
422 0.24146307 0.026965292 0.49462688 -0.18396859 -0.3621288 -1.0570765 1.7079623 0.21870857 -0.16688427 -2.079547 1.0754943 -0.018952059 0.3168355 -0.15103994 -1.3731426 -0.4577826
147 2.3574114 1.198109 2.0606854 -0.24038914 -1.1211008 1.552167 0.08645759 -0.4844256 -0.25393367 -2.7850866 2.1895278 -0.1561324 -0.8720412 -0.2613716 0.7816272 -1.15316
144 1.4308968 -0.14460374 0.46405527 -0.17310752 -1.18038 -1.1825745 -0.2774766 -0.21944009 1.3690491 0.40758395 1.5989646 0.64669955 0.2285088 0.14020798 -0.32753432 -0.951212
15 1.4613302 0.36270398 0.63629574 -0.046672173 -0.566315 -1.8719115 -0.06043061 0.29713273 0.69765395 -0.6872334 2.367576 0.7235175 0.11214388 -0.76491743 -1.7047609 0.023433687
121 0.8294139 0.15778024 0.65506846 -0.008839556 -1.1775023 -0.2699351 0.10364537 -0.7566377 1.0281051 -0.06187812 -0.12537077 -1.9617625 -0.2846405 -0.9371356 -0.85709584 -0.8002314
32 0.17248064 0.6587435 1.4229753 0.36445802 -0.21757716 0.716262 -0.60545945 -0.2516502 0.34878165 -0.18076925 0.73400474 -0.83224577 0.98579705 1.557296 -0.7857807 0.37375364
266 -0.33677164 -0.8508187 1.5183343 -0.10487569 -0.598515 1.1608715 0.21673687 -0.67881906 1.4312445 -0.63681203 0.45989406 -0.016241904 -0.5756037 0.23647495 -0.18741791 -0.060973115
370 1.3840983 -2.3496428 2.8603623 -1.9917171 0.3725272 0.39052534 0.57521546 -0.4413959 0.9503454 0.43569735 -0.18565507 2.2184184 3.5977318 -1.9092867 -2.912685 1.495167
263 -0.6334964 -0.59071004 1.2784812 -0.020414287 -0.62561965 1.6458671 1.2243356 -1.1621784 0.78462017 -0.15417354 0.40098667 0.023653638 -0.22645515 -0.07025797 -0.4140539 0.27767608
143 1.5569375 -0.07845304 0.7309189 -0.83087444 0.42075142 0.44345963 1.2275285 0.24338874 1.0357326 -1.277195 -0.25410917 -1.6554502 2.3963025 1.2238554 -0.2033191 1.42582
168 -0.14237827 -0.9153388 1.9744483 -0.08818762 0.45331734 0.37709773 0.3065901 -0.40348262 1.0959516 -0.7554214 1.3698301 -0.37555814 -0.20655902 0.8007871 0.649809 0.18776637
253 1.4585419 1.1912773 1.8833798 -1.1955025 2.0508604 0.21294276 2.7240605 1.1071068 1.9843411 0.67362297 -0.21996832 -1.2293913 -1.815853 -1.2442753 -0.0475343 -0.06532362
20 0.65554667 -0.9492956 0.57530814 0.3475865 -0.50274473 0.5607147 1.9902444 -1.4125819 2.416014 0.8188057 0.40242723 0.4936515 -0.8257224 -1.8073351 -0.30866858 1.7133255
372 1.3684064 0.5595931 0.9671126 -0.22206831 -1.2168516 0.19440731 -0.30308947 -0.6730113 0.4354669 -0.5122327 -1.7575179 -0.67025125 -0.5273886 0.46944544 -1.2247478 0.1710791
440 -0.13609564 -0.006880338 1.0216577 -0.35033187 0.56497085 -1.2008563 0.95865375 0.59309745 0.68679595 -0.5650844 0.37173823 0.97239465 0.11146363 1.3484844 -1.5997076 0.669189
214 0.39418185 0.44003713 2.0816135 -0.9546859 0.6854096 -0.0046828636 0.5679876 0.3475308 -0.2299564 1.050312 0.3754171 -0.21695131 0.18907386 0.52369547 0.07900509 1.2303063
406 1.0647084 1.7364311 0.14353855 -1.1684213 0.24458705 0.25400954 0.8016176 -1.3324933 0.11796017 -0.25576323 0.05091063 -0.6015824 1.9811298 0.91546726 -0.9470932 0.27915058
400 0.7380695 1.0571901 1.1990498 -0.46001336 -0.35230273 0.35070112 0.65620935 1.1330061 0.15866116 0.79224324 -0.19065005 -0.37534067 1.0123079 0.24134254 -0.22501501 1.0406508
339 0.09344153 -0.24200667 1.0366578 -0.38888705 -0.81588507 -1.5796331 0.2488565 -1.3914362 0.4247782 0.15026274 -0.35352552 0.097036466 -1.2334766 1.3450022 0.08013795 1.4362426
46 0.0111807985 -0.25430456 1.6220951 -0.55699235 0.4806826 0.13068187 0.342073 -0.31403673 -0.10773919 0.47123674 0.47881413 -0.23644346 -0.6107228 0.4826802 -0.037687425 1.1942127
289 1.842153 -1.0250696 0.6121802 0.6459556 -0.75023353 -1.699536 0.63339216 -2.4112964 -0.17063834 -0.3833895 -0.06948581 -0.117957406 0.072518006 0.38025784 0.94823736 1.2566394
71 1.49754 -0.653203 -0.04820789 0.82761747 0.22736736 -0.10637353 1.6406862 -1.0665666 2.415662 0.82808095 0.481741 0.5704272 -1.1553912 -1.1618214 -0.8990275 1.094864
67 0.182595 1.3536779 0.47241458 -0.9597764 0.5341135 -1.0988568 0.58769697 -1.138313 0.53094614 -0.3577351 0.53194183 -0.85623306 1.8299837 0.95270646 -0.61378443 0.4677251
433 1.7903711 0.7948847 1.1265843 -0.032053854 1.8731006 0.049270518 1.284022 0.85674274 1.8284537 0.69488144 0.11653894 -1.0826801 -0.7986518 -0.82664824 -0.8545209 -0.07511525
319 0.560824 0.31529796 1.7910385 -0.11086647 1.623983 0.18528602 0.63348 -0.52352566 0.85469496 -1.3678141 0.98127735 -0.63300294 -0.45568445 -0.23908348 0.32452238 -0.2673902
270 -0.29350862 -0.26061523 1.4294918 0.5696012 -0.18416886 0.2741546 0.9085709 -0.38607368 0.31992698 1.0084503 1.682231 0.8666773 -0.09208144 0.29703945 -0.7885022 0.637726
383 3.198363 1.5078 1.4079756 -0.97039956 -1.0533308 1.0973264 0.46224034 0.03105315 0.74295676 -2.4873211 2.894191 0.20637137 -1.6213399 -0.20378928 1.3407631 -0.47670022
113 0.07025615 0.6889084 1.239703 0.797931 1.0156641 -0.48656586 2.328401 -0.67239255 0.7222202 0.018776396 -0.18659845 0.8002858 -0.88403016 0.40996137 -1.6687523 -1.6079674
328 2.2072182 1.7532083 -0.25750187 -1.288761 0.15744036 0.9539045 1.8566651 -1.3349682 -0.2972657 -0.16704348 0.46175516 0.012547327 1.3905783 0.343344 -0.16920806 0.41223735
173 2.3255491 1.2062856 2.5680687 -0.60143167 -1.0698073 1.3361263 0.11545981 -0.11027433 -0.5421016 -2.615226 2.2608106 -0.12241659 -0.7474751 -0.35310596 1.2144017 -1.0612319
239 0.33195183 1.1109376 2.2512188 -2.3131883 -0.15496983 -0.68211 0.763617 -0.40139082 0.57770586 1.8998712 0.7695799 0.65999943 0.090540394 0.80391836 1.176105 -0.029982094
65 0.19323917 1.3448213 1.3118299 0.66908103 -1.0271841 0.01808936 -0.15182218 -0.43330634 -0.87936074 -0.72581506 0.42264813 0.37037903 0.36530414 0.5354261 -0.9026517 0.3464636
361 1.3188949 1.5902598 3.815039 -1.1437014 -0.056033827 0.3638642 -0.91123337 -2.2721958 0.32503164 -0.011363921 -1.5127527 0.031169135 -1.0192215 -1.7417122 -0.45584846 -0.53969926
183 0.40112764 0.33616576 1.3219206 -1.1203111 -0.40479746 -0.5385089 0.72063935 -1.5104939 0.5772702 1.3755939 -0.28243774 -0.1662259 -1.9380611 1.6751302 -0.28753084 1.3463205
429 0.86844105 -1.0202856 1.310278 -0.045392632 -0.03625706 0.41840762 0.15710816 -0.46940827 2.152412 -1.4793848 0.78052425 1.5586039 -0.5443342 1.7182164 0.041877333 0.36460087
240 -0.73100966 -0.20942907 0.9112282 -0.29925582 -0.5490912 1.286034 1.741449 -0.983581 0.8642031 -0.36230093 0.2864287 0.27647737 0.09777993 -0.25734797 -0.23069923 0.1555256
445 -0.47543338 0.84404904 1.4140438 -0.47857955 -1.3724049 0.4984719 0.48542896 -0.305847 -0.5672881 -0.85139704 0.18457216 0.47253406 -0.3384951 0.5768434 -1.0428786 -0.77584326
235 1.9181377 -1.3616292 2.0151224 0.32551512 -0.820924 -1.0540446 0.11195677 -1.272118 -0.8802227 -0.7154084 -1.4415958 0.18549444 -0.11137684 1.0005697 0.06230091 0.55141324
366 3.1684654 -1.6291541 0.3310786 -0.31773272 -0.87929016 0.6956147 1.2791992 -1.2562783 0.5664383 0.6864299 0.10459414 -0.45621842 0.21489204 0.9830978 -1.6619922 -2.653492
171 2.4696243 -0.99818516 0.31808704 -0.4742401 -0.9900076 0.24929284 0.44820234 -0.82657355 0.35285604 0.4820311 0.24422742 0.121021524 0.101509765 0.64793277 -1.1446812 -2.0336552
40 0.80857134 -0.2633515 0.59725374 -1.6458646 -0.47202742 -0.9627325 0.09543169 -0.31546164 0.55927163 -0.8527266 -0.79955584 -0.78760463 -0.66970867 -0.48126823 -2.6090803 -0.52061576
286 0.38773623 0.74607295 0.60692173 -0.66555077 0.38430482 -0.84697235 -0.0042288206 -1.8807127 0.019260433 0.98740035 0.951897 -0.93149436 -0.041239243 2.1423886 -0.98211133 0.10083892
23 2.126675 0.6988028 -0.32813957 0.33848435 -0.45555916 -0.27501994 1.306662 -2.0170536 -0.93203264 0.3506111 0.8801126 -0.005852631 0.4431294 0.0030539301 0.16622084 0.6964856
378 -0.34942842 0.15826003 0.6175576 -0.28972468 -0.10018026 -0.042993106 1.542203 -0.52881026 -0.27609393 -1.0562012 1.689417 0.1693337 0.42386997 -0.11364197 -0.7601556 0.3598947
77 0.16937058 -0.2959422 2.125114 -0.21254241 1.127495 0.24991168 0.6745695 -0.43184498 1.0256169 -1.1663588 1.5760975 -0.48991546 -0.45163736 0.6629824 0.68095386 -0.317093
275 2.4068966 0.9456981 -0.12030178 0.53057843 -0.22861426 -0.26322922 1.1901778 -2.7656102 -1.1624207 0.04689202 1.0284156 0.034172487 0.49325177 0.09707642 -0.31367353 0.9144526
43 -0.066295356 1.3168204 1.0549318 -2.3297954 -1.1943115 -1.5237842 1.7598202 -1.5649166 0.8857937 2.8181577 0.24926902 0.09694098 -0.577437 0.83119094 0.16779236 0.30146056
195 -0.75949395 0.74850494 0.71848786 -1.0748146 -0.9377264 -0.10854673 2.230865 -0.94942945 -0.15374461 -1.4228313 0.63997185 0.7502509 0.11225337 -0.2681105 -0.72778445 -0.23002543
371 2.0233018 1.2054908 1.5134828 1.0980977 -0.9557506 -0.2928114 -0.23089947 0.3768017 1.1636024 0.30177268 -0.8716242 -1.4169552 -0.55043304 -0.2848347 -0.25734398 0.10209942
61 1.5483681 0.089502625 0.5931596 -0.010987282 -1.0164939 -1.567989 -0.457417 0.06493961 0.90235573 -0.49215373 1.71795 0.705584 0.037147675 -0.80365646 -1.2450666 -0.15566994
238 1.8010503 1.9076396 0.09768564 -0.70520073 0.43209726 1.0929453 1.5437766 -1.741297 -0.056347385 -0.52388513 0.21382882 -0.44244775 1.5676485 0.6544861 -0.35737458 0.038001537
447 1.9215851 0.33557653 0.58748996 0.04630123 0.71302074 -0.1775047 0.57575953 0.6698335 1.8259188 0.90372294 0.5633593 -1.329064 -0.39351353 -1.0660169 -1.1772828 0.015942382
93 1.9180665 -0.89746094 2.4449632 0.80414236 -0.13982764 -0.77613896 0.98493373 -0.6301245 -1.73879 0.50119036 -0.12530652 -0.012139909 -0.5129114 0.27465582 0.73581 0.6538071
446 0.5527497 0.13971685 0.74001646 -0.23248655 -0.29945415 -1.9554447 0.47359148 1.0185136 0.7464844 -1.1933678 1.8867463 0.28606832 0.16150063 -0.08150575 -1.98305 0.13695222
337 0.75593674 -0.34751037 1.0128787 -0.19814621 0.25095683 0.29704502 0.7765382 -0.3391076 2.3578224 -1.2888762 0.13800463 1.5995748 -0.7920179 1.6687565 -0.15571283 0.025317758
185 0.6467029 0.20751792 2.8309462 -1.4268787 0.7181452 -0.04409788 1.1977751 0.67413634 -1.0085737 0.7184675 0.3226299 -0.17253622 -0.52274716 0.1862694 0.0940002 1.3012851
14 2.1502657 0.40211976 0.654212 -0.91637266 0.6290204 0.86239976 0.7187843 -0.17598072 0.69784707 -1.2701303 -0.37321535 -1.5774328 2.3372943 1.1582227 -0.7355389 1.407566
254 2.7654018 -1.2308453 0.3167137 -0.43210784 -1.2444913 0.3223077 0.74098825 -0.8816815 0.26944956 0.39011 0.43605837 -0.22517926 0.18291982 0.4449669 -1.304055 -2.3478315
404 0.58533293 1.862293 0.15136722 -1.2311109 0.66233575 -0.9221265 1.0787233 -1.1538391 0.56078315 -0.6562802 0.23909661 -0.26506248 2.019569 0.9009289 -0.62156063 0.48790064
6 -0.30577812 0.8290377 1.3758754 -0.31209886 -1.1971328 -0.32252324 0.39089897 -0.36353266 -0.9356993 -1.1414561 0.11919067 0.27772605 0.095765606 0.6810114 -0.64519095 -0.5003924
242 0.6909418 0.111849174 1.8321476 0.45041278 -0.19636871 0.32888582 -0.009206945 -0.35682437 0.26762778 -0.7016608 1.3414685 -0.13059525 0.597272 0.24629618 1.0683851 -1.148046
251 0.6584591 0.23050508 2.4048746 -1.8514729 0.59445274 -0.033434372 0.9437049 0.2597022 -0.93193936 0.99220693 0.31160498 0.11442188 -0.36675498 0.40829805 0.016921481 1.0582933
225 0.8069104 1.5193092 2.2481067 -0.5446204 -0.6566012 0.26285243 -0.71054274 -1.6126873 0.17286654 -0.29337454 -1.3045189 0.15642825 -0.785283 -1.1531972 -1.026748 0.010889537
229 0.5714403 0.5244578 0.40041658 -1.5419072 0.6257717 -0.8172149 1.2968533 -0.68831867 0.59382755 -1.0451238 -0.006172134 -0.9958827 2.0597925 1.3666477 -0.24154244 1.1232319
409 0.36466345 -1.1223246 1.6905091 0.6462902 -1.0425936 -1.3579298 2.2796345 -0.7387968 0.07167321 0.55652267 -0.49345848 -0.81478894 1.3785157 -0.40189895 1.084122 0.37084258
281 1.2531575 0.39643335 -0.16164562 -0.8297665 -1.591403 -0.846008 0.6851297 0.40981334 1.2779557 -0.020031314 1.6659043 1.3041775 0.6840038 0.23637125 -0.38651454 -0.30404165
313 2.0330129 -0.14822392 0.6274251 0.24295375 -1.8145097 -0.25652277 0.14903578 -1.1127123 1.6863586 -0.18872195 -0.7353405 -1.3031144 1.2592937 -0.46811563 -1.3979555 -1.8179917
203 -0.62298936 0.1376154 1.0043969 0.047296114 -0.4398308 -0.3247102 1.3344121 0.82262635 0.14182132 -0.4428791 0.90195507 -0.07854526 0.68993676 0.67142993 -1.5372823 -0.31126913
114 -0.16365816 0.07976547 0.93886906 -0.21264777 0.13763449 -0.044223532 -0.021666147 0.22510551 1.2640145 -0.23840804 0.0073736436 0.5009589 -0.19705811 1.4465573 -0.8518162 0.684022
271 1.2430038 -1.2118195 0.71900636 0.19763353 -0.3997536 0.58078253 2.3507466 -1.7231915 3.0515578 0.71355546 0.3079873 1.0391002 -1.0134262 -2.347014 -0.32084548 2.0951133
267 1.3775702 0.34730032 0.8900425 0.7137139 -1.612026 -0.31411886 -0.26795295 -0.8022468 1.7908545 -0.0515567 -0.36987215 -1.8195121 1.0727762 -1.3029461 -1.0246856 -0.6376793
444 1.609614 0.27362823 0.7827687 -0.5360993 -0.94673264 -2.2279863 0.13200924 0.660273 0.46510154 -1.3476087 2.1959274 0.7810742 -0.05582915 -0.74084204 -1.4632599 -0.40671274
416 -0.23294789 0.63563854 0.781301 0.28849298 0.24434106 -0.11331109 1.7265553 -0.040138777 -0.21964829 -0.4537262 1.1350671 0.63334644 0.4217368 -0.08951551 -0.90073276 -0.35496736
189 1.2500052 -1.9679395 3.1703072 -2.260293 0.52703 0.6729964 0.42036802 -0.53500086 1.443918 0.0905884 -0.3583106 2.057194 3.353105 -2.208605 -2.5862043 1.8464217
442 2.5438614 -1.4276633 0.47701693 0.047735084 -1.493117 0.4934808 1.0835363 -0.104703404 -0.21472684 0.3567173 0.78400165 0.09706223 0.44916168 0.11270394 -2.186619 -2.1049051
346 -0.45588234 0.16799533 1.2974374 0.0025063718 0.3148514 -1.3072124 0.8831251 0.60276765 0.45754388 -0.19087116 0.956115 0.9903271 -0.022941722 0.4918845 -1.4108325 0.44554585
89 1.3297721 -2.22714 2.8150005 -2.169682 0.4159947 0.72512645 0.5521002 -0.7827472 1.1862166 0.30514404 -0.6088325 1.9742362 3.3710835 -2.0371916 -2.7299275 1.716243
411 -0.15392278 -1.5546173 2.2157874 0.23727427 -0.84195143 -1.6672465 2.1517212 -0.5167748 0.6085608 0.28937924 -0.38112047 -0.76421964 1.0676581 -1.6188561 0.8551222 0.39683762
395 1.9444442 -2.4505093 2.4556377 -2.5716906 0.9846731 0.5951192 0.29959258 -0.6657264 1.399538 1.3746396 -1.3032687 1.7745322 1.7923628 -0.8749365 -2.8669033 1.1300702
156 0.8950491 1.792134 0.8618867 1.3278918 -0.36247453 -0.47286665 0.093953736 -1.4158226 -1.1501384 -0.25149584 0.5419535 0.20755287 0.4999816 0.09298408 -0.9062367 0.49809003
132 1.6423945 1.7086015 1.6173474 1.0076892 -1.647027 0.96931297 0.1144309 0.1341509 -1.3607293 -1.1030215 0.5296228 1.0799996 -0.7056813 0.689791 -1.3338788 1.2210292
425 0.57519513 1.3207767 1.4891365 -0.32921085 -0.34873328 -0.079236105 0.98001844 1.1074648 -0.17271632 0.84570545 0.07284171 -0.064147234 1.1046942 -0.042399123 -0.089461125 1.2242155
79 1.2391651 0.9046878 1.1088101 -0.37239984 -2.0507238 -0.4275193 0.14732179 0.45036632 0.88859 -0.1625711 -2.0365686 -0.064711474 -0.5930176 0.5893913 -1.3591613 0.46015564
348 -0.47177073 0.7735679 1.5935935 -1.1218493 -1.572007 0.47391587 0.11440279 -1.0646524 -0.09416545 -0.53896576 -0.52148294 -0.16231136 -0.7118051 -0.12729399 -1.3450869 -1.2772712
208 1.3988899 0.01215827 0.70722055 -1.6196313 0.2522039 0.33904994 1.5085512 -0.3207339 0.41151446 -0.9388261 -0.36348027 -0.9232122 2.7300742 1.5632901 -0.8016723 2.4511726
308 0.3326587 -0.9448236 1.1787372 -3.343542 -2.2363307 0.5782079 0.26357934 0.1502716 -0.02994418 -0.7515546 1.0193002 -2.1044385 -0.46000358 0.35301635 -0.81171006 1.4937825
224 -0.5508416 0.6599128 0.6489115 -0.84210956 -1.0685519 -0.57322204 2.4057903 -0.9484507 -0.5464692 -1.6924591 1.2516897 0.4641425 0.75480556 -0.4129667 -1.0744094 -0.011347681
74 1.6456991 0.2258929 0.72445923 -1.6418732 0.025050772 0.8007847 1.5429474 -0.21783288 0.22720422 -0.9033846 -0.31743392 -0.96790993 2.799822 1.3226397 -0.73113227 2.5777025
207 1.5359751 -2.2239363 2.673272 -2.1953228 0.70277804 0.36494014 0.30207646 -0.3360413 1.266651 0.68757427 -0.74927634 2.0168803 2.7520354 -1.5888973 -2.8859448 1.0266294
426 0.029203935 1.0283567 0.8434939 0.21543108 -0.47825137 -0.21201104 -0.24898672 -0.48127165 0.34125507 0.81593853 1.0708338 -0.69907373 0.6168754 1.1218058 -0.48436674 0.1200113
272 -0.13124184 -0.13596083 1.8372515 0.4810084 -0.38644856 1.183495 1.1802866 -0.18245634 1.0929551 0.5128088 1.3203564 1.7971225 0.19167306 0.80312216 -0.47863746 0.94007623
310 0.5405802 -0.87880737 1.4388531 -3.1910436 -2.212495 0.48582163 0.40786892 0.23423058 -0.70948106 -0.72173166 1.2942927 -2.0147984 -0.18308498 0.3863725 -0.5876226 1.6950836
373 2.0025032 0.897273 1.056547 -0.21347979 -1.4850708 1.4692748 0.61515784 -0.6990734 0.26012602 -2.7496018 2.0393577 -0.5612283 -0.4843189 -0.58896023 0.6127234 -0.90073824
399 -0.5991108 -0.44267944 1.8710142 0.041011434 0.58239836 0.5297397 1.0110474 -0.7178285 0.8441291 -0.89446974 1.2718264 -0.26138046 -0.42985505 0.6748627 0.1579729 0.97306585
357 0.64739364 1.6677129 0.8888826 0.7798683 -0.15026914 -0.28574774 -0.40095797 -1.0628338 0.07310262 -0.11684739 -0.41485605 -0.6540391 -0.15627657 0.109710746 -1.5368718 0.741146
97 2.7075295 0.9607292 1.277909 -0.62730193 -1.5040799 1.1783552 0.64141816 -0.37683478 0.5927502 -3.0058973 2.156213 -0.41853353 -1.1740208 -0.519172 1.0957376 -1.1457671
31 1.3889223 1.4151412 0.801604 0.65272474 -2.2403874 -0.018818496 0.5001146 0.018301351 1.5645698 0.45648435 -0.5051709 -1.9809787 -0.37328193 -0.39064792 -0.24197061 -0.23522814
374 0.8671602 0.50999486 0.64779943 -0.5702011 -0.8375788 -2.3717883 0.9672334 1.3693278 0.6643515 -0.56048614 1.6366761 1.2262477 0.3244167 -0.09979761 -0.5842292 0.4772195
115 1.3636161 0.9751735 0.026273228 -0.18952836 -0.5581261 0.9987895 1.0681053 -0.8792367 -0.5603793 -1.2662255 0.7166052 -0.63030326 0.6673428 -0.34190145 -0.78280884 -0.40294373
160 0.37343287 0.31123006 0.8444909 -0.47099042 0.8358788 -0.42822435 1.4103152 -0.07621307 2.1634145 -1.242816 -0.3635766 1.238593 -0.5737875 1.0587995 -0.47352704 -0.73317707
82 -0.7751695 0.6068184 1.4607852 0.9927801 -0.90546125 1.0657113 1.6660166 -0.5043637 0.7349029 -0.89947796 0.28883657 -1.348131 -1.0549699 1.5465093 -0.60395265 1.3618386
21 -0.5900848 0.8207156 0.93329835 -0.64312553 -0.90295947 -0.04915741 1.482092 -0.5173324 -0.38796034 -1.2932974 0.6651447 0.74740183 -0.24082142 0.1620876 -1.0422575 -0.6615107
414 1.542383 0.9436162 1.4540884 0.8983458 -2.335969 -0.6627502 0.7489397 1.2000797 -0.175994 -0.305099 -1.0423619 0.5857628 -0.9783144 0.67726517 -0.7180409 1.4982213
350 2.0276494 -0.49848527 0.31245905 -2.371264 -2.3005729 -0.8196346 1.3518496 0.17431052 -0.52688545 -0.9163325 1.3202046 -1.2042416 0.603025 0.7128424 1.1654136 0.15481432
301 2.6233954 -0.1690459 -0.07833244 0.38214052 -0.41223797 -1.0812038 1.0299184 -2.5009692 -0.81378585 -0.20350358 0.04104098 -0.27768028 0.21894187 0.042048775 0.39033112 1.2933209
288 0.047958028 -0.03328566 0.8666812 -0.71243006 -0.3350168 -1.1686318 0.6223227 -1.4393364 0.5811714 0.85743 -0.18919091 -0.010531556 -1.0383464 1.5418066 -0.19313553 1.4888086
387 0.09756817 0.20307037 1.1225365 -0.83103406 -0.20791131 -0.7364722 0.7860278 -1.4187363 0.57632 1.4482571 -0.2067229 -0.1004453 -1.4393855 1.6166728 -0.40632346 1.1979518
394 -0.7060034 0.21429715 1.6487081 -0.035055052 0.26617447 0.23622204 1.0571048 -0.88626987 1.5813411 -1.5215174 0.8838214 0.6628338 -0.54131764 0.16833171 -0.051237177 0.7221305
314 2.4300175 -0.5686313 1.8226156 1.4488516 -0.23870581 -0.6904946 1.996102 -0.6014909 -0.85198164 1.2599927 0.20611523 0.24385387 -0.2107726 1.0127447 1.6696368 0.4603874
157 -0.19376728 0.35781723 1.4800155 0.51467115 0.440128 0.3017605 0.5256981 -0.9906173 1.8559476 -1.1847208 0.14499064 0.8819828 -0.5329793 0.8009861 0.14959836 0.62756586
177 -0.6648747 -0.44241306 0.8796138 0.23940259 -0.3354175 0.9153508 1.3449321 -1.3273284 1.2856034 0.23718955 0.53514814 -0.0044482136 -0.1432027 -0.81490713 -0.80189776 1.0451884
59 1.1327187 0.8467325 1.5900422 0.46055117 -1.8998381 1.6490005 0.08498313 1.1698829 -0.6644376 -0.9658589 0.71899015 0.6524559 -1.00668 1.1204323 -1.7563885 1.140485
247 1.1605986 0.6479165 0.6574468 0.21162522 -0.8081805 -1.4121743 -0.69901776 -0.32055107 0.5801107 -0.7423656 1.8218813 0.8974747 -0.2072989 -0.9042214 -1.1946762 0.566794
258 -0.7873204 -0.3491631 1.2135448 0.07197072 -0.33508247 1.3532032 1.4007283 -1.3455867 0.95408964 0.14523758 0.5401501 -0.09593315 -0.14108376 -0.5466694 -0.60870063 0.7008106
166 1.8279636 -0.76086414 0.23331612 0.118157 -1.4535396 0.3150132 0.6790302 -0.032632228 0.37928084 0.7114969 1.4158841 0.8529749 0.08754948 0.47406635 -0.86378676 -1.345767
75 0.020597031 -0.7113228 1.0927247 -0.679035 -0.13677596 -1.7923247 1.7798201 0.050931897 -0.32336825 0.7150651 2.355752 0.2613052 -1.3354297 0.635476 -2.2945678 1.5493026
290 1.557612 0.22826369 0.6848887 0.40802225 -0.90494514 -0.47689182 -0.023138015 -0.5482838 1.4005693 0.28030652 0.12259009 -2.0823002 0.27988672 -1.552926 -1.2922239 -0.6375987
215 1.2750611 0.5844818 -0.12733872 -0.48055825 -0.9825602 0.46277857 1.8299688 -0.24515502 -0.86725676 -1.0434844 0.915638 -0.46326616 0.5911195 0.10453584 -0.69485694 -0.70619035
60 0.7421594 -1.1880163 1.1359417 -0.21802124 -0.50053334 0.17793961 -0.2571128 -0.6108645 1.8433504 -1.5512747 1.3014015 1.1366203 -0.47274488 1.6155955 0.024940671 -0.15928718
109 0.53500307 1.2249694 0.51320374 0.17314509 0.07936064 -0.6050569 -0.41255188 -1.1468532 0.08468901 0.09440394 0.2953087 -1.0784341 0.18688661 0.6130036 -1.3085345 1.1143003
309 -0.541976 0.061477657 1.1302471 0.25098485 -0.32197717 1.4941428 1.4247985 -0.6291932 1.1455469 -0.55599916 0.27806076 0.64231163 -0.17499082 0.30592448 -0.5941901 0.47588053
181 0.9489104 0.12822552 0.85327667 -0.41904405 -0.2271007 -1.6721854 0.6941696 0.7228776 -0.045369696 -2.0258827 1.7099845 0.25361115 0.120551094 -0.30356762 -2.0988286 -0.52028227
382 0.5771764 0.92366076 0.3100253 -0.1338531 0.049692865 -0.09253712 -0.35261044 -1.1140529 0.497519 -0.078417346 0.337323 -1.3277153 0.59404844 0.88473713 -1.3298464 1.5496677
302 1.8003417 0.09899676 0.9217783 -0.13380925 0.11301274 -0.72794497 -0.1516885 0.6911737 1.7514597 0.5166933 1.0170994 -0.7988124 -0.2752256 -1.015598 -0.898778 -0.5830321
392 0.25719905 1.1385232 0.5552706 -0.6903707 0.27686456 -0.96956 0.14347315 -1.7154897 0.10595344 0.67239 1.212782 -1.4572835 0.4798042 1.675411 -1.0477893 0.34077317
369 -0.26540595 -0.32325506 0.8390376 -0.9876687 -0.18248864 -0.19277826 0.2982451 -0.22258551 1.1585748 0.23782504 -0.20678583 -0.011065083 -0.8407839 1.4069095 -0.9903525 1.1754351
423 1.3054152 0.51827484 0.47277707 0.40579116 -1.7099268 -0.10161228 0.1596869 -0.8087304 1.0832535 -0.12012012 0.17100018 -2.6035256 -0.06333551 -0.93019605 -0.8888261 -0.6578098
124 0.52588665 -0.35697263 1.1190345 -1.8098505 -1.0058055 -0.7353153 -0.2306176 -1.1820834 0.57705516 -0.88332874 -0.66148293 -1.2327363 -1.0115534 -0.56943595 -2.6094074 -1.2071221
259 1.3005207 1.3014191 1.0131477 0.24139473 -1.5809611 0.32624182 -0.30874667 -0.30331847 1.5467106 0.45483845 -1.2879723 -0.85763586 -0.58734703 0.14972505 -0.904511 0.47555318
332 0.4508716 -0.14796679 0.51965106 1.1862592 0.89463174 -0.9553421 1.6065176 -1.3844699 1.7448148 0.77614665 -0.40466887 0.54907215 -0.47074243 0.20289052 -1.1791021 -0.43139786
145 2.2297852 -0.2913579 0.35561198 -0.8214115 -1.259623 -0.86370844 -0.37014303 -0.59335893 1.4225575 0.5319037 1.5259521 1.031173 0.3643613 0.62925404 -0.537757 -1.3902314
133 0.5809092 0.059629064 0.2690415 1.1658958 0.61716866 -0.6865801 1.2631489 -1.1858511 2.2048426 1.017203 0.40079343 0.32745793 -0.38139114 -0.08994213 -0.8906651 0.49877024
261 1.488169 -0.32341388 0.29175457 -0.0114402175 -1.744238 -0.19046663 0.13447927 -0.08887441 0.79126596 0.5765223 1.6571673 1.020135 0.26829377 0.38009268 -0.5818304 -0.8004602
202 1.4737015 -2.2650597 0.901778 0.6341155 -0.39937484 -1.1270725 1.6443667 -1.3964517 0.63617224 0.12539984 0.46455118 0.009956816 -0.38441792 1.2035066 1.1608595 -0.4455919
69 2.6519618 -1.7253994 0.48022267 -0.12769522 -1.2158921 0.5337441 1.0035117 -0.66002077 -0.085313916 0.4887995 0.7996244 -0.21818091 0.3093062 0.030239794 -1.8856114 -2.3267982
81 -0.019524189 -0.5303876 0.91343135 -0.22831646 0.039481785 -1.6016513 1.219178 0.9398794 0.5132421 -0.45685512 0.86134017 0.6087459 -0.3214412 1.2178199 -2.1019034 1.2107751
180 0.07539414 -1.1409566 0.37960994 0.6747075 -0.4992646 0.95301116 2.829591 0.3882872 1.4589953 -0.4666732 -0.38921592 -0.89697576 0.35852253 0.15023035 -0.7579696 0.046599783
274 2.3407335 -0.8282846 2.060985 0.9730575 -0.027361836 -0.44028842 1.2407066 -0.7150427 -1.6528815 0.73622537 0.15262868 0.6093085 -0.48519826 0.88101095 0.8914102 0.18712112
200 1.8963639 -1.0251364 1.7106732 0.8819845 -0.16916426 -0.120145306 0.57189363 -0.44591394 -1.149013 0.4005962 0.06359953 0.07749427 -0.013627197 0.9359277 0.42164806 -0.6513132
78 -0.11894875 0.22393121 1.216094 1.6402572 0.4181729 0.9233281 3.2102444 -0.053793296 1.7316853 -1.2735151 -0.38914803 -2.0625153 -0.18157442 0.62538934 -1.0166976 -0.023075446
152 0.44708455 -1.2271143 2.6487856 0.60644156 0.04922609 -1.9096761 0.9206384 -0.60787827 -0.69418454 -0.34676072 0.082921214 0.035994288 0.06732958 -1.044839 0.30135697 1.0118779
73 1.4671066 -1.2887449 1.3832724 0.8050068 -0.46933573 0.4009591 0.7115916 -0.19033085 -0.44461423 0.9079834 0.82550997 -0.2936366 0.39714605 0.9103451 0.3332772 -1.3911747
345 0.43057337 0.7048461 0.92861694 -1.0364546 0.35416993 -1.1273655 0.11328079 -2.104085 0.06088368 1.3426617 0.5423729 -0.2541019 -0.29587728 2.5065138 -0.6838455 0.23846875
280 1.1093056 -0.82893074 1.6487124 0.7671891 -0.36393 0.18045287 0.89109015 -0.65323186 -0.008420532 0.21249197 0.82391655 -0.15688613 0.59002095 0.9043137 1.0955553 -1.8685755
25 1.8579973 0.4031742 0.7691492 0.109900095 0.010264224 -0.69693726 0.019899044 -0.007694684 1.560308 0.75000376 1.0689522 -1.3831058 -0.1587138 -1.3758602 -0.5260383 -0.4350936
305 -0.26983464 0.52164847 1.4215238 0.6634899 0.6516843 -0.73634565 2.33533 -1.197111 0.71918327 0.060632903 -0.49486887 0.9167809 -1.6636751 0.37287927 -1.7574055 -1.2777332
341 -0.034005623 -0.43268743 1.1370741 -0.43778184 -0.8787946 0.69342405 -0.3239809 -1.0983868 0.9022916 -0.56030965 -0.38820815 -0.7159796 -0.7401748 -0.06392591 -1.0589767 -0.26951897
137 0.25098026 -1.2799339 2.396856 -0.27984092 0.6103694 0.5847406 0.4161002 -0.63027924 1.718165 -1.1137776 1.7696321 -0.38977838 -0.5161304 0.8701992 0.84860635 0.19502349
174 0.2788018 0.9168401 3.4551673 -1.0646127 -0.62148625 -3.3052688 0.88806146 -0.30269545 -0.7447457 -2.2238083 -0.25355455 -2.432725 -0.33066553 0.9502499 -0.31944668 -3.2058837
418 -0.63462895 0.5193271 1.4762529 -0.0057408623 -0.8639196 -0.5641725 0.34430194 -0.9152696 0.5666696 0.057426184 0.029894743 -0.4114131 -1.4233667 1.8619859 -0.34848106 1.4054316
390 -0.61234283 0.70321184 1.2268608 0.7192255 -0.84034866 0.19004887 0.40064457 -0.6952851 0.31905958 -0.41848347 0.432346 -0.8225025 -0.7720361 1.7967397 -0.62586296 1.2793099
351 1.9202225 1.295383 1.7835147 0.58085996 -0.62165576 -0.46220332 -0.531272 -0.4026247 0.8640226 -0.2058893 -1.6742662 -0.7779177 -0.22917008 -0.018052327 -0.34899876 0.52986354
118 1.061563 -0.9004292 2.6606596 0.105680525 0.5525744 -1.0506481 0.78314006 -0.07502478 -1.3551586 0.053536966 0.19419993 0.11540701 -0.34197962 -0.35854438 0.311227 0.8530301
193 1.34883 2.3873365 1.1592818 1.7735113 0.19206773 -0.0017957271 0.18972282 -1.1032819 -0.8630479 -0.05223033 0.21462382 0.15109167 -0.11718108 -0.23690909 -1.4498152 0.59675795
18 1.6694541 0.99882936 2.383631 0.032268677 -3.5573027 -0.678539 0.59710217 1.3446152 0.62954825 0.64921224 -2.0920892 0.21308097 -0.4248711 0.023831299 -0.46064648 0.8646726
68 2.0787313 1.3573706 1.4719297 0.877909 -2.3437932 -0.95658743 0.5010698 1.0683343 0.94330144 0.3348384 -1.5875536 0.04267789 -0.7982803 0.32184982 -0.2058422 0.89150953
315 -0.35075346 -0.17324485 1.037884 -0.81383437 -0.32512978 -0.9668106 0.811987 -1.0750997 -0.13898122 1.117045 0.95949185 0.16576447 -1.4739321 1.1905657 -1.3399174 1.3216745
42 -0.4546565 -0.19551052 1.550087 -0.31628686 0.13883874 -1.8266137 1.5072637 -0.0765437 -0.29404816 0.305734 1.3962322 1.1396681 -1.1721336 0.45277348 -1.8573378 0.57123715
63 0.20137878 -0.351042 0.7264043 -0.77840096 -0.50171226 -1.4703778 1.3342872 0.44524017 0.3068924 -2.308167 -0.00075386395 -0.0033037264 0.2467927 -0.059361838 -1.4718442 -0.23957995
279 -0.60579914 0.38514972 1.1094486 0.80840194 0.054029908 -0.03717294 1.1516153 -0.48176757 0.7136978 0.8833801 1.068027 0.7574763 0.37395665 0.3184163 -0.94585705 0.0697935
243 0.3061186 0.9197672 3.5449927 -1.0446215 -0.62086135 -3.3322668 0.7097669 -0.347416 -0.7981404 -2.1260896 -0.21766594 -2.3152092 -0.47271156 0.9406096 -0.3211788 -3.2745616
167 1.3526936 0.44226122 0.8198178 -0.6541307 -1.4981822 -2.1314256 0.6090123 0.9958804 0.3065948 -0.8085504 1.8815176 1.6133523 0.1081739 -0.30125073 -0.83124906 -0.05712614
125 -0.0022223233 -0.061104473 0.61777866 -0.13297327 -0.25543627 -1.4347209 0.9272788 0.9276727 0.7135039 -0.5287339 1.147322 0.39160588 0.27658743 0.7381701 -2.2236984 0.19078033
244 0.0049548927 1.4564216 0.4100502 -0.44025058 0.17123441 -1.2032763 0.2903414 -1.9234678 0.57257324 0.56259173 1.3244591 -1.5113859 0.78123665 1.2281796 -1.1308947 0.36500484
410 0.48533544 -0.21464828 2.629466 -2.005423 0.48386005 -0.40337387 1.1263989 0.5898514 -1.1434158 1.031971 1.1680046 0.37285972 -0.4944236 0.4826768 -0.7292823 1.1977787
437 0.12980103 -0.54182297 0.88015574 1.6333807 0.12669411 0.9772788 2.951499 0.009243463 1.816726 -0.84786105 -0.4857574 -1.683549 -0.22634713 0.6387002 -1.0791469 0.074285276
161 1.8490349 0.20891184 -0.17523503 -0.79567206 -1.412043 0.699927 1.8336118 0.08843354 -0.48287615 -0.2907665 0.9868776 0.14434843 1.1449819 0.33300063 -0.32669008 -0.61204237
284 2.1969056 0.0086840615 -0.23671426 -1.7281578 -1.8882596 -0.30200028 1.3266358 0.09031827 -0.4413787 -0.21462376 1.1775001 -0.45346045 0.6502575 0.7254481 0.6867337 -0.021054992
276 0.1723666 0.2755904 2.2549481 0.24157107 -1.2653618 -1.0559778 2.3844576 -0.13182957 -0.4289965 0.9561987 -0.31819668 -0.64298594 1.7332501 -0.7928939 1.3240219 0.48344636
104 0.08643751 0.86184573 0.7524604 -0.10706563 0.29845056 0.550545 0.21425374 -0.7111762 0.5448832 0.5324536 1.4834598 -1.1421622 1.1101573 1.0997027 -0.637447 0.26065004
140 1.0290865 -0.4014548 0.65991855 -1.4035162 0.65228957 -0.29718682 1.5219047 -0.20856227 1.0629536 -1.5273129 0.15989925 -1.7760582 2.47908 1.124945 -0.053613286 1.394538
11 -0.026278373 -0.6317216 2.2060997 -0.10366028 0.89226764 0.6222012 0.7687334 -0.9044712 1.1891682 -1.070428 1.8207046 -0.52081764 -0.33101475 0.7079707 0.61450964 0.44039652
131 -0.6663385 0.86915106 1.7914566 1.2743214 0.17562889 -0.16206686 1.0664669 -0.3007869 0.7535572 -0.61076355 0.8804336 0.83558637 1.4427158 0.096142985 -0.288032 0.16446178
172 0.7635446 0.079119064 0.874096 -0.46215865 -1.45805 -0.77174807 -0.39738593 -0.3090257 1.2059736 1.2490598 1.724122 0.054806843 0.74278665 0.43941274 0.6327889 -0.564393
130 -0.12812096 0.5868802 1.3822623 0.1882769 -1.2956469 0.7706057 -0.036984537 0.22642975 -0.43358335 -0.21286589 0.47661588 0.24062687 -0.19461915 1.1256368 -1.204394 -0.060310323
194 1.7804482 0.9817075 2.5870159 -0.21797274 -0.537892 1.2856258 -0.19778231 -0.57778364 -0.36308312 -2.0504048 1.6234 0.27939028 -0.32333183 -0.192788 1.2632924 -1.1363567
7 0.056675207 0.59569234 2.0766277 -1.2740713 -1.4896293 -0.93280524 0.34114242 -0.3502486 -1.5439055 -1.4574437 -0.049001753 -0.5388311 0.16350462 0.7607392 -0.34407657 -0.85621995
55 0.48097527 0.7476383 0.9078902 -0.009966357 0.511445 0.86802685 0.15191297 -0.5192243 0.27237645 0.08653946 1.1115732 -1.0617077 1.2638737 1.3437605 -0.57856786 0.2205758
335 1.9555825 -0.4849776 1.8405218 -0.25272137 -0.54913884 -0.3991033 -0.15616348 -0.7619493 -0.2373071 -0.72148544 -2.4097974 -0.47743383 -0.29585493 0.56221235 -0.8067521 0.8170341
228 0.13335091 -1.6612655 2.7942083 0.12203554 -0.40665838 -2.0351098 1.5985645 -0.39319134 0.22318248 0.03338748 -0.26564598 -0.37702486 0.9390779 -1.8483744 0.44003505 0.07777944
38 0.10400082 -1.0129573 2.1727028 0.45631814 -1.265279 -1.377775 2.523329 -0.05463719 -0.14418674 0.52886826 -0.44397503 -1.0950922 1.8162322 -0.63438 0.820054 0.2742428
219 0.009962434 0.74878734 3.3479295 -0.84690094 -1.3149699 -2.7822301 0.67137283 -0.39371425 -1.1146678 -1.7300063 -0.035761856 -2.0465596 -0.09149427 1.6004817 -0.58414507 -2.9152944
256 0.875403 -1.0210041 0.8658149 0.2859611 -0.72681546 -1.6573069 0.3779083 -1.1599094 0.2121249 -0.39134797 -0.5713927 0.08667126 -0.96375686 0.94757515 0.44691023 1.0814745
164 0.1459749 1.3907999 0.39371702 -0.58551043 0.42151394 -1.3092755 0.44055545 -1.5223958 0.4431415 0.24323319 1.0914686 -1.2204949 1.1520051 0.9141936 -0.58792126 0.57770526
197 1.8716002 -0.10295168 0.5999845 -0.6633746 -0.5185535 -0.95538825 -0.080005944 0.3950854 1.7158272 0.38621855 1.7012777 0.5745907 0.32753837 -0.44459012 -0.5463753 -1.0985993
293 1.3073418 -0.074030936 -0.1963122 -0.67669374 -2.0802655 -0.38156712 0.4692874 0.042071443 1.5358031 -0.63635105 1.6469793 1.2837036 0.5024335 0.82435644 -0.61076164 -0.7207335
22 -0.20982975 1.166515 1.1133107 -0.33267143 -0.021312706 -0.070618846 -0.21418276 -0.10843792 0.59629273 0.63994557 0.6220519 -0.59170425 0.7613115 0.74541515 -0.61303073 0.53221023
334 0.46281925 0.20343697 1.0090773 -0.31514612 -0.040613104 -2.0815392 0.8781599 1.1285203 0.45585138 -0.59517133 1.7384982 1.1707927 0.13649908 0.05970115 -1.4036095 0.5147357
220 0.045480452 1.0804132 1.2136599 0.73372155 -0.8990465 -0.16812123 -0.6586689 -0.5484427 -0.027631596 -0.62983996 0.8235754 0.5113429 0.07355894 0.4533551 -0.9307808 0.60016745
232 -0.1455899 -0.0143008465 0.8701221 -0.52129036 -0.101381704 -1.0514137 1.5600523 0.5659983 -0.069085106 -2.0681245 0.0655982 0.21538314 0.11835841 0.5212155 -1.1167974 0.003069557
234 0.3315001 1.3241171 0.34795004 -1.4017383 0.5912493 -1.1739124 1.4469863 -0.6186228 0.78051484 -0.96220785 -0.23833811 0.04133342 1.9864075 1.380855 -0.3929454 0.16492453
307 0.42321318 -0.7139493 2.0040572 0.86494756 -1.2232047 -0.9510793 2.7145262 -0.47626668 -0.12588355 1.0478524 -0.7119783 -1.094856 1.5979818 -0.059136532 1.1826489 0.48010156
170 1.3977668 -1.3578802 0.7199438 0.8200622 -0.44848588 -1.2666379 0.5268612 -2.1660485 0.01728512 -0.16972975 0.20604077 -0.4258409 0.23843275 -0.010764526 0.573216 1.3910965
92 1.1326789 1.0777369 1.1289042 0.55088365 -2.1678095 -0.04016122 0.2185593 -0.040559627 1.2226741 0.5635852 -0.4601274 -1.937894 0.236149 -0.90944433 -0.30370927 -0.036531612
233 1.0846184 -0.39684 0.28240505 -0.6938128 0.010127766 0.75069463 1.4924767 0.54278636 1.4828576 -0.82646376 -0.42299452 -1.1418971 1.9821284 0.7060314 -0.96007735 1.2450371
396 0.17479005 1.6314087 2.0206842 -1.6132685 -0.0055715605 -0.13466781 0.52507657 0.20537496 0.4416325 1.2265359 0.54623675 0.819444 0.72633135 0.6633297 0.56357646 0.13193627
358 1.3411527 0.20824857 1.1660631 -0.39889547 -0.9902771 -1.0141685 -0.21842791 -0.084129855 1.5979851 1.2073365 2.1253898 -0.4068322 0.93612164 -0.09512109 0.93247426 -0.9608094
363 -0.046631277 -0.06845732 1.4601301 -0.007488598 -0.46534577 0.8122237 0.7760445 -0.56471115 1.9775351 -0.21159874 0.77801394 2.1227143 -0.23406392 1.0208142 -0.3881499 1.0023382
66 -0.12491102 0.7254562 1.9464756 1.4385332 -0.51462054 -0.12356235 0.43259338 -0.5601343 1.209977 -1.0670806 0.6758879 0.5708863 1.8466243 0.03816661 0.856996 -0.52578336
4 0.97237176 0.6831647 1.6482779 0.41086555 -1.9182438 -0.47554561 -0.12114396 0.06470748 1.093448 0.38904244 -0.5686933 -1.5137602 0.93691546 -1.5732372 -0.48752078 -0.21568015
230 0.19114405 0.67895937 1.2688744 -0.24323551 0.4230858 0.08994574 -0.3361498 -0.91927093 0.1187931 0.6931767 0.80334866 -0.7531392 0.61849344 0.6363208 -0.4998409 0.8314668
204 1.2966658 1.6218594 4.371926 -1.7005986 0.050599612 0.41771832 -0.84435505 -2.7093022 0.36884642 0.28878245 -1.2522124 0.43122354 -1.7061045 -1.9246238 0.062675424 -0.45624322
402 0.6524611 0.7553693 1.4899536 0.16584828 -1.5803344 0.11019593 0.23642848 0.8220923 0.7495481 1.2325884 -0.40255103 -0.8783756 0.188007 -0.43080562 0.004061707 0.7071125
381 -0.28493002 1.0272075 2.2142751 -1.2705164 -1.8304617 0.6121811 0.046042904 -1.8285205 -0.3406621 -0.3432964 -0.9366787 0.07697531 -0.5357365 -1.0105985 -1.7133714 -1.2151152
17 2.4872112 1.069794 1.23201 0.9562523 -0.6053338 -0.7592649 0.25805798 0.84479135 0.83497137 0.07291666 -0.939753 -0.98036176 -0.6712696 -0.104797415 -0.17121167 0.016607815
384 -0.15133485 0.4389299 0.8423 -0.078569844 0.54465395 -0.6769609 2.0610454 -1.0123484 2.0286477 -0.8075369 -0.393942 1.2141122 -0.5701526 0.3724911 -0.39126152 -1.2895077
248 1.0564045 -0.093099736 1.0443339 0.018283673 -1.474951 -0.19853686 -0.15190674 -0.8392509 1.4050708 0.17415442 -0.29004857 -1.8219517 0.82273495 -0.95551187 -1.1286625 -1.216454
201 1.1592097 -0.98197097 1.6984996 1.3481152 -0.95813215 -1.0741414 2.2207134 -0.5894693 -0.12481797 1.011459 -0.07049912 -0.65835285 0.8141592 0.3881828 1.5599202 0.6907968
76 1.0824802 1.0536385 4.9078846 -1.957715 0.30629092 0.28684977 -1.0396384 -2.9091668 1.1414146 0.42929488 -1.2020348 0.102124095 -1.5111283 -2.037678 0.36202037 -0.61182666
222 -0.3343894 0.10527615 0.6838973 1.0744361 0.21752475 -0.5381166 1.2275423 -0.9519854 1.1596128 1.5048437 0.59464353 0.0996565 0.020221291 0.5624782 -1.114612 0.2510235
331 0.17133792 0.21910508 0.5560499 0.43015188 0.49707258 -0.8469018 1.246441 -1.5206515 0.51179075 1.5204378 -0.11718625 0.4499321 -0.1568641 1.097931 -0.9000215 0.40887213
58 0.051081933 -0.1914481 1.7381223 0.3586523 0.34724686 -0.026289202 -0.48303598 -1.162375 0.31503242 -0.12891611 1.1837788 -0.35384676 1.07206 -0.020054119 0.26430136 0.17595015
318 -0.2762077 -0.24865504 1.6856313 0.014758912 -0.35750103 -0.75759506 1.4275672 -0.40653244 -0.6197335 1.603561 2.4057074 0.6796337 -0.97197 0.23396702 -1.6881006 1.1707529
421 0.81086725 -1.3187724 1.1915568 1.0220522 -0.2615564 -1.1969606 0.0986011 -1.7286524 0.3268185 0.13304754 0.7680816 -0.19553377 0.9145385 -0.0022129025 0.4934797 1.1342256
218 0.8737479 1.1835105 4.8434463 -1.808549 0.46354744 0.19156165 -0.8412401 -2.848945 1.1356843 0.5406945 -1.1304872 0.25201613 -1.4628242 -2.1244016 0.22314516 -0.65421766
388 1.3514429 -1.9246805 2.9227002 -2.125121 0.62906486 0.42590472 0.5034382 -0.40231952 1.1811008 0.0818156 0.018844757 1.9814115 3.8084064 -2.0760646 -2.7331913 1.4967908
95 1.0219512 -1.12172 0.532343 0.05825272 -0.49012184 0.3711459 2.7356179 -1.5575087 3.1121595 0.85449636 0.52314496 1.243386 -0.9333407 -2.3921785 -0.89231896 2.2076538
0 0.924971 0.90701246 2.0153096 0.32623652 -1.7663608 -0.06589567 0.46035823 0.68601036 0.87129503 0.88618803 -1.045743 -0.96283644 0.5651526 -1.3234291 -0.07973612 0.32847527
106 1.7345911 -0.575585 0.4393372 -2.4568267 -2.4304957 -0.3467114 0.9389584 0.072565965 -0.8685746 -1.3049014 1.4980005 -1.6699517 0.21636175 0.7454763 0.5216785 0.9777192
57 1.1524183 -1.2026918 1.5348519 0.9469619 -0.4671972 -2.1282237 0.5855406 -1.851237 -0.23264086 -0.87135935 -0.19324775 -0.4022733 0.15261559 -0.90259933 0.556033 1.057274
306 0.34033382 1.5643988 2.4501956 -0.6949623 -1.0612993 0.34603477 -0.27328852 -1.8279445 -0.17970301 -0.6495167 -1.272177 0.30754137 -0.6524496 -1.2228652 -1.7101591 -0.89165235
88 2.470676 -2.7975674 2.146704 -2.4368415 1.1739104 0.09701884 0.56028676 -0.1100426 1.2631862 1.6189889 -1.1242111 1.7434746 1.5140235 -0.7182586 -3.249027 0.864862
300 -0.27033305 -0.86080843 0.8659368 -3.5143814 -1.7848908 0.3416696 0.41328397 -0.2332773 0.48646504 0.27346084 0.49032223 -1.2652167 -0.5201424 0.684317 -1.6280888 1.4872586
326 1.5772775 -0.056136657 0.38193166 -0.8583319 0.06147796 -0.5669294 0.18693654 0.024886936 1.4454565 -0.025143838 -0.049850736 -1.3349798 -0.70711195 -1.1758527 -1.7742845 -0.16794258
126 2.0369003 1.0299212 0.21699272 0.06786758 -1.2839965 1.1244516 0.88702625 -1.0680069 -0.52398604 -2.1129723 1.5722846 -0.89171183 -0.33117267 -0.42943975 -0.03833779 -0.5459039
439 -0.20118318 -0.53536415 0.35336527 0.34508908 -0.5763783 1.6413599 2.7591858 -0.45935252 1.1970047 -0.52860135 -0.34310526 -0.23180869 -0.08684253 0.51358944 -1.0828805 0.08935649
417 1.040061 0.5903194 1.8366451 -0.4491936 2.082394 0.089551255 0.7744864 0.017100876 0.91254956 -0.7160029 0.40346453 -1.0398822 -0.77282536 -0.38022864 0.19822124 -0.45082963
85 1.9641472 -2.6541057 2.6006706 -2.2910626 0.9406272 0.42621282 0.32205358 -0.27669114 1.3177329 1.7915113 -1.0111792 1.4357154 2.0798597 -0.8329205 -3.1599815 0.8024609
252 1.6852497 1.0010061 1.4718441 -0.8995597 2.2492774 0.0012938707 2.4514058 0.85258895 2.1105642 0.8532324 -0.072634995 -1.1551195 -1.4472408 -1.133935 -0.31013018 0.14252919
108 -0.6394137 -0.9751626 0.8728796 -2.3442457 -0.9337907 0.11104734 0.40268266 -0.35501128 1.1352863 0.3149372 0.060949087 -1.0335959 -0.7391953 1.1797649 -1.6834892 1.1877873
343 1.5626792 -0.20262942 0.4599096 -1.7704184 0.015567464 -0.87332284 0.20172566 -0.23150963 0.9579718 -0.68041325 -0.3901554 -1.4034604 -0.7058786 -1.1362919 -2.4301813 -0.67205197
246 1.3431585 1.6588795 1.2225556 0.317884 -1.2614471 0.13521206 -0.68599427 -0.8116268 1.4774514 0.1900261 -1.392244 -0.8331902 -0.43611568 0.09304059 -1.3114783 0.38479522
135 1.8057756 1.0285903 1.6329 0.8942648 -2.271294 1.8219491 0.16486524 1.2530514 -0.8145121 -0.9862955 0.9007135 0.8969932 -1.2892071 1.1284959 -2.1099827 1.5758094
99 0.38208178 0.891303 1.223025 0.9629378 -1.1710888 -0.92925286 -0.9610889 -0.6592871 0.45643586 -0.8411432 1.5538806 0.76766163 -0.17760752 -0.09639178 -1.1918536 0.6560197
333 1.0238261 0.46687976 0.35662213 -0.63735676 0.026673185 0.5086561 0.043760896 -0.4526226 0.7438078 -0.44408068 0.30460015 -1.6804117 1.5043783 0.763609 -1.414801 1.9590586
303 1.8699247 0.89015925 1.4764372 -0.12139797 2.1372213 -0.105851926 1.6632682 0.8742399 1.8569753 0.53486073 0.1371127 -1.3854343 -0.76016927 -0.9880266 -0.46533716 -0.06508265
393 1.6365145 -1.0653303 0.14518319 0.43949702 -0.2732896 0.01615377 2.2616053 -1.5696511 3.0786018 1.2585769 0.5336416 1.0193505 -0.8892251 -1.9083223 -0.68289316 1.7858711
312 0.16941172 0.5643375 1.7437756 0.62140584 1.3752315 0.14813803 0.9227895 -0.38728678 1.1816045 -1.0914736 0.47814715 -0.15463375 -0.25106987 0.4884119 0.39125463 -0.085614964
48 -0.6804456 0.030155977 1.1174943 0.62445706 -0.7451705 1.7096376 2.3812563 -0.6321442 0.8867432 -0.756584 0.039468445 -0.3811337 -0.4989948 0.7370531 -0.6353544 0.6990669
299 1.1042211 0.6573572 0.15127225 -0.79236054 -1.5362581 -1.9831924 1.1644987 1.1468111 1.1155553 -0.38213003 2.038303 1.2961859 0.6577799 -0.055625115 -0.32489485 0.26241684
116 -0.68773544 0.68113613 1.379218 1.0935923 -0.9230836 1.2888633 2.1780522 -0.855495 0.7818923 -1.2263778 0.25286552 -1.2543468 -1.0328832 1.339767 -0.70440024 1.3064088
30 2.016733 2.5167625 0.54973716 0.3558238 -2.4478931 0.20391013 1.1842923 -0.9071376 1.949332 0.19301328 -0.28948605 -2.3521376 -1.0330149 -0.52585065 0.09539145 -0.66574544
330 3.3511672 1.60768 1.2807909 -1.2780213 -0.843925 1.1241026 0.981136 0.1846938 1.4683359 -2.1021287 2.6946223 0.24354196 -2.3543742 -0.034909077 1.5502251 -0.81239736
84 2.0086005 1.5070482 1.6277305 1.481163 -2.6945252 -0.93923485 0.72044516 1.260085 0.54195535 0.11449534 -1.195617 0.17144844 -1.246787 0.63262874 -0.6890845 1.4315851
103 1.5943356 0.08049748 0.76591897 -1.1638547 -0.029316287 0.91582507 1.1008668 -0.28098956 0.40188935 -0.77520955 -0.24953334 -0.99281996 2.761609 1.1192098 -0.89267147 2.4627154
379 0.6242169 -1.6072948 1.9167064 -0.12001243 -0.063019 0.6431241 -0.013982066 -0.8428123 1.993439 -1.5975451 1.0818018 1.1135134 -0.62739885 1.6060712 0.37313023 0.1360951
129 1.8365831 0.92029595 -0.29535767 -1.1036594 -0.5503471 0.6387289 1.3502557 -0.41819993 -0.2924374 0.031713184 0.48469016 0.42649895 0.8169898 0.09538901 0.046110313 -0.09812218
298 1.0689307 -0.77233857 1.370587 -2.7252417 -2.416994 0.32223064 0.20494892 0.2369461 -1.0553403 -1.2572327 1.8139753 -2.1911755 -0.21569271 0.46263346 -0.540552 1.8844186
64 0.66245294 0.22117616 0.5357869 -1.9672006 0.15826032 -0.25871363 2.125309 -0.6893294 0.3221718 -0.9951028 -0.008884344 -1.0156357 3.1656036 1.6914529 -0.97279716 1.8748521
430 0.1422457 -1.7569314 2.5807972 -0.021350905 0.09145418 0.38666496 -0.02479274 -0.5381504 1.9859338 -1.3943559 1.6230661 -0.14370838 -0.74911046 1.2974232 0.5408114 -0.049617145
10 -0.26606354 0.8448969 1.343024 1.2824025 0.5725046 0.25106627 1.8157916 -0.10098817 1.2226216 -1.2833567 -0.28769952 -0.9073676 -0.20055188 0.43325806 -0.30025488 0.29668754
398 1.2408202 1.3432283 1.9174012 -1.6125733 1.8799152 0.432324 3.092713 0.6575715 2.3578694 0.93715173 -0.3074336 -1.2480811 -2.287865 -1.1627394 0.06976903 0.099626325
291 0.12682524 -0.59228575 0.71255255 -0.31003287 -0.18301295 -1.9217238 1.8434277 0.49341765 0.13137253 -0.009339456 1.8007325 0.37955502 -1.0502868 1.1054677 -2.92008 1.6476407
419 0.33697423 0.6110757 0.912845 -0.23725514 -1.4596809 -0.33660564 -0.42760342 -0.44290978 0.5351269 1.4015216 1.5378237 -0.4742085 1.1432757 1.01191 0.2103734 -0.011617829
5 0.1892562 0.52991223 1.2069161 0.8330094 0.975219 -0.6032798 2.530691 -0.9652684 1.3691739 0.024162652 -0.36534265 0.83827186 -0.99488974 0.22369705 -1.3939419 -1.6394827
295 0.0016448948 1.5151604 1.6632593 -2.7310653 -1.0218544 -1.2800751 1.3313656 -1.323964 0.6524095 2.2240024 0.71593237 0.37451318 -0.2993575 0.9672385 1.3100241 0.053069793
449 3.4663393 -1.5627388 0.4681143 -0.20044655 -1.4564565 0.55110574 1.1432285 -1.4951766 0.91900605 0.6681498 -0.20998879 -0.594968 0.18633492 0.9504266 -1.7338758 -2.996631
292 -0.57426083 0.21656644 1.6616899 -0.030951317 0.33033925 -1.6393665 1.8832431 -0.488864 -0.35933855 0.31934878 0.5204039 1.0357635 -1.7651472 0.80026644 -2.089107 -0.25656602
80 1.6423533 1.4150884 1.9072295 0.48308736 -3.5117733 -1.1135429 1.2645009 1.4299566 0.6569041 0.7267516 -2.3197498 0.6328665 -0.5065839 0.7726725 -0.824818 1.0377387
389 1.5974574 -1.6922542 0.43027323 0.5052415 -0.7485992 -1.8545187 0.98508835 -2.0540776 0.32858413 -0.43613675 -0.12575896 -0.3361352 -0.34843722 0.5446136 0.90379965 1.091835
16 -0.1344252 0.081981495 0.73434675 -0.41256043 -0.6797296 -0.6450769 1.864463 0.08262965 -0.34543732 -1.9272548 0.99377924 0.06590256 0.37733597 -0.33170605 -1.1891252 -0.29635558
340 0.73208344 -0.2919586 1.3105336 -0.11227765 0.20870972 0.5424496 0.5521507 -0.39739975 2.4208844 -1.1652946 0.14101699 1.7693404 -0.5090532 1.6675869 -0.2954734 0.45532206
83 0.9108885 -0.2300928 3.3448427 -1.2809863 0.89665455 -0.28893548 1.0130225 0.77205443 -1.1929587 0.5661998 0.23082258 -0.21921915 -0.40192562 0.22531237 0.09875173 1.2225436
187 0.4773498 2.0464058 1.5700377 1.4491543 1.0309379 -0.29651144 1.3895885 -0.6027486 0.81741697 -1.0052018 -0.060468644 0.66409975 0.003185388 0.16496105 0.21015441 0.54634535
359 0.39987707 0.13769674 1.6233131 -1.0579432 -0.36209744 -0.57437676 0.88770837 -1.8302896 0.56830394 1.6009378 -0.08118695 0.10165513 -2.0389647 2.0398188 -0.46772036 1.5666108
94 1.6542077 -0.43993497 0.14856364 0.10889482 -1.9515531 0.2114189 0.6008266 0.0027007386 0.6230118 0.5392851 1.7703593 1.2232772 0.31319845 0.72221535 -0.8832499 -0.9630533
178 3.119324 1.6426932 1.2468994 -1.2674601 -0.8059138 0.97630495 0.95867795 0.2507022 1.3227421 -2.327147 2.5946243 0.05458257 -2.1932485 -0.053304918 1.5448183 -0.4233392
50 2.048321 0.21388434 -0.38455224 -0.35999137 -0.7096402 0.24842773 1.4234172 -1.1148782 -0.5705395 0.4541747 1.0908736 -0.017704446 0.8617446 0.00411089 0.26085445 0.1538375
227 2.7773242 -0.6044535 1.6675073 1.8959513 -0.5009783 -0.9659046 2.4326565 -0.99652004 -0.5225933 1.3340794 0.24419442 0.35660776 -0.16635278 0.9677773 1.9295204 0.84639597
190 2.0610328 2.3346639 0.511611 0.42534468 -2.5284526 0.18836851 1.1933916 -0.77840054 2.2573173 0.058571085 -0.374015 -2.6115663 -1.1384994 -0.4255584 0.07065761 -0.43305498
356 1.3216392 1.2624452 1.962927 -1.4668092 1.86819 0.25912833 3.1723638 0.92676514 2.5258343 1.0047125 -0.32603177 -1.2722492 -2.2620976 -1.1418427 0.06903677 0.39634562
368 1.2107949 2.8619635 1.9147632 1.8997498 1.4183542 -0.50914997 1.3383024 -0.6435898 -0.028768782 -0.48349506 -0.25126636 0.8148171 -0.09872168 0.33647713 -0.39616632 0.55725425
179 1.524936 -2.692137 0.66672903 0.60385793 -0.8569119 -1.647618 1.8039778 -1.5491031 0.84353113 0.16040365 0.35749027 -0.2366528 -0.49996334 1.2144051 0.8772314 -0.023727382
448 0.113770925 0.87853557 0.6134549 -0.89317983 0.6698151 -1.6489894 1.1873368 0.016474348 0.9798242 -1.2601686 -0.31835845 0.37355733 1.1598746 1.3345001 -0.5495798 0.13776663
386 -0.76986456 0.9743831 0.81743693 -0.95199186 -1.1624774 -0.2237894 2.1793976 -1.1552469 -0.2750352 -1.4719635 1.0196646 0.87867385 -0.53021586 -0.021495488 -0.955354 -0.59895706
198 0.30311388 0.3009403 1.1772656 -1.3508335 -0.41780132 -0.79517025 0.732026 -1.8981647 0.47943303 1.7738836 -0.21430123 0.103959136 -1.3991412 1.6127892 -0.363252 1.0236231
29 2.41359 -1.6103684 2.4005556 0.0017638729 -0.78691447 -0.98114866 0.11387963 -1.4710344 -1.0930991 -1.1111828 -1.8440578 -0.20492844 -0.19081528 0.9626529 -0.23185126 0.5504717
352 -0.18496454 0.21447687 1.5225279 0.047913544 -0.7103258 -1.1769973 0.35740364 -1.0679307 0.52878624 0.055416357 -0.17508727 -0.6084289 -1.427067 2.1838667 -0.18268362 1.7290628
316 -1.0632365 0.72505116 1.6866003 -1.1616963 -0.52163947 0.57258373 2.7405038 -1.835202 1.1678269 -1.53767 0.32977632 1.3708417 0.32082707 0.23920625 0.080014154 -0.53630865
212 2.8907614 -0.5593168 0.30405113 -0.6501082 -1.3068142 -0.39020672 -0.083833665 -0.79250246 0.8678338 0.38323328 0.9407571 0.56689185 -0.08675229 0.8426082 -0.9241484 -2.031129
321 -0.35056847 -0.12894563 1.1476663 0.28786206 -0.22954035 1.1245693 1.1204692 -0.5619495 1.8068514 -1.0217086 0.45932412 1.118527 -0.5082063 0.761955 -0.84870213 0.75077724
33 1.3005579 1.6312 -0.14633536 -0.19211648 -0.10976746 0.54281104 0.87039155 -2.190277 -0.49150452 -0.3250087 0.690756 0.13115264 1.2017939 0.34082267 -0.672953 0.61205876
111 -0.17010881 0.28079456 1.1478474 -0.8585354 -0.42239252 -1.0799816 0.77446574 -1.213778 0.14676508 1.9016472 0.5530248 0.098140776 -1.178508 1.7062926 -1.1301669 1.0748463
154 0.6813479 0.7000035 1.0686103 -1.0133749 0.53984946 -1.19039 0.07012996 -2.2046328 -0.110519 1.5069631 0.9019121 -0.90042704 -0.13906339 2.9635258 -0.8744908 0.01664097
26 -0.30463684 0.3995098 1.5938005 0.30943576 0.4446413 -1.394316 2.2314076 -0.39391103 0.031672366 0.2664193 -0.16661274 0.82777417 -2.0240817 0.772612 -1.9431465 -0.9297346
231 0.72661096 0.8857888 2.6604538 -2.7419817 0.51096314 -0.39920858 1.0930761 0.046884503 -0.20006652 1.5745419 0.264963 0.49460205 -0.27609152 0.58099926 0.75612915 0.59256136
324 2.1374795 -0.19650306 0.02420368 -0.1266375 -1.2591208 0.23627609 0.9319002 0.15545155 0.5335177 0.08000404 1.1622221 1.9410044 0.37534484 0.70085704 -1.2941236 -1.2596332
428 0.5829546 -0.1244914 1.655147 -1.7647853 -1.6726334 -0.1724562 0.090219714 0.14317621 -1.3787493 -1.5482361 0.90265113 -1.3181428 -0.016792802 0.7318912 -0.20115368 0.4518277
320 0.14647803 -0.24656248 1.2376916 -1.5914087 -1.6179607 -0.59293026 -0.38694087 -1.3306583 1.037007 -0.6060618 -0.41722485 -1.4404315 -1.1145705 -0.4070221 -2.4347706 -1.0284052
322 2.248479 0.84510326 1.5824358 1.014382 -0.13984697 -0.47397065 -0.016798502 0.5402242 1.0966294 0.5255188 -0.28866896 -1.7644938 -0.68941325 -0.9453846 -0.52441716 -0.04454036
96 2.109083 1.116726 2.5795875 -1.018092 -1.0238904 1.3780612 0.18554461 -0.5477324 -0.12915476 -3.0603886 1.9927379 -0.07681003 -0.976891 -0.34583047 1.404309 -1.100033
362 2.5916862 0.27519986 -0.06422085 0.5353277 -0.5542828 -1.1584535 1.3915539 -2.723912 -0.98770547 -0.23262715 0.46161863 -0.13606678 0.17850257 0.13839161 0.32916477 1.5746747
278 0.7033222 1.4155581 0.27666256 0.09696299 -0.037821595 -0.4097162 0.09105899 -1.8453587 -0.4176804 0.48054922 1.1413128 -0.4247889 0.77754426 0.6500805 -0.74500066 0.6990756
380 0.7526099 -0.12732273 1.0594206 -0.22273666 -0.8637546 0.5013598 -0.35192886 -0.91859293 0.813361 -0.55910707 -1.0998535 -0.8373631 -0.9335546 0.36233312 -1.2558743 -0.032326557
51 0.32233742 0.45833498 0.02874211 -0.26423725 -1.0650594 -0.11250412 1.9952394 -0.47843578 -0.53583217 -1.4988859 0.9991934 -0.05242584 0.7417149 0.09069103 -0.8839828 -0.81160736
184 1.6520431 1.4832397 0.53442574 0.36050937 -2.489504 -0.02866642 1.0867072 -0.49040154 1.6122767 -0.09775847 -0.40790105 -2.851114 -0.58813906 -0.47278336 -0.20000492 -0.7172788
354 3.3341007 -1.4809783 0.44537926 -0.31118867 -1.4727513 0.49505138 1.1014231 -1.2767597 0.86343205 0.60548335 -0.12558845 -0.61008644 0.26726583 0.72772914 -1.5626413 -2.7754493
169 0.11404997 -0.11851803 1.4772702 -1.0081936 -0.47572416 -0.37759367 0.5948887 -1.5388895 0.54570127 1.0880504 -0.055890027 -0.18421987 -1.8893654 1.8278288 -0.432713 1.4410094
205 1.8450814 1.7565253 1.667932 0.9088535 -2.3912363 1.1902544 0.47498468 0.6973799 -1.3531064 -0.9242795 0.6506962 1.2272375 -0.9771982 0.58925617 -1.8059816 1.7777709
158 1.8479818 0.89291614 0.7171285 -0.99056345 0.8507664 1.0188024 0.935726 -0.99157774 0.32436636 -0.89666843 -0.52484065 -1.381515 2.2430408 1.2939725 -0.5810475 0.3935275
123 2.343461 0.97754043 1.4959134 1.1803727 0.11927977 -0.72917676 0.13742204 0.89182645 1.0794208 0.078050375 -0.17842819 -1.7153677 -0.7953196 -0.8331285 -0.75056064 -0.23554839
107 0.4643602 0.4845162 2.099339 0.6406476 -0.45464206 0.88554007 -1.5054791 -0.41671866 0.6021785 -0.6389155 1.0957478 -1.1890677 1.5404391 0.91585904 -1.3368737 0.48115253
151 1.3917502 0.35671252 0.5671443 -0.274238 -0.7868028 -1.9768845 0.6224428 0.71223265 0.23125641 -2.2346876 1.7852663 0.50233096 0.33779103 -0.6912391 -2.1433032 -0.305305
365 2.5809407 1.3210385 2.1001785 -1.2071828 -0.81439793 1.3660405 0.41045538 -0.19998519 0.20727141 -2.4167144 2.384907 0.048257302 -1.5442183 -0.27330604 1.5990057 -0.7585822
217 0.19953106 0.6654045 3.2440763 -0.57394487 -0.6740945 -3.2520397 1.1191524 0.08992449 -0.5068201 -2.104221 0.010897625 -2.6786141 -0.59241086 1.4489877 -0.3805057 -3.1316211
262 1.8784332 1.866492 0.46640694 -0.54152215 0.78820974 1.0600499 1.2902333 -1.4453664 -0.032965515 -0.6660583 -0.089966394 -0.7905295 1.8579998 0.88796705 -0.71038795 -0.0682098
427 2.5643682 -0.5916644 0.37601495 0.47080845 -1.9905646 0.12548107 0.53496003 -1.131925 1.7384572 0.4233743 -0.63290215 -1.0153847 1.2128512 0.33009505 -1.3016378 -2.1170213
420 -0.19695199 0.6390072 2.8574824 -0.8929811 -1.3458172 -1.5715597 0.65274715 -0.17803426 -1.2631907 -1.7298752 -0.30228648 -1.1004585 -0.027183235 1.1925995 -0.028937925 -1.7699594
323 1.263316 -1.8634728 1.2813376 0.97098994 -0.5349168 -0.5825715 1.338033 -1.0096515 0.49647593 0.2507529 0.73083293 -0.08028682 -0.12650795 1.2184613 0.96176034 -1.3758359
353 2.4845023 -0.27247408 -0.0038460384 -1.8967019 -2.330385 -0.7600519 1.4850161 0.25542474 -0.5637478 -0.5393476 1.3398463 -1.0012871 0.40169546 1.0251722 1.1232991 0.17144679
297 0.72256756 -0.6766003 0.5554187 0.1447276 -1.3654994 -0.16004036 -0.29352266 -0.6772119 2.0746377 -1.142208 1.6130792 1.2775049 0.19520311 1.7499158 -0.3360758 -0.4417529
237 -0.3006231 0.3030687 1.6238729 1.7921357 0.436852 1.1143848 3.1382806 -0.12772052 1.7566508 -1.2969519 -0.344803 -2.321444 -0.49165988 0.7705394 -0.9833642 0.06205418
397 -0.065835245 -0.7125631 1.6447113 -0.1662456 -0.3879334 1.286323 0.21561217 -0.4057192 1.8991357 -0.74923074 0.3100762 0.6760536 -0.6511599 0.8860434 -0.18808334 0.3286097
110 1.6692894 -0.28154337 0.26616412 0.6668342 0.5607576 -0.23553005 0.89007854 -0.09738737 1.8257052 0.9046378 0.6231705 -0.45126987 -1.0536784 -1.012005 -0.600458 0.5326326
260 2.0287023 1.4726359 0.029291157 0.5068037 -0.3550085 -0.34670052 1.0909995 -3.0552833 -1.1211289 0.19922465 1.1548893 0.1752082 0.75927675 0.12178417 -0.48959368 0.6551385
12 1.4299511 -1.0617687 2.1182234 0.7268714 -0.39336798 -1.4449395 0.24445462 -1.4094899 -1.1459183 -1.0060269 -0.7986639 -0.08276889 0.38356107 -0.28914654 0.2843573 0.52589965
163 1.3448491 0.21225789 0.25530505 -0.48237506 -1.0165514 -0.99600077 0.16157058 -0.107318275 1.0472286 -0.24128816 2.1355782 1.0850586 0.4503288 -1.0734975 -1.03797 -0.40619808
138 0.052052695 -0.08825516 0.6129531 -0.37940243 -0.22453386 -0.59883714 1.6550431 -0.43613738 -0.38628832 -1.5972669 1.704028 0.026977615 0.33791998 -0.5858419 -1.0418683 0.075324014
236 1.1509366 -0.76076823 1.0338264 -0.7879212 0.6401241 -0.009888233 1.3058351 0.32347664 1.1293651 -1.4628801 -0.06897057 -2.100861 2.2615898 1.1419153 -0.010203522 1.4623448
192 1.8782432 1.9254037 -0.175632 -1.1180478 0.072220445 1.1468881 1.8484458 -1.6368822 -0.35422763 -0.32270592 0.25558445 0.29182452 1.2315246 0.37222013 -0.27012515 0.43866512
424 1.6386303 0.41346672 1.2595909 0.13798554 -0.111802 -1.0417247 -0.23333366 0.15654926 2.0853229 0.841567 1.6833273 -0.9505988 0.41286922 -0.6820007 0.5341 -0.85039026
209 -0.20817527 1.3197218 0.64779395 -0.6763417 0.30362672 -1.7232782 0.7632807 -1.736212 0.57282966 0.27856517 1.2927208 -1.9370326 1.1767927 1.0804702 -0.8002838 0.36108217
249 2.2484753 -0.5960764 2.0560274 1.2546636 -0.05267812 -0.8446748 1.6087004 -0.4582549 -1.2375218 1.0608962 0.0020029698 0.2616263 0.06094221 0.680623 1.177428 0.5959735
347 1.5139245 -1.0651317 1.6215647 1.4606996 -0.9344774 -0.9595509 2.087406 -0.7789993 -0.28462997 0.9021886 -0.097110294 -0.47795165 0.5538055 0.6904152 1.5562605 0.8516228
146 -0.15784319 -0.86952543 1.3633189 -0.5313187 -0.48739627 -1.7108446 1.4807283 -0.28538167 -0.6461702 0.81341183 2.5220442 0.24378185 -1.5196986 0.5551189 -2.2702572 1.5529282
401 -0.049212717 0.85635346 0.9407896 0.70908815 0.63648987 -0.32712272 2.2834446 -0.50629133 0.10507344 -0.16985196 0.8313032 1.0853585 -0.2035124 -0.068247594 -1.3600415 -0.96729696
329 1.4235446 2.8785822 1.8145696 2.255742 0.8542497 -0.15489133 0.85337543 -0.78734493 -0.73305714 -0.03847947 0.056843583 0.3819356 -0.51414627 0.0882273 -1.0763128 0.5926084
268 2.0559049 -0.7636231 0.28146827 -0.20463373 -0.8842442 0.7070834 0.8069963 -0.09456098 0.08853019 -0.019326914 0.6621667 1.3956324 0.19973111 0.5464312 -1.2913256 -1.4726328
405 1.915739 1.5834723 1.4354899 0.8838438 -2.2779846 1.3160096 0.4099533 0.53825927 -1.3858091 -0.81311005 0.6874949 1.1218029 -0.9632199 0.57960707 -1.6879892 1.8144135
199 2.2266047 0.3685534 0.89316386 -1.2610881 0.5581873 0.9404897 0.64942396 0.04721559 0.69999903 -1.1063057 -0.4864001 -1.4459218 2.4731226 1.2565404 -0.7201302 1.7414409
391 -0.050324243 0.26337713 1.1433221 -0.6786937 0.6884331 -1.3681769 1.2723813 0.6718403 1.0517454 -1.4201076 -0.119716644 0.99464875 -0.21599895 1.7326692 -1.6213385 0.7047484
213 0.09863428 -0.004035893 0.550248 0.9517682 0.37209228 -0.99978673 1.3159806 -1.7884431 1.3175108 1.2275603 -0.49390203 0.33280635 -0.5782042 0.6246668 -1.2768805 0.011390263
54 -0.29204422 -0.15309781 1.2173803 0.5134312 -0.7474666 1.6652343 1.9456034 -0.5002884 1.1388971 0.039214756 0.64952123 1.3433067 0.22715645 0.6631802 -0.57510585 0.8734673
19 1.7283473 0.12746024 0.7466744 -0.37151518 -0.09735247 -1.195574 -0.1552419 0.6601273 2.4178345 0.2434556 1.6175388 -0.117983036 -0.062021513 -0.5496081 -0.9331776 -1.0355757
86 -0.09793774 0.4237069 0.8997134 0.39935967 0.34151343 0.110063985 1.4181454 -0.2455539 -0.012886029 -0.065766945 1.7432666 0.45568174 0.39746213 -0.39627835 -0.7530599 0.046772458
28 2.0071075 0.5153342 2.0826097 0.26584718 -0.7798204 -0.67248213 -0.26834208 -0.27502763 0.2541244 -0.67207426 -2.2874997 -0.88023037 -0.2876161 0.6632007 -0.35361487 0.92330986
91 0.22229035 0.6834582 1.8626829 -0.5820278 0.78577995 0.15121283 0.21842086 -0.617066 0.098261975 0.90860116 0.26826137 -0.577915 0.5407606 0.47784966 -0.11391199 1.2639431
8 -0.6613343 0.20651677 1.2832954 0.38392422 -0.65298873 0.009915521 0.5363328 0.69408023 0.2604347 0.029734394 0.8938518 -0.37534648 0.8665415 1.308618 -1.5249462 -0.3045035
162 1.2248238 0.47916582 0.8700157 -0.83187634 0.035110567 0.55421376 0.6302582 0.8950871 0.39230844 0.005655707 -0.22398585 -0.7388751 1.573651 0.58984345 -0.29648495 1.6803315
327 1.935562 -1.4132515 2.1855526 0.29846793 -0.588566 -0.6445488 0.1632165 -1.3955091 -1.2752815 -0.66150695 -1.3554175 -0.096717395 0.18486533 0.42268732 -0.20010221 0.6909653
141 -1.0891277 0.71906626 1.6196157 -1.4130095 -0.58310616 0.7389099 2.678967 -1.8872495 1.2673934 -1.5504318 0.16957304 1.2235447 0.10676988 0.16758718 0.06596626 -0.16675977
434 1.757072 0.24609011 -0.15493532 -0.7429407 -1.3340297 0.59906733 1.6988126 0.30546904 -0.38813165 0.24051592 1.1356224 -0.0230287 1.1069055 0.34502834 -0.1522941 -0.6081626
223 0.53554606 1.4885118 0.1964056 -0.8171779 0.38182667 -0.02697953 0.17070702 -1.2856494 0.3083445 0.08550488 0.5710858 -0.79862535 1.0433979 0.8501931 -0.8708955 0.5089908
226 1.2355318 0.12819225 0.5635355 -1.539404 -1.3709465 -0.7169708 -0.16907907 -0.14689563 0.42841244 -0.6531098 -1.4695027 -0.6020095 -0.51756823 0.20238112 -2.2749162 0.059954952
403 2.586239 -0.61574167 0.3375347 0.34015346 -1.943285 0.07682927 0.584069 -1.02947 1.6065463 0.46098888 -0.5565351 -0.9755433 1.1062527 0.3481798 -1.3534663 -2.0867112
52 -0.18448985 -1.5696375 2.8880742 0.058443557 -0.45005238 -2.1072173 1.4795295 -0.65798223 0.37443596 -0.20584913 -0.3502542 -0.27660182 0.65068424 -1.9805448 0.37950733 0.40141842
210 -0.7360331 0.37823662 1.0943553 -0.5461204 0.07361271 -0.28556323 2.042692 -1.3759216 1.4089396 -1.1738799 -0.3261185 1.0258557 -0.37759325 -0.13661493 -0.24016921 -1.117878
2 0.08577815 -0.15085046 1.4841601 0.16719343 -0.39401332 0.49337345 0.5782325 -0.84680545 2.4786768 -0.9302544 0.52523965 2.0561903 -0.18352605 1.0614846 -0.06764344 0.9837064
105 1.0876857 0.7252102 2.5703678 0.41378483 -3.162627 -0.21862637 0.6104372 1.1319307 0.5042271 0.81576777 -1.6699058 -0.6711121 -0.2550117 -0.91776425 -0.5529311 1.1248484
436 0.13978605 1.5714253 2.5785317 -2.4367344 -0.30760324 -0.58553433 0.72243524 -0.23218286 0.7902671 1.5441637 0.71522915 0.9532753 0.5070724 0.72092116 1.229451 -0.08032478
432 1.2636459 0.20941766 0.55007064 -0.4848369 -1.8970048 -1.3884358 0.7559252 0.8030506 0.16982889 0.04740915 1.8236151 1.4980279 0.2725309 0.4613305 -0.53835195 -0.5295784
385 1.539657 1.3491094 1.8287743 0.3959281 -3.3047059 -0.97445005 1.0319679 1.2934985 0.680932 0.6181533 -2.183545 0.54051775 -0.48585266 0.7577896 -0.7339107 1.0056965
304 -0.3303807 0.93312144 1.9162954 1.3488077 -0.38615558 -0.40097803 0.5257918 -0.5411396 1.3891001 -1.2836238 0.37770942 0.7003603 1.5786784 0.008999714 0.59317595 -0.056461707
360 0.35504994 -0.84037757 -0.18455073 0.13742025 -0.73450595 0.51082146 2.4169679 0.36369127 1.8495866 -0.7484801 -0.421097 -0.821705 1.2085409 0.41964895 -0.74121344 0.43243894
441 -0.8160354 0.35014734 1.1185796 0.35556537 -0.27904013 -0.18317036 1.3534213 0.34611535 0.4101453 -0.07130862 1.1545349 0.33795765 0.89763606 0.57638645 -1.2556586 -0.2725964
98 1.9898522 0.28740776 0.88803977 -0.07823287 0.2271249 -0.2593756 0.24641556 0.75230217 2.2243896 0.9554768 0.82604754 -1.5769818 -0.11225385 -1.5371748 -1.7843684 0.109928034
53 0.62768906 1.7092928 1.0676446 -2.724935 -0.95226634 -2.1962738 2.564428 -2.3622417 0.38513216 3.184444 0.41437384 0.0063977162 -0.62311554 0.836133 0.24545035 0.5246839
27 1.8505304 0.112105966 0.09717954 -0.86628777 -1.1299446 -0.7200399 0.26730755 -0.34554422 1.3359889 0.5252671 1.752849 1.0228235 0.5243028 0.030984648 -0.80416346 -1.4595096
153 1.3801064 1.1899902 1.4197687 0.49476802 -2.8858414 -0.5582325 0.18498917 0.756991 1.0497229 1.0843871 -1.3776699 -0.5194144 -0.3225881 -0.085397564 -0.6819418 0.606441
102 -1.0248784 0.5150137 1.6813275 -0.6365762 0.014887515 0.04493115 1.485465 -1.2703687 1.3513492 -1.5125327 0.7178482 1.0572248 -0.6771101 0.068326734 -0.11184467 0.19381292
150 -0.6373678 -0.60982496 1.5122116 0.00175174 -0.48718116 1.4640675 0.5543988 -0.882487 1.2929897 -0.10030663 0.62824744 -0.008877903 -0.14193693 0.1858627 -0.26474628 0.08136117
90 2.6179507 0.42692035 0.6775162 0.019318173 0.7081425 -0.34121513 0.6785008 1.1915457 2.3323123 1.0784684 0.60235864 -1.4280095 0.16693139 -1.2596842 -1.867547 -0.010707901
188 1.1038489 0.32254392 0.5396959 -0.54917765 -0.76442486 -0.78060985 0.22272213 -0.28009877 1.3924367 0.713769 1.8805238 0.49075046 0.9605034 -0.4142208 0.2293297 -0.9884476
127 0.46799168 -0.052025516 0.3592899 -0.3094255 -0.11300722 -0.20288415 0.6217381 -0.21004657 0.6033003 0.4168908 1.7382522 0.57288975 0.50273037 -0.31493226 -0.14556855 -0.16277723
451 -0.088017486 0.30768806 0.8181514 0.112559475 0.2568736 0.5348388 0.7041339 -0.39087066 0.2671026 0.42073408 1.705302 -0.47897494 0.85190415 0.7864528 -0.3730523 0.30280805
155 0.8219595 0.8330893 2.375016 0.38876912 -0.5311393 0.8303964 -1.9664019 -1.387339 0.5843178 -0.81743795 1.6814171 -1.2555321 1.5877606 0.9160347 -1.3049378 0.808891
182 0.635181 0.34465992 2.297084 0.9598843 -0.39940375 0.12961525 -0.17095646 -0.29370648 0.9920787 -0.9299923 1.2670825 0.42816618 1.2628058 0.47408405 1.2712525 -1.2067198
139 -0.11152952 0.8824377 1.8252501 -0.22084747 0.042483516 0.27326602 -0.10239944 0.10884016 0.26066172 0.6854403 0.77622503 -0.26985082 0.9022679 0.5149614 -0.08239652 0.6504836
407 0.1828418 0.8657297 1.8433701 -0.24302742 -1.0835816 -0.6991376 1.6029617 0.50851893 -0.81326836 0.9230577 -0.14017591 -0.8171424 1.2425271 -0.24809656 0.4951324 1.0446703
165 -0.40767905 0.71002936 1.2679479 -0.2164424 -0.954731 -0.30703083 1.085804 -0.10842282 -0.810638 -1.489984 0.45338646 0.4851181 0.3190739 0.2406703 -0.77253014 -0.5571528
39 2.2648063 0.2863632 1.0471134 0.7332741 0.5841151 -0.48924816 0.1381443 0.491607 1.2196313 0.6695067 0.68336916 -1.5223436 -0.9289874 -1.1361583 -0.92858416 -0.012671308
216 -0.69330156 0.9000098 1.971834 1.4239737 0.12874243 -0.31779766 1.1878576 -0.24858512 0.81649595 -1.0359842 0.70238405 0.5135188 1.6001904 0.45840824 -0.13117504 0.28624046
24 1.1980208 1.6620007 0.63065785 1.1647217 -0.42806143 -0.31404468 0.42267308 -2.1918657 -1.4594274 -0.041169386 0.8950246 0.074320614 0.7043071 -0.034424867 -1.201651 0.69395435
117 2.3707094 -1.354855 0.55390155 -0.11631942 -1.1107576 0.47767118 0.9953708 -0.13671106 -0.2628724 0.61364496 0.9698345 0.05288883 0.66644806 -0.1335994 -1.7733606 -1.9416142
3 0.5022323 -0.132324 0.66793877 -1.3321947 -0.47290847 -1.5339683 0.79473776 0.23582904 0.3717524 -1.9325104 -0.42594233 -0.6012408 -0.28242812 -0.05812897 -2.149823 -0.6212941
296 1.4305481 -1.2382016 1.791475 0.17293963 -0.8562028 -1.8216606 0.052811045 -1.2431368 -0.29633513 -0.78608155 -1.2755355 -0.013905131 -0.38924694 1.5349966 0.44627595 1.016939
13 0.6638544 2.0585732 0.4663096 -1.5148199 0.9693895 -1.2558802 1.1423897 -1.3097322 0.66234255 -0.59105486 0.5765926 -0.5264531 2.2524 1.1275586 -0.40895748 0.6036779
336 -0.6035343 0.58215976 0.7847601 -0.7563953 -1.1057165 -0.3852633 2.3719916 -0.53354245 -0.6874957 -1.5049497 1.2421602 0.47570777 0.72403866 -0.053947583 -1.2668375 -0.0025397348
311 0.41863087 -0.9919814 1.6902415 0.5911898 0.021681888 -0.5034952 -0.59434766 -1.5257107 0.46790218 -0.010177016 1.131573 -0.44337848 0.94834054 -0.08148553 0.41745442 0.69543797
87 -0.35699916 -0.6103296 1.7962296 -0.12681636 -0.49329957 -1.1109692 1.323641 -0.45201263 -0.7567168 1.3314978 2.3502371 0.3684784 -1.3328825 -0.13248229 -1.6873733 1.1738207
412 1.2325654 1.139816 0.24666084 -1.401153 0.22514395 0.71872705 0.7531424 -0.7144738 0.33118844 -0.36293575 -0.162516 -0.7768197 1.9189417 0.80252635 -0.7741952 1.0621356
101 0.29402876 1.5235533 1.0555265 -2.627691 -0.9193515 -2.3991904 2.4309392 -2.2779317 0.7548316 2.975363 0.2670428 -0.037473276 -0.5586294 0.8707235 0.28747258 0.32627228
250 2.4416258 -1.4594876 0.6381132 0.045339033 -1.0987709 0.42328203 0.99932146 -0.17492972 -0.23136084 0.51342946 1.0130169 0.08464414 0.68317485 -0.02862959 -1.767906 -2.0662282
255 -0.5460024 0.8941098 1.4861273 -0.104075134 0.17117836 0.11353039 0.90996104 0.44050696 0.39732015 0.71677965 0.82957023 0.5732779 0.948976 0.31321794 -0.5640078 0.24505948
367 0.13595015 -0.7039089 1.8865596 -1.472998 -0.119660005 -1.0104784 1.107971 0.5133903 -1.0055413 0.8867781 1.7111686 0.3451164 -0.81845576 0.538477 -1.2310679 1.2245198
443 -0.4705658 0.31644118 0.8356481 -0.7759731 -0.56520253 -0.17830057 2.3163633 -0.8703231 -0.677769 -1.295298 2.264335 0.35933286 0.5535085 -0.085651875 -1.0722526 0.4026083
355 -0.6818157 -0.61149037 1.2545799 0.06076921 -0.76918536 1.9353042 2.1088066 -1.1079001 0.95725137 -0.46279553 0.26777673 0.005203004 -0.2917393 -0.07959673 -0.5156581 0.44994754
269 -0.011631574 0.44543308 1.7561324 0.03481427 -0.0032316893 0.7043798 -0.81021357 -0.65045476 0.2704479 -0.027603546 0.9459872 -0.6190499 0.9514039 0.9563327 -0.5854988 0.53369176
41 -0.5537139 0.2610361 1.319959 0.4287686 -0.06440539 0.91901416 0.2999856 -1.0480717 0.40484735 0.18676113 0.8456617 -0.092981726 0.4572562 -0.023729159 -0.33230788 0.4204906
1 0.17220052 0.7061698 2.2079294 0.31478027 -0.09636956 0.6116381 -1.40063 -1.3325431 0.4769576 -0.372997 1.5000414 -0.8518717 1.3790098 0.35050628 -0.9225189 0.5563347
413 -0.21047279 -0.33117038 2.004002 0.5286347 -0.36940816 0.7924772 1.2911072 -0.36935437 0.7553059 1.025382 1.7256324 1.7382069 -0.14410609 0.76890606 -0.9849848 0.8932918
37 0.37041727 0.5136631 0.7824965 -0.6462726 0.75763553 -1.1481014 1.656133 0.28996408 1.6500453 -1.7585696 -0.5049738 1.069427 -0.5178768 1.580924 -0.9372827 -0.19560881
49 1.0434065 -1.2459843 2.0246823 0.8404476 -0.7122852 -2.249713 0.4986701 -1.9360632 -0.2121134 -0.77453554 -0.13684611 -0.4085252 0.19494939 -1.2295362 0.6759664 0.968196
344 0.3874582 0.43373242 0.79324734 -0.7523049 0.6429665 -1.0905485 1.517534 0.3805143 1.6224712 -1.7180158 -0.43434727 1.0124689 -0.55356836 1.6428045 -0.9581064 -0.09362447
450 1.2140697 1.6955042 1.4313903 -0.48835298 -0.5349654 0.35504222 1.0452249 1.307385 0.014799667 1.1605433 -0.010074874 -0.17220172 1.1335427 0.017645247 -0.14580062 1.4861954
